#ifndef _NN_PACKET_LOSS_CANCAL_WEIGHTS_H_
#define _NN_PACKET_LOSS_CANCAL_WEIGHTS_H_

float weight0[] = {
0.008220609277486801f, -0.005121470429003239f, -0.03577108681201935f, 0.03810703009366989f, -0.05906864255666733f, 0.04130753502249718f, -0.055900443345308304f, -0.012050118297338486f, -0.07850320637226105f, -0.007348018232733011f, 0.07978151738643646f, -0.05230947956442833f, -0.07266145944595337f, 0.004637053236365318f, 0.020797312259674072f, 0.029937317594885826f, -0.08324785530567169f, -0.005698745138943195f, -0.0026560768019407988f, 0.024534178897738457f, 0.05484900623559952f, -0.07364758849143982f, -0.0875735804438591f, 0.03441218286752701f, 0.043291158974170685f, -0.05575094372034073f, 0.07490738481283188f, -0.07418745011091232f, 0.0014270030660554767f, -0.06895945966243744f, -0.005627025850117207f, -0.07325419038534164f, 0.06572414934635162f, 0.049248531460762024f, -0.08657100796699524f, -0.05908589065074921f, 0.07309821248054504f, 0.06727061420679092f, 0.07264285534620285f, -0.09180087596178055f, 0.043152160942554474f, 0.018794488161802292f, -0.060930464416742325f, 
-0.007185927126556635f, -0.055981315672397614f, 0.07999440282583237f, 0.05200925096869469f, 0.042219825088977814f, 0.06062280014157295f, -0.008296959102153778f, -0.07511837035417557f, 0.014029089361429214f, 0.012918675318360329f, -0.026386786252260208f, -0.026268454268574715f, 0.013704321347177029f, 0.0783245638012886f, -0.06569653004407883f, 0.006975106429308653f, -0.08559024333953857f, -0.04868699982762337f, 0.03443130478262901f, 0.07181201130151749f, -0.0760473906993866f, 0.07579638063907623f, -0.05056459829211235f, -0.08042901754379272f, 0.06517133861780167f, 0.010755415074527264f, -0.0010468682739883661f, 0.04210764542222023f, -0.004000476095825434f, 0.04462975636124611f, -0.0824473574757576f, -0.016589073464274406f, 0.055562958121299744f, -0.0605783686041832f, -0.05685131624341011f, -0.08187994360923767f, -0.06345545500516891f, -0.08309388905763626f, 0.022664090618491173f, 0.010162136517465115f, -0.046045899391174316f, 0.03447849303483963f, 0.08240383118391037f, 
-0.02491309493780136f, 0.0110861137509346f, 0.03387533873319626f, -0.05575675889849663f, -0.018763165920972824f, -0.04437929019331932f, -0.0686611607670784f, -0.01467194315046072f, 0.0014384163077920675f, -0.09106045961380005f, -0.0249004103243351f, 0.03614877164363861f, -0.07812909036874771f, -0.006156150717288256f, 0.07492001354694366f, 0.011967979371547699f, 0.013203333131968975f, 0.06838514655828476f, 0.08205879479646683f, 0.06813053041696548f, -0.08769692480564117f, -0.02350255474448204f, -0.06658610701560974f, -0.02678866684436798f, -0.07028840482234955f, 0.07925153523683548f, 0.03748231753706932f, -0.03599066659808159f, -0.07578571885824203f, 0.0737084224820137f, -0.040070194751024246f, -0.020004557445645332f, -0.06855670362710953f, -0.03386919945478439f, 0.07137712836265564f, 0.022032521665096283f, 0.05704006552696228f, 0.05015607178211212f, 0.018747853115200996f, -0.016456332057714462f, 0.038850415498018265f, 0.021792009472846985f, -0.0918232724070549f, 
-0.7592226266860962f, 0.22268639504909515f, 0.6596283316612244f, 0.3144204318523407f, 0.10873770713806152f, -0.8597443103790283f, -1.0668714046478271f, -0.4030793309211731f, 0.31636935472488403f, 1.2496037483215332f, 1.7643425464630127f, 1.3977148532867432f, 0.8971233367919922f, 0.6787601709365845f, 0.10366446524858475f, -0.06787893176078796f, -0.29570645093917847f, -0.33912399411201477f, -0.38348355889320374f, -0.26147398352622986f, -0.21921081840991974f, 0.03867795690894127f, 0.007273644208908081f, 0.08261976391077042f, -0.15882523357868195f, -0.019862690940499306f, -0.29796895384788513f, -0.01945047453045845f, 0.06604748219251633f, -0.033303894102573395f, 0.01196428295224905f, 0.08789312094449997f, 0.07631029933691025f, 0.023714721202850342f, -0.0525147020816803f, -0.19764165580272675f, -0.23731166124343872f, -0.03033098392188549f, -0.10771410912275314f, -0.25534847378730774f, -0.24436338245868683f, -0.06821808964014053f, -0.09645958989858627f, 
-0.13236139714717865f, -0.07268347591161728f, 0.12951764464378357f, 0.04876014217734337f, 0.01928696036338806f, 0.1672309786081314f, 0.1383994221687317f, 0.2867043614387512f, -0.06203232333064079f, 0.10683071613311768f, 0.021319612860679626f, 0.1124105229973793f, -0.022500455379486084f, -0.0864986777305603f, -0.05937531217932701f, -0.12026495486497879f, -0.03949783369898796f, -0.02873503416776657f, 0.09797948598861694f, -0.027578160166740417f, 0.028654837980866432f, -0.2082659751176834f, -0.07662373036146164f, -0.004725064150989056f, -0.08648113906383514f, 0.017010673880577087f, -0.21747136116027832f, 0.010412285104393959f, 0.05450136214494705f, 0.05502280220389366f, -0.09955236315727234f, -0.11653341352939606f, -0.14708036184310913f, -0.1380809098482132f, -0.13867098093032837f, -0.18578046560287476f, -0.047213055193424225f, -0.024800078943371773f, -0.058159567415714264f, -0.031451642513275146f, -0.02056591399013996f, 0.1961584836244583f, 0.11511202901601791f, 
-0.232866570353508f, 0.18724428117275238f, 0.05485104024410248f, 0.041786111891269684f, 0.1297110617160797f, -0.019607488065958023f, 0.1333644986152649f, -0.023277463391423225f, -0.10872645676136017f, 0.164436474442482f, 0.1484365314245224f, 0.0966046154499054f, -0.319532185792923f, 0.06546442210674286f, 0.048675354570150375f, -0.04602103307843208f, -0.030375955626368523f, -0.07678250223398209f, 0.105856753885746f, -0.018522176891565323f, -0.06401439011096954f, -0.09263955056667328f, 0.2546943724155426f, -0.1064148098230362f, 0.049346085637807846f, -0.11033564805984497f, 0.1946353316307068f, -0.1628098338842392f, -0.037371404469013214f, 0.0833955705165863f, 0.0991596207022667f, -0.013590052723884583f, -0.02622920088469982f, 0.2245250791311264f, 0.1764761358499527f, 0.21775290369987488f, -0.1655118614435196f, 0.008405318483710289f, 0.13480938971042633f, -0.23547369241714478f, -0.3148200809955597f, -0.23835889995098114f, -0.18019510805606842f, 
-0.5521175265312195f, -0.62730872631073f, 0.12405772507190704f, 0.27344128489494324f, 0.008938752114772797f, 0.033856600522994995f, -0.0470060259103775f, 0.014064790681004524f, 0.08767051994800568f, 0.2611609399318695f, 0.02330237440764904f, -0.0065365140326321125f, -0.19757381081581116f, -0.4446333050727844f, -0.08614561706781387f, -0.23767873644828796f, -0.4414357542991638f, 0.02157522179186344f, -0.10130525380373001f, -0.08909174054861069f, -0.13511192798614502f, 0.3124176859855652f, 0.09654967486858368f, 0.3380654752254486f, -0.10784776508808136f, -0.23409590125083923f, -0.09972407668828964f, 0.08544229716062546f, 0.24275991320610046f, 0.23571792244911194f, 0.02590066008269787f, 0.16112661361694336f, 0.20097090303897858f, 0.24608032405376434f, -0.06325650960206985f, -0.2755255699157715f, -0.09188371896743774f, -0.03225050866603851f, 0.30181190371513367f, -0.32460182905197144f, -0.19080336391925812f, -0.06902254372835159f, -0.2939644157886505f, 
-0.23151826858520508f, -0.1879223734140396f, -0.04521607607603073f, -0.15522196888923645f, 0.12977942824363708f, -0.26164713501930237f, -0.30159991979599f, 0.03431606665253639f, 0.2701738178730011f, 0.003213616320863366f, 0.2932194471359253f, 0.16230635344982147f, -0.06507722288370132f, -0.20147402584552765f, 0.11008630692958832f, -0.011711620725691319f, 0.013184617273509502f, 0.03908153623342514f, 0.2070702612400055f, -0.07416857779026031f, -0.2799101173877716f, -0.015683304518461227f, -0.06276638060808182f, -0.2996283769607544f, 0.07810115069150925f, -0.024498945102095604f, -0.046393126249313354f, 0.25050994753837585f, 0.10742087662220001f, -0.1541212797164917f, 0.1502770483493805f, 0.23320946097373962f, 0.2482369840145111f, 0.05146978422999382f, -0.20323781669139862f, 0.14467096328735352f, 0.10695888847112656f, -0.008549224585294724f, -0.3384816348552704f, 0.43279829621315f, 0.10488098114728928f, -0.317690372467041f, -0.2168213576078415f, 
0.027186214923858643f, -0.5114271640777588f, -0.2503407299518585f, -0.47260934114456177f, -1.2363592386245728f, -1.3920592069625854f, -2.2961270809173584f, -2.8212263584136963f, -3.1875200271606445f, -2.4816195964813232f, -2.897050380706787f, -3.341754674911499f, -1.49009108543396f, -2.969388008117676f, -1.5830094814300537f, -1.6278533935546875f, -1.8485227823257446f, -2.4959256649017334f, -2.300495147705078f, -3.9668853282928467f, -1.7561209201812744f, -1.7729313373565674f, -3.6424193382263184f, -1.620918869972229f, -2.940288782119751f, -4.291703224182129f, -2.867241621017456f, -2.4197890758514404f, -3.439337730407715f, -5.817903518676758f, -5.271188259124756f, -2.4350533485412598f, -2.609616994857788f, -4.570920944213867f, -3.1715517044067383f, -3.4411075115203857f, -3.8971076011657715f, -4.340295791625977f, -3.889310121536255f, -2.1363260746002197f, -2.9863481521606445f, -2.8527345657348633f, 0.00874790083616972f, 
0.49197396636009216f, 1.174224853515625f, 0.2293788492679596f, -0.0430290549993515f, -0.3522729277610779f, 0.3899281620979309f, 0.23138964176177979f, 0.15751111507415771f, -0.014488368295133114f, -0.6979870200157166f, -0.789037823677063f, -0.8561873435974121f, -1.1356927156448364f, -1.0494786500930786f, -1.277483582496643f, -0.6410169005393982f, -0.42337700724601746f, -0.014901984483003616f, 0.3016260266304016f, 0.6576259732246399f, 0.8419641256332397f, 0.901619553565979f, 0.5957179069519043f, 0.777863621711731f, 0.6796736121177673f, 0.39783862233161926f, -0.014617002569139004f, -0.06729493290185928f, 0.05801002308726311f, 0.26684072613716125f, 0.006946610286831856f, 0.2514203190803528f, 0.4066197872161865f, 0.5489879846572876f, 0.49002450704574585f, 0.4027896821498871f, 0.4477759599685669f, 0.30246737599372864f, -0.16215431690216064f, 0.17243151366710663f, 0.17399001121520996f, -0.21047598123550415f, -0.2556553781032562f, 
-0.34974920749664307f, 0.15402084589004517f, 0.14133678376674652f, -0.09680763632059097f, 0.09826884418725967f, 0.0802813395857811f, 0.04951774328947067f, 0.2423650324344635f, -0.1496179699897766f, -0.02169807441532612f, 0.030482467263936996f, 0.19156421720981598f, 0.007653552107512951f, -0.19221311807632446f, -0.1275463104248047f, 0.18211770057678223f, -0.2932334542274475f, -0.19670478999614716f, 0.025963194668293f, 0.020702414214611053f, 0.034349970519542694f, -0.026049816980957985f, 0.07799883931875229f, -0.02048773132264614f, 0.005465884227305651f, -0.1020774096250534f, 0.12487782537937164f, -0.05118212848901749f, -0.17388589680194855f, 0.018526552245020866f, -0.22134627401828766f, -0.04595678299665451f, -0.26157739758491516f, -0.31196263432502747f, 0.06858867406845093f, 0.14199198782444f, -0.08113355934619904f, -0.22520028054714203f, 0.2592172622680664f, -0.0706925094127655f, -0.12806130945682526f, 0.11520171165466309f, -0.14043383300304413f, 
-0.07142945379018784f, 0.1609659641981125f, 0.10603498667478561f, -0.0007456773309968412f, -0.07859475165605545f, -0.3386499285697937f, 0.5578303337097168f, 0.00853693950921297f, 0.15049810707569122f, -0.12939094007015228f, 0.05661642178893089f, -0.058366574347019196f, -0.23663689196109772f, 0.06489454209804535f, -0.12143458425998688f, 0.1531389355659485f, 0.27460700273513794f, -0.08532440662384033f, -0.2207837998867035f, -0.03591027483344078f, -0.02413487248122692f, -0.27215367555618286f, -0.015278375707566738f, 0.028645049780607224f, -0.169047549366951f, -0.3188040256500244f, 0.22522671520709991f, -0.24435456097126007f, -0.10573703050613403f, -0.011937606148421764f, 0.0968688428401947f, -0.10398824512958527f, -0.21002832055091858f, -0.1543942242860794f, -0.10922271758317947f, -0.05391015112400055f, -0.001279676565900445f, 0.17225438356399536f, 0.22867034375667572f, 0.09371816366910934f, 0.018367309123277664f, 0.2129514515399933f, 0.0809926763176918f, 
0.12575851380825043f, -0.40801963210105896f, -0.05221971124410629f, -0.09375449270009995f, 0.3560347259044647f, 0.12233146280050278f, 0.2790238857269287f, 0.24809274077415466f, -0.08197486400604248f, -0.4629870057106018f, -0.4291073977947235f, 0.2504502236843109f, 0.9920076131820679f, 1.5653797388076782f, 1.2795542478561401f, 0.8520041108131409f, 0.995357871055603f, 0.39149805903434753f, -0.0802924633026123f, -0.18463508784770966f, -0.46866315603256226f, -0.5580435991287231f, -0.5942339897155762f, -0.5016428232192993f, -0.6581462621688843f, -0.396124005317688f, -0.5065232515335083f, -0.7686241865158081f, -1.0111724138259888f, -0.5563583970069885f, -0.6270922422409058f, -0.8726765513420105f, -1.0345416069030762f, -1.0678945779800415f, -0.4591798484325409f, -0.3537338376045227f, -0.18871460855007172f, -0.065628282725811f, -0.11389066278934479f, 0.011769617907702923f, 0.008595138788223267f, 0.07209661602973938f, 0.3905089795589447f, 
0.2747536599636078f, 0.6603772640228271f, 0.4122648537158966f, 0.5717058777809143f, 0.3940848410129547f, 0.4264054000377655f, 0.48295941948890686f, 0.1885690838098526f, 0.23168988525867462f, 0.07726212590932846f, 0.3130778670310974f, -0.008931725285947323f, 0.07865720242261887f, 0.010654785670340061f, -0.18623535335063934f, 0.1704881340265274f, -0.07201435416936874f, -0.130435511469841f, -0.1815822273492813f, 0.014504927210509777f, 0.0756225511431694f, 0.21127648651599884f, 0.10324335843324661f, -0.04382801055908203f, -0.33321911096572876f, 0.021727578714489937f, 0.015339956618845463f, -0.12169838696718216f, -0.04614861309528351f, -0.08053658157587051f, -0.08778159320354462f, -0.3323737382888794f, 0.014303025789558887f, -0.18003074824810028f, 0.05152936279773712f, -0.18647144734859467f, 0.21150468289852142f, -0.0849500223994255f, 0.16907359659671783f, 0.08695735037326813f, -0.20581887662410736f, -0.08619200438261032f, 0.08732650429010391f, 
0.3743267357349396f, -0.057722099125385284f, 0.21548274159431458f, -0.10844706743955612f, -0.08738016337156296f, 0.1691480278968811f, -0.07434342056512833f, 0.04814014211297035f, 0.23523692786693573f, 0.07923703640699387f, -0.22426390647888184f, -0.07776382565498352f, 0.19076910614967346f, 0.0044028982520103455f, 0.15040458738803864f, 0.054853327572345734f, 0.03939718380570412f, 0.07059209793806076f, 0.005496637430042028f, -0.10253173857927322f, 0.18438999354839325f, -0.12532494962215424f, 0.21742069721221924f, 0.12079108506441116f, -0.08901650458574295f, -0.0583098940551281f, -0.20027853548526764f, 0.05110584944486618f, 0.2381216138601303f, -0.17522506415843964f, -0.14152023196220398f, -0.07097817957401276f, 0.16081276535987854f, -0.20233963429927826f, -0.13346359133720398f, -0.17253842949867249f, 0.0560283400118351f, -0.00750005105510354f, -0.02679416537284851f, 0.11258745938539505f, 0.1791386902332306f, 0.1353086233139038f, 0.06570622324943542f, 
0.0172852985560894f, -0.2123190015554428f, 0.07482051104307175f, 0.060350868850946426f, 0.07551227509975433f, -0.044080283492803574f, 0.05776207521557808f, 0.0828632116317749f, -0.18749646842479706f, 0.07269133627414703f, -0.1315920650959015f, -0.1814693808555603f, 0.25261813402175903f, -0.17599356174468994f, 0.06829240918159485f, 0.08631940186023712f, -0.22926397621631622f, 0.12771430611610413f, -0.15523752570152283f, -0.048803698271512985f, 0.39293602108955383f, -0.09968400746583939f, -0.11061090230941772f, 0.11582812666893005f, -0.13270670175552368f, 0.17049701511859894f, 0.401254266500473f, 0.13786320388317108f, 0.3771629333496094f, -0.12057153135538101f, -0.08922846615314484f, 0.13020676374435425f, -0.7245708703994751f, -0.3318401277065277f, -1.4775134325027466f, -3.68782901763916f, -1.4022694826126099f, -3.009523391723633f, -3.1633241176605225f, -1.9261741638183594f, -3.647038221359253f, -1.9035955667495728f, -5.613535404205322f, 
-3.7331113815307617f, -0.6181060671806335f, -4.176731109619141f, -3.56337833404541f, -3.775479793548584f, -3.340053081512451f, -3.494568109512329f, -1.6122550964355469f, -0.07935450226068497f, -0.37454700469970703f, -0.04227878898382187f, 0.6779711246490479f, -0.838498592376709f, -0.9824451208114624f, -1.1131662130355835f, -2.11808443069458f, -2.0250895023345947f, -3.4564735889434814f, -3.153404712677002f, -3.133047103881836f, -3.7262330055236816f, -4.3124871253967285f, -4.364412307739258f, -3.762585401535034f, -3.9302706718444824f, -3.6250650882720947f, -4.257931232452393f, -2.1916074752807617f, -3.5108115673065186f, -2.3864612579345703f, -1.8801032304763794f, -1.5112518072128296f, -3.573561429977417f, -2.668602466583252f, -2.276841878890991f, -1.7713736295700073f, -2.6332035064697266f, -2.802678346633911f, -2.789128065109253f, -1.8736103773117065f, -2.1164567470550537f, -3.7353920936584473f, -2.964155673980713f, 
-1.404923677444458f, -2.1340367794036865f, -2.8826918601989746f, -1.5249054431915283f, -2.3179829120635986f, -2.8857579231262207f, -1.029228925704956f, -0.8668919801712036f, -1.0289326906204224f, -2.6758198738098145f, -1.915331244468689f, -2.3191285133361816f, -2.2160086631774902f, -2.1052029132843018f, -2.7213962078094482f, -1.9525580406188965f, -1.6637861728668213f, -1.8139939308166504f, -2.517827033996582f, -2.672090530395508f, -2.089512825012207f, -1.9275699853897095f, -2.450399398803711f, -1.6763886213302612f, -2.4677979946136475f, -2.3026885986328125f, -2.3156652450561523f, -2.3276851177215576f, -1.5476003885269165f, -2.053730010986328f, -2.902066946029663f, -1.638040542602539f, -1.0464481115341187f, -1.1829472780227661f, -0.8996485471725464f, -1.26169753074646f, -0.484298974275589f, -0.21782952547073364f, -0.7885083556175232f, -0.4238184988498688f, -0.8003309369087219f, -0.3953728675842285f, 0.02736825682222843f, 
0.1170358657836914f, 0.07283241301774979f, -0.3240794241428375f, -0.21268756687641144f, -0.10170349478721619f, -0.012230852618813515f, 0.04365434870123863f, -0.1494654417037964f, 0.29183802008628845f, 0.26387301087379456f, 0.2175253927707672f, -0.21358846127986908f, -0.4666849374771118f, -0.3364741802215576f, 0.049502525478601456f, 0.2576517164707184f, 0.5241972208023071f, 0.7821549773216248f, 0.45525267720222473f, 0.680950939655304f, -0.039794180542230606f, -0.4342414438724518f, -0.5020540356636047f, -0.7268656492233276f, -0.8482232093811035f, -0.610897958278656f, -0.8848117589950562f, -1.1697766780853271f, -1.2533068656921387f, -0.5131054520606995f, 0.35811492800712585f, 0.9882408976554871f, 1.2495161294937134f, 1.7210265398025513f, 1.2459282875061035f, 0.5957865715026855f, 0.7652589082717896f, 0.22683562338352203f, 0.14439356327056885f, 0.20241346955299377f, -0.3818860650062561f, -0.3692568838596344f, -0.4187285006046295f, 
-0.5549589991569519f, -0.7647145390510559f, -0.6599218249320984f, -0.2670230269432068f, -0.4347916841506958f, -0.31174901127815247f, 0.43539959192276f, 0.1293465942144394f, -0.06926114857196808f, 0.3060797452926636f, 0.3212848901748657f, -0.23853251338005066f, 0.09702819585800171f, -0.25520604848861694f, -0.42342281341552734f, -0.1737028956413269f, -0.3511943817138672f, 0.049739688634872437f, -0.1633664220571518f, 0.028623126447200775f, 0.40505215525627136f, 0.1934266984462738f, 0.05975370854139328f, 0.5097277164459229f, 0.3090226650238037f, 0.3464549779891968f, 0.2866726219654083f, 0.09109647572040558f, 0.3460153043270111f, 0.21530751883983612f, 0.40777912735939026f, 0.2790679633617401f, 0.25288158655166626f, 0.1594407856464386f, 0.22550123929977417f, 0.2811112701892853f, 0.15257038176059723f, -0.1952885240316391f, 0.1023634672164917f, -0.04688085988163948f, -0.1786557137966156f, -0.007029751315712929f, -0.26350417733192444f, 
-0.3472067713737488f, -0.23200544714927673f, -0.1324845850467682f, -0.06952373683452606f, -0.3992786109447479f, -0.3580128252506256f, -0.35577258467674255f, -0.24531684815883636f, -0.2795336842536926f, -0.12444811314344406f, -0.335958868265152f, -0.21157774329185486f, 0.024749265983700752f, -0.016067272052168846f, 0.18187886476516724f, 0.12986917793750763f, 0.21089056134223938f, 0.1612616628408432f, 0.05472893267869949f, 0.3744879961013794f, 0.03509747236967087f, -0.27323877811431885f, 0.3064265847206116f, -0.15107499063014984f, -0.09609158337116241f, -0.18461059033870697f, -0.14298787713050842f, -0.28464841842651367f, -0.23925995826721191f, 0.14527104794979095f, 0.2118491679430008f, 0.07702247053384781f, 0.08006112277507782f, -0.001888012746348977f, 0.06281136721372604f, 0.1642034351825714f, -0.18477565050125122f, -0.4961458146572113f, 0.3638582229614258f, 0.14569346606731415f, 0.24169926345348358f, -0.16855067014694214f, -0.019912846386432648f, 
0.6997171640396118f, -1.8259321451187134f, 0.10260172188282013f, 2.4274044036865234f, 1.4198664426803589f, 0.9562237858772278f, -0.10638972371816635f, -0.6340309977531433f, -0.3533499240875244f, -0.38319772481918335f, -0.24753151834011078f, 0.045332636684179306f, 0.11723396927118301f, 0.04931604489684105f, 0.1638934165239334f, 0.23716725409030914f, -0.0014538626419380307f, -0.05270727723836899f, -0.04758287966251373f, -0.08043166995048523f, -0.010850893333554268f, 0.02829618752002716f, -0.10390341281890869f, -0.1383500099182129f, 0.0534367710351944f, -0.06870104372501373f, -0.04802669584751129f, -0.019403887912631035f, 0.011543985456228256f, -0.023428842425346375f, 0.0021751124877482653f, 0.14252729713916779f, 0.013171286322176456f, 0.05644901841878891f, -0.03003540448844433f, -0.20448002219200134f, -0.08635054528713226f, -0.10073528438806534f, -0.020064860582351685f, -0.029012620449066162f, -0.2614068388938904f, -0.18625806272029877f, -0.04323708266019821f, 
-0.17112843692302704f, -0.03922773152589798f, 0.11828690022230148f, 0.0025327648036181927f, 0.23836876451969147f, 0.1739509552717209f, 0.04424623027443886f, 0.17007990181446075f, -0.0029480692464858294f, 0.2266400158405304f, -0.011462311260402203f, 0.013643941842019558f, 0.03915490210056305f, -0.1515951305627823f, -0.05664518475532532f, 0.03242556378245354f, 0.027204489335417747f, 0.00395604083314538f, 0.010705919936299324f, -0.11300857365131378f, 0.10378298163414001f, -0.06159482151269913f, 0.06745488941669464f, -0.05494631826877594f, 0.14783523976802826f, -0.055855605751276016f, -0.06374192982912064f, -0.19190210103988647f, 0.040441785007715225f, 0.24650003015995026f, -0.030111489817500114f, 0.12586617469787598f, -0.09961619228124619f, 0.032960861921310425f, -0.19509661197662354f, -0.17868827283382416f, 0.012692580930888653f, 0.07111363112926483f, -0.086531862616539f, 0.08646588772535324f, -0.057364776730537415f, 0.09055457264184952f, -0.0802447646856308f, 
-0.007385582197457552f, -0.1450764238834381f, -0.06673257797956467f, 0.004348451737314463f, -0.032701414078474045f, 0.03023354709148407f, -0.009330694563686848f, -0.12967060506343842f, 0.0796237662434578f, 0.021127961575984955f, -0.028666088357567787f, -0.08211395889520645f, 0.026244474574923515f, -0.08918073028326035f, -0.08897498995065689f, -0.03742745518684387f, -0.13807396590709686f, -0.090744249522686f, -0.041294317692518234f, -0.102232925593853f, -0.012486441060900688f, -0.19946064054965973f, -0.023487364873290062f, -0.07121871411800385f, -0.13268816471099854f, 0.07996100187301636f, 0.1112779825925827f, 0.0726129338145256f, -0.034805309027433395f, 0.0005505676963366568f, 0.02247677370905876f, 0.04841194301843643f, -0.02708619274199009f, 0.027977243065834045f, 0.12947498261928558f, -0.0186186321079731f, -0.21621273458003998f, -0.04206481948494911f, 0.09625597298145294f, -0.14544080197811127f, -0.17419761419296265f, -0.07418219745159149f, 0.12570874392986298f, 
-0.09451474994421005f, -0.20926475524902344f, 0.40779703855514526f, 0.028854891657829285f, -0.3628731966018677f, -0.3416808843612671f, -0.7108006477355957f, -0.2528638541698456f, 0.17264217138290405f, 0.3040902316570282f, -0.08117276430130005f, 0.11062081903219223f, 0.1200658455491066f, -0.47933387756347656f, -0.5776619911193848f, -0.4756556451320648f, -0.21856603026390076f, -0.02490098588168621f, 0.1948268860578537f, 0.6693742275238037f, 1.0626795291900635f, 0.9287261366844177f, 1.028595209121704f, 1.0966289043426514f, 1.5083140134811401f, 0.7386919856071472f, 0.39235422015190125f, 0.3560164272785187f, 0.4628535211086273f, 0.13550762832164764f, 0.2210475355386734f, 0.16560447216033936f, 0.3840489387512207f, -0.1556258350610733f, -0.44332432746887207f, -0.19984789192676544f, -0.2640645205974579f, -0.5803504586219788f, -0.4397953152656555f, -0.5335357189178467f, -0.7776281833648682f, -0.6589392423629761f, -0.3143638074398041f, 
-0.442402720451355f, -0.41949453949928284f, -0.44516605138778687f, 0.14685751497745514f, 0.08123495429754257f, 0.07664836943149567f, -0.10131364315748215f, -0.24049296975135803f, -0.10917756706476212f, -0.23872052133083344f, -0.05001527816057205f, -0.11554847657680511f, -0.26632213592529297f, -0.5900137424468994f, 0.012553445994853973f, -0.06466430425643921f, -0.12372957170009613f, -0.047918565571308136f, -0.16011323034763336f, 0.017435377463698387f, -0.16867952048778534f, -0.35859590768814087f, -0.12139469385147095f, -0.04834466055035591f, -0.13850930333137512f, -0.34966912865638733f, -0.019076185300946236f, -0.05851428583264351f, -0.15910500288009644f, -0.08224351704120636f, -0.034326210618019104f, -0.05900583043694496f, 0.1403922438621521f, -0.07027842104434967f, 0.06329471617937088f, 0.014691732823848724f, -0.35113000869750977f, 0.002255887258797884f, 0.1599614918231964f, 0.26836246252059937f, -0.09396358579397202f, 0.0898914635181427f, -0.10561122745275497f, 
0.03555038571357727f, -0.04316655546426773f, -0.13934029638767242f, -0.17586158215999603f, -0.08625027537345886f, 0.14982667565345764f, -0.007172221317887306f, 0.0904107615351677f, 0.29746878147125244f, 0.2208942323923111f, -0.0625092089176178f, 0.26614296436309814f, 0.13212361931800842f, 0.08372031897306442f, 0.04689226299524307f, 0.05106133595108986f, 0.39541780948638916f, 0.03782668337225914f, 0.21480506658554077f, -0.05858422443270683f, 0.055058225989341736f, 0.2522053122520447f, 0.037194062024354935f, 0.014171281829476357f, 0.1254173219203949f, 0.12940025329589844f, 0.09876890480518341f, 0.22471675276756287f, -0.3493994176387787f, 0.01638375222682953f, -0.027508361265063286f, -0.13035398721694946f, 0.25387823581695557f, -0.2053728848695755f, -0.37750503420829773f, 0.26116499304771423f, -0.026640279218554497f, -0.07009249925613403f, -0.10461194068193436f, 0.02809753641486168f, -0.06466912478208542f, 0.004454724956303835f, -0.010593553073704243f, 
-0.0851685106754303f, 0.19845552742481232f, 0.09224261343479156f, -0.31123897433280945f, -0.033771347254514694f, -0.08422274142503738f, -0.19562092423439026f, 0.042158566415309906f, 0.010467484593391418f, 0.12573672831058502f, 0.42651212215423584f, 0.26102563738822937f, 0.1560695767402649f, 0.20287153124809265f, 0.0662580206990242f, -0.0353086031973362f, -0.13533839583396912f, -0.3321831226348877f, -0.16133160889148712f, 0.0917024239897728f, -0.01602242700755596f, 0.030894936993718147f, 0.08588600903749466f, -0.13381998240947723f, 0.027434585615992546f, -0.06771877408027649f, -0.0351397730410099f, -0.1372864991426468f, -0.1889137476682663f, -0.3369514048099518f, -0.17141394317150116f, 0.1073538288474083f, 0.020474441349506378f, 0.06593288481235504f, 0.10950832068920135f, 0.13490140438079834f, 0.11745529621839523f, -0.01694752648472786f, -0.20822857320308685f, -0.14670884609222412f, 0.15102216601371765f, -0.10904377698898315f, -0.07230108231306076f, 
-0.055960096418857574f, -0.046405062079429626f, -0.02614680863916874f, -0.1479204148054123f, -0.04680231586098671f, -0.27289411425590515f, -0.4390898048877716f, -0.3105829060077667f, -0.17042803764343262f, 0.002212830586358905f, -0.19982855021953583f, -0.12358460575342178f, -0.09816128015518188f, 0.0418388769030571f, 0.1642158180475235f, 0.22334040701389313f, -0.08037767559289932f, 0.1855471134185791f, 0.1393386721611023f, -0.03664122149348259f, 0.36746665835380554f, 0.4560146927833557f, 0.14149682223796844f, 0.17516270279884338f, 0.29027798771858215f, 0.44027769565582275f, 0.5886961817741394f, 0.22634625434875488f, 0.4917483925819397f, 0.4680921137332916f, 0.5221351385116577f, 0.6696732044219971f, 0.5480361580848694f, 0.7557535767555237f, 0.5370316505432129f, 0.4320124387741089f, 0.7977624535560608f, 1.0723788738250732f, 0.7841576933860779f, 0.10884435474872589f, 0.6508145332336426f, 0.8225006461143494f, 0.46419787406921387f, 
0.6613553166389465f, 0.425568163394928f, 0.36937180161476135f, 0.055955298244953156f, -0.1530124694108963f, 0.2474188506603241f, 0.005087448749691248f, -0.0736483782529831f, 0.12345899641513824f, 0.04567618668079376f, -0.27718475461006165f, -0.22678638994693756f, -0.43291449546813965f, -0.3241196870803833f, -0.46843141317367554f, -0.1272624433040619f, -0.10954564809799194f, -0.2999230921268463f, -0.7287040948867798f, -0.5824429988861084f, -0.2988860309123993f, -0.05835837498307228f, -0.5520996451377869f, 0.06465455144643784f, -0.38174912333488464f, -0.13652744889259338f, -0.6146354079246521f, -0.09639817476272583f, -0.18464668095111847f, -0.6301633715629578f, -0.3278343975543976f, -0.2944529950618744f, -0.46505773067474365f, -0.7084973454475403f, -0.7704235911369324f, -0.19672304391860962f, -0.42591965198516846f, -0.47073817253112793f, -0.7724339365959167f, -0.557105302810669f, -0.2726505398750305f, -0.40618106722831726f, -0.011037377640604973f, 
-0.06703697144985199f, -0.5917450785636902f, -0.5518209934234619f, 0.3383217453956604f, 0.6473888754844666f, 0.5870175957679749f, 0.7598768472671509f, 0.3522982597351074f, -0.08300378173589706f, 0.10448689013719559f, -0.11339998990297318f, -0.2568659484386444f, -0.13055679202079773f, -0.07295029610395432f, 0.13638418912887573f, 0.06842999905347824f, -0.0010083937086164951f, 0.18504226207733154f, 0.07691308856010437f, 0.21503305435180664f, 0.34043648838996887f, 0.150944784283638f, 0.06040320172905922f, 0.24699616432189941f, 0.171944722533226f, 0.007759698200970888f, 0.04709362983703613f, 0.04149205610156059f, 0.0854344516992569f, -0.03134122118353844f, 0.09842342138290405f, 0.12351953238248825f, 0.055300988256931305f, 0.03873388469219208f, 0.10095226764678955f, 0.06771572679281235f, 0.13745203614234924f, 0.006489414721727371f, 0.05739353969693184f, 0.08962161093950272f, -0.08166709542274475f, 0.10695023834705353f, 0.043049007654190063f, 
0.004335296340286732f, 0.12343377619981766f, -0.019547060132026672f, -0.02244938537478447f, 0.09842132776975632f, -0.1455303281545639f, -0.05977063998579979f, -0.18309417366981506f, -0.06068376824259758f, 0.007109535858035088f, -0.11775912344455719f, -0.11302247643470764f, -0.01267882902175188f, -0.13346154987812042f, 0.019647201523184776f, -0.032125573605298996f, -0.112720787525177f, 0.06953854858875275f, -0.10876049846410751f, -0.057131923735141754f, 0.07719722390174866f, -0.13695797324180603f, 0.014538917690515518f, -0.03639397770166397f, -0.09739215672016144f, 0.1598627120256424f, -0.08992034196853638f, -0.07147541642189026f, 0.10882558673620224f, -0.03705113008618355f, 0.1184149906039238f, -0.07801257818937302f, -0.07008732855319977f, 0.14806649088859558f, -0.20402741432189941f, -0.12723010778427124f, 0.021135225892066956f, -0.1937481164932251f, -0.06441058963537216f, -0.07019872218370438f, -0.23887281119823456f, 0.1517971158027649f, -0.21386544406414032f, 
-0.08677110821008682f, 0.03184328228235245f, -0.09082283079624176f, 0.07100120931863785f, -0.10478866845369339f, -0.2955140769481659f, 0.21807599067687988f, -0.21475659310817719f, -0.11891546100378036f, 0.08527808636426926f, -0.03592998906970024f, 0.2881912291049957f, 0.014597194269299507f, -0.03556683659553528f, 0.3974316120147705f, -0.05792553350329399f, -0.10516009479761124f, 0.11687444150447845f, 0.030760472640395164f, 7.983212708495557e-05f, -0.07901055365800858f, -0.11366179585456848f, 0.2533242106437683f, -0.12563352286815643f, -0.1206609457731247f, 0.0977182611823082f, -0.081851527094841f, 0.11050572246313095f, -0.16534093022346497f, -0.2862033545970917f, 0.27669721841812134f, -0.19379274547100067f, -0.15045194327831268f, 0.06236318126320839f, -0.08537746220827103f, -0.037788763642311096f, -0.2883421778678894f, -0.2884350121021271f, 0.05507863685488701f, -0.3936261534690857f, -0.5269429087638855f, -0.20291878283023834f, -0.21283672749996185f, 
-0.007614344824105501f, -0.12130573391914368f, 0.12606258690357208f, -0.02962718904018402f, -0.0681711956858635f, 0.04881562665104866f, -0.011329393833875656f, 0.06666305661201477f, 0.10007847845554352f, 0.07875456660985947f, 0.10323575884103775f, -0.09126252681016922f, -0.03791022673249245f, 0.018962403759360313f, -0.013157930225133896f, -0.06090007722377777f, 0.0625230222940445f, 0.021576855331659317f, 0.06645671278238297f, 0.12497352808713913f, -0.07164419442415237f, 0.07592087239027023f, -0.046006809920072556f, 0.045714326202869415f, 0.006642038002610207f, -0.015707185491919518f, 0.019543414935469627f, -0.012086647562682629f, 0.03467721492052078f, 0.09180966019630432f, 0.12856028974056244f, 0.028691818937659264f, -0.0027260768692940474f, -0.11989825963973999f, -0.02876884862780571f, 0.05177599936723709f, -0.04900024086236954f, -0.010758613236248493f, 0.06691952049732208f, 0.034118954092264175f, 0.012393584474921227f, -0.013920779339969158f, 0.08839908242225647f, 
0.03869573399424553f, -0.06549541652202606f, -0.018626974895596504f, 0.020112967118620872f, 0.011478448286652565f, 0.017301024869084358f, -0.040310028940439224f, 0.030575381591916084f, 0.0010663981083780527f, 0.018834253773093224f, 0.021018153056502342f, 0.03511211276054382f, 0.006918302271515131f, 0.02868766151368618f, 0.10151198506355286f, 0.07719709724187851f, 0.0957583338022232f, -0.10599181801080704f, 0.08317802846431732f, 0.04319754242897034f, -0.020098719745874405f, 0.009404276497662067f, 0.008805745281279087f, 0.12057502567768097f, -0.019051892682909966f, -0.052367448806762695f, 0.0743805319070816f, 0.13519269227981567f, 0.0052387285977602005f, 0.007620164193212986f, 0.013605672866106033f, 0.08836224675178528f, -0.012506862170994282f, -0.06698103994131088f, 0.06879323720932007f, 0.08703712373971939f, 0.037778884172439575f, -0.05332934483885765f, -0.01972447894513607f, 0.16022181510925293f, -0.019592028111219406f, -0.04450519010424614f, 0.0917811393737793f, 
0.11766374856233597f, 0.014652037061750889f, 0.14446038007736206f, 0.019089123234152794f, 0.11329052597284317f, 0.019094014540314674f, 0.0024675531312823296f, 0.04024446755647659f, 0.09944280982017517f, 0.017844535410404205f, 0.11772830784320831f, 0.11979207396507263f, 0.07656890153884888f, 0.1112738847732544f, 0.0742260217666626f, 0.10551609843969345f, 0.11437137424945831f, -0.036458879709243774f, 0.08838389813899994f, -0.06305046379566193f, 0.09965016692876816f, 0.03162215277552605f, -0.03258824348449707f, 0.0036245600786060095f, 0.06980955600738525f, -0.046046387404203415f, -0.026635758578777313f, 0.08600053191184998f, 0.10596875846385956f, -0.09917322546243668f, -0.06168888881802559f, 0.007155734580010176f, 0.05080787092447281f, 0.023365303874015808f, -0.19932815432548523f, -0.0434068962931633f, 0.08786284923553467f, -0.1407589614391327f, -0.2727545499801636f, -0.13208843767642975f, 0.06645746529102325f, -0.27139806747436523f, -4.9294281005859375f, 
0.055229268968105316f, 0.44850775599479675f, 0.2255415916442871f, -0.07076176255941391f, -0.2649381458759308f, -0.2989344894886017f, -0.41988325119018555f, -0.6905864477157593f, -1.2635250091552734f, -0.9181162118911743f, -0.48397549986839294f, -0.4379406273365021f, -0.3024619221687317f, -0.40980973839759827f, -0.3206123411655426f, -0.4731983542442322f, -0.286811500787735f, -0.45663249492645264f, -0.15850023925304413f, -0.08402343094348907f, -0.06027692183852196f, -0.17151452600955963f, 0.07492973655462265f, 0.20090988278388977f, 0.14358395338058472f, 0.11815530806779861f, 0.04805693030357361f, -0.2228567898273468f, -0.1514093428850174f, 0.010071390308439732f, -0.24069622159004211f, -0.1590384840965271f, -0.3970601260662079f, -0.2129685878753662f, -0.14121849834918976f, -0.09032251685857773f, -0.015847522765398026f, 0.04119366779923439f, 0.07146821171045303f, 0.13748782873153687f, 0.009195102378726006f, 0.22453229129314423f, -0.03259601816534996f, 
-0.07969705760478973f, 0.09841852635145187f, 0.18294285237789154f, 0.31155502796173096f, 0.40240755677223206f, 0.27082911133766174f, 0.36507776379585266f, 0.4883408546447754f, 0.2945752441883087f, 0.5201989412307739f, 0.5234788656234741f, 0.3858616352081299f, 0.30988168716430664f, 0.3806998133659363f, 0.170878067612648f, 0.2414364218711853f, 0.07204882800579071f, 0.11441707611083984f, 0.06920886039733887f, 0.17019164562225342f, 0.06274110078811646f, 0.013305477797985077f, 0.020977605134248734f, 0.025650791823863983f, -0.006127039901912212f, 0.02160780318081379f, -0.08599959313869476f, -0.14805500209331512f, -0.02379225566983223f, 0.18145163357257843f, -0.01958080567419529f, 0.010146627202630043f, -0.13989588618278503f, 0.23839598894119263f, -0.15552520751953125f, -0.12668421864509583f, 0.07969585806131363f, 0.05858839303255081f, -0.19491110742092133f, -0.18604214489459991f, 0.03146994858980179f, 0.1523069590330124f, 0.0051063294522464275f, 
-0.15753063559532166f, 0.0002398042706772685f, 0.08199840039014816f, 0.20231516659259796f, -0.0707196444272995f, 0.12052471935749054f, 0.2539293169975281f, -0.10163642466068268f, -0.02219664305448532f, -0.17352841794490814f, -0.040306318551301956f, -0.05010123550891876f, -0.09851280599832535f, 0.14227721095085144f, 0.05542880296707153f, 0.0456295944750309f, -0.07513827085494995f, 0.15161985158920288f, 0.20763111114501953f, 0.22819861769676208f, 0.13244503736495972f, -0.03697981685400009f, 0.0452217198908329f, -0.1579274982213974f, 0.10247023403644562f, -0.061468951404094696f, -0.041413161903619766f, -0.08772255480289459f, 0.1742558628320694f, -0.1567443460226059f, -0.027571778744459152f, 0.09545388072729111f, 0.19050337374210358f, 0.05998136103153229f, -0.06506010890007019f, 0.016406025737524033f, -0.057897016406059265f, -0.03851940110325813f, -0.1275681108236313f, -0.015604885295033455f, 0.011154938489198685f, -0.04728648439049721f, 0.05392305552959442f, 
-0.028733162209391594f, -0.32150033116340637f, -0.24054411053657532f, -0.2595333755016327f, -0.5300825834274292f, -0.3944343328475952f, -0.19647173583507538f, -0.9521714448928833f, -0.9725474715232849f, -0.7508198618888855f, -0.40147665143013f, 0.09436830133199692f, 0.3344194293022156f, 0.37254199385643005f, 0.7244203090667725f, 1.2724900245666504f, 1.293906331062317f, 1.4140247106552124f, 1.3895536661148071f, 0.941818356513977f, 0.5558795928955078f, 0.1329982727766037f, 0.05678439885377884f, -0.20094431936740875f, -0.3525671362876892f, -0.1636900156736374f, -0.005266624502837658f, -0.22979454696178436f, -0.15603727102279663f, 0.005027681589126587f, -0.021442560479044914f, -0.016884228214621544f, -0.018108729273080826f, 0.05687330290675163f, 0.10276740044355392f, 0.09735622256994247f, -0.14074841141700745f, 0.1074170395731926f, 0.07849280536174774f, 0.0330357663333416f, 0.07420337200164795f, -0.045522548258304596f, 0.02910374104976654f, 
0.03067460097372532f, -0.025848671793937683f, -0.10134799033403397f, 0.04493983834981918f, -0.06338082253932953f, 0.09594539552927017f, -0.04815496876835823f, 0.14817370474338531f, -0.07577910274267197f, 0.05827505886554718f, 0.0029230068903416395f, -0.1917760968208313f, -0.14071311056613922f, -0.0989164412021637f, -0.09237033873796463f, -0.030369451269507408f, -0.07770848274230957f, 0.0562068447470665f, -0.12127839773893356f, -0.10798817127943039f, 0.12135400623083115f, 0.15140175819396973f, -0.05436595529317856f, -0.0012280066730454564f, 0.12877963483333588f, -0.039919909089803696f, 0.013964630663394928f, -0.17303870618343353f, -0.024185262620449066f, -0.03818260505795479f, 0.13973122835159302f, -0.1313881278038025f, 0.00023115993826650083f, 0.08024855703115463f, 0.0510200634598732f, 0.07043053954839706f, -0.14032715559005737f, -0.012997816316783428f, -0.18278715014457703f, -0.11302358657121658f, -0.07737886905670166f, -0.10325006395578384f, -0.0979350209236145f, 
-0.3405471742153168f, -0.03267533704638481f, -0.013849805109202862f, 0.10281868278980255f, 0.037605177611112595f, 0.06601199507713318f, 0.08402198553085327f, -0.07783664762973785f, -0.14550702273845673f, -0.07183247059583664f, -0.10747597366571426f, -0.0299253910779953f, 0.09345970302820206f, -0.07461106777191162f, -0.08618555217981339f, -0.17859406769275665f, -0.2094091922044754f, -0.01593131199479103f, -0.14285443723201752f, 0.07991088181734085f, -0.06590565294027328f, 0.052543286234140396f, -0.040990348905324936f, 0.08591477572917938f, 0.1090228259563446f, -0.08086254447698593f, 0.14388614892959595f, -0.10935664921998978f, 0.02526085637509823f, 0.0955471619963646f, 0.10743124037981033f, -0.07617980986833572f, -0.09919317811727524f, 0.015357419848442078f, 0.03198753297328949f, -0.12397224456071854f, 0.10896752029657364f, 0.07885090261697769f, 0.05213911831378937f, 0.0016504941741004586f, -0.19567202031612396f, -0.1454687863588333f, 0.06230667605996132f, 
0.20591877400875092f, -0.04723850637674332f, -0.11008354276418686f, 0.5706806778907776f, 0.4313321113586426f, -0.12601317465305328f, -0.1483834832906723f, -0.1859479546546936f, 0.295945942401886f, 0.21418353915214539f, 0.10987027734518051f, 0.4364222288131714f, -0.04367488995194435f, 0.15618354082107544f, -0.015019835904240608f, -0.04496807977557182f, -0.15295696258544922f, -0.26977643370628357f, -0.059738997370004654f, -0.07101254165172577f, -0.058330878615379333f, -0.0721881091594696f, 0.11335491389036179f, -0.27520039677619934f, 0.011019617319107056f, -0.038848649710416794f, -0.015659820288419724f, -0.13576048612594604f, -0.14073386788368225f, -0.07642512023448944f, -0.11289123445749283f, -0.07309699803590775f, -0.051428910344839096f, 0.11536002904176712f, 0.22048549354076385f, -0.01571473851799965f, -0.10285067558288574f, -0.015513653866946697f, -0.18012051284313202f, -0.2447206825017929f, -0.09391561150550842f, 0.10559654980897903f, -0.02822253853082657f, 
-0.25591129064559937f, -0.27799686789512634f, -0.16229590773582458f, -0.05831184983253479f, -0.35547733306884766f, -0.05438507720828056f, -0.08175359666347504f, -0.01043766364455223f, -0.2267713099718094f, -0.023821186274290085f, -0.163288414478302f, -0.17662079632282257f, 0.06955844163894653f, -0.18925312161445618f, 0.06363733857870102f, -0.28810861706733704f, -0.35772979259490967f, 0.3024025857448578f, -0.6585847735404968f, -0.3019866347312927f, -0.15013067424297333f, -0.4659489393234253f, -0.045312363654375076f, -0.5023766756057739f, -0.09899076819419861f, 0.02197960577905178f, -0.4098448157310486f, -0.12073083221912384f, -0.3593307435512543f, -0.254894495010376f, 0.2788502275943756f, -0.14482268691062927f, -0.26313668489456177f, 0.016771415248513222f, -0.46919894218444824f, -0.07811383903026581f, -0.6558202505111694f, -0.08810587227344513f, -0.2692554295063019f, -0.6191005706787109f, -0.33320352435112f, -0.34977987408638f, -0.19547145068645477f, 
-0.5518504977226257f, -0.3110440671443939f, -0.008271832019090652f, 0.05161431059241295f, -0.5595737099647522f, -0.12416718900203705f, -0.0462871789932251f, -0.06129944324493408f, -0.0777461901307106f, -0.310844361782074f, -0.379343718290329f, -0.08350443840026855f, -0.3570779263973236f, 0.00526511250063777f, -0.0486677847802639f, -0.19719992578029633f, -0.3248682916164398f, -0.11789330840110779f, -0.0009471074445173144f, 0.20744623243808746f, -0.5360914468765259f, -0.0037294095382094383f, -0.3441396653652191f, 0.9016059041023254f, 0.18200914561748505f, 0.21172763407230377f, 0.26375246047973633f, 0.5012861490249634f, 0.41751956939697266f, 0.8366326689720154f, -0.10155119001865387f, 0.7376174926757812f, 0.7489477396011353f, 0.6916311979293823f, 0.9644702076911926f, 0.8442031741142273f, 0.8930793404579163f, 1.1620738506317139f, 0.9102715253829956f, 1.207160472869873f, 1.1414086818695068f, 0.9414400458335876f, 0.12171497941017151f, 
0.011504018679261208f, 0.06397916376590729f, -0.09455257654190063f, -0.03475160896778107f, -0.021118612959980965f, -0.05554605647921562f, 0.014886237680912018f, -0.06413199007511139f, 0.07500465214252472f, -0.030534964054822922f, -0.05608157813549042f, 0.015200722962617874f, 0.059376947581768036f, 0.020007267594337463f, -0.09749603271484375f, 0.06065485253930092f, -0.01754213497042656f, 0.03631192818284035f, 0.015458093956112862f, 0.020333951339125633f, -0.04507726803421974f, -0.03590713441371918f, -0.05729887634515762f, 0.07127200067043304f, -0.05572804436087608f, -0.08496933430433273f, -0.08146411180496216f, -0.012223927304148674f, -0.08365031331777573f, 0.03856669366359711f, -0.0005755577003583312f, 0.0077336495742201805f, -0.021327152848243713f, -0.04177047312259674f, 0.07708141207695007f, 0.05443425849080086f, -0.0744367316365242f, 0.03551752120256424f, -0.06701671332120895f, 0.002349784830585122f, 0.01921950839459896f, 0.00856957957148552f, -0.03409029170870781f, 
0.021012958139181137f, -0.01928623579442501f, 0.0491182915866375f, -0.08682021498680115f, -0.07336024194955826f, -0.057408299297094345f, -0.08326084166765213f, 0.06441617012023926f, -0.07577414810657501f, 0.022222936153411865f, 0.002856235019862652f, 0.07907034456729889f, -0.0044781239703297615f, 0.039016664028167725f, 0.022079497575759888f, 0.05179275572299957f, -0.038502175360918045f, -0.06870057433843613f, -0.03375379368662834f, 0.006692821159958839f, -0.008733467198908329f, 0.014385277405381203f, 0.043424446135759354f, -0.08045858889818192f, -0.06875539571046829f, -0.0757051333785057f, -0.046150486916303635f, -0.0649895891547203f, 0.026293069124221802f, -0.013083752244710922f, -0.03573748096823692f, 0.021627454087138176f, -0.028883498162031174f, -0.026784846559166908f, 0.008595694787800312f, 0.01800941675901413f, 0.0710616409778595f, -0.06823533773422241f, -0.03632397577166557f, 0.07732013612985611f, 0.08943821489810944f, -0.08129588514566422f, 0.046707332134246826f, 
0.00254107266664505f, 0.0618937723338604f, -0.018402384594082832f, -0.07480629533529282f, -0.009539726190268993f, -0.010056023485958576f, -0.0778876394033432f, 0.03237947076559067f, -0.013466686010360718f, -9.872810187516734e-05f, 0.03334049880504608f, 0.000882327149156481f, -0.05042880028486252f, 0.051306724548339844f, -0.0007030160049907863f, -0.06445515900850296f, 0.03559132292866707f, -0.07423084229230881f, -0.06913699209690094f, -0.08224248886108398f, -0.07776236534118652f, 0.0027901974972337484f, -0.05581767484545708f, -0.04627983644604683f, -0.05710581690073013f, 0.005840482655912638f, -0.06725137680768967f, -0.05294116958975792f, -0.007852315902709961f, -0.003248166060075164f, 0.06421807408332825f, -0.05698232352733612f, -0.048867445439100266f, -0.06107558682560921f, -0.04509714990854263f, -0.05870820954442024f, 0.009522860869765282f, 0.03192959353327751f, -0.008693821728229523f, -0.0742545872926712f, 0.03876512125134468f, 0.06827517598867416f, -0.06121184676885605f, 
0.20775797963142395f, -0.2847440838813782f, -0.24437415599822998f, -0.24558252096176147f, 0.599934458732605f, 1.7218043804168701f, 1.1411482095718384f, 0.578229546546936f, -0.15029409527778625f, -0.7331597208976746f, -0.9841099381446838f, -0.3123977780342102f, -0.47422558069229126f, -0.4789541959762573f, -0.336521714925766f, -0.5124762654304504f, -0.38116616010665894f, -0.2350205034017563f, -0.10295548290014267f, -0.15897691249847412f, 0.05345578491687775f, -0.18127621710300446f, -0.2459045648574829f, -0.09530951827764511f, -0.12693186104297638f, 0.08723898977041245f, -0.22570155560970306f, -0.1151461973786354f, -0.007567690219730139f, -0.20223437249660492f, 0.17993265390396118f, 0.1250465363264084f, 0.4372447729110718f, 0.5895238518714905f, 0.27921509742736816f, 0.4465654194355011f, 0.3399512767791748f, 0.08613728731870651f, -0.4058695137500763f, -0.3648459315299988f, -0.5930565595626831f, -0.3719227612018585f, -0.3310793340206146f, 
-0.1551256775856018f, 0.11123083531856537f, 0.3096540868282318f, 0.13604719936847687f, 0.6603010892868042f, 0.4980723559856415f, 0.5729970335960388f, 0.41837427020072937f, 0.5046936869621277f, 0.3219463527202606f, -0.13687831163406372f, -0.00632039038464427f, -0.10396406799554825f, 0.08476731181144714f, -0.07557547837495804f, -0.5204650163650513f, -0.4980410933494568f, -0.20754382014274597f, -0.2492857575416565f, -0.28661707043647766f, -0.08531419932842255f, 0.012098826467990875f, -0.18124110996723175f, -0.04618813842535019f, 0.06550933420658112f, 0.10825245082378387f, 0.22392816841602325f, -0.0205395370721817f, 0.06362514197826385f, 0.10299436002969742f, 0.09785093367099762f, -0.04341862350702286f, -0.4014090597629547f, -0.09833013266324997f, -0.21126319468021393f, 0.2750603258609772f, -0.1694360375404358f, -0.0351848378777504f, -0.34071606397628784f, -0.19113866984844208f, -0.09670249372720718f, -0.40753689408302307f, -0.23925161361694336f, 
-0.045848947018384933f, -0.2956685423851013f, -0.19062280654907227f, -0.2860487401485443f, -0.21172714233398438f, -0.18502020835876465f, -0.33731749653816223f, -0.3207015097141266f, -0.05979225039482117f, -0.0708901435136795f, -0.09006647765636444f, -0.15007616579532623f, -0.20319005846977234f, -0.30175232887268066f, -0.3485092222690582f, 0.04806653782725334f, 0.0020775473676621914f, -0.06032082810997963f, -0.030744651332497597f, -0.2429858297109604f, 0.08903902024030685f, -0.06178529933094978f, 0.1445760875940323f, 0.1897006630897522f, 0.2697734832763672f, 0.35667020082473755f, 0.38183361291885376f, -0.15736134350299835f, -0.2142820954322815f, 0.14522048830986023f, 0.3678366541862488f, 0.48743775486946106f, 0.4152224063873291f, 0.1674700826406479f, 0.5788230299949646f, 0.7009604573249817f, 0.479982852935791f, 0.15359628200531006f, 0.44315680861473083f, 0.29916682839393616f, 0.2317325323820114f, 0.5166899561882019f, -0.019285911694169044f, 
0.35342657566070557f, 0.6550334692001343f, 0.39617836475372314f, 0.15814776718616486f, -0.16264881193637848f, -0.06941244751214981f, -0.10009530186653137f, 0.15840564668178558f, 0.007946088910102844f, 0.14618676900863647f, -0.01326928660273552f, -0.056476347148418427f, -0.26117315888404846f, -0.27319851517677307f, -0.004499142058193684f, -0.06121334061026573f, -0.7249428629875183f, -0.6217321753501892f, -1.0291188955307007f, -0.939350962638855f, -0.7593376040458679f, -0.14225797355175018f, -0.08307164162397385f, 0.19843587279319763f, -0.4531569182872772f, 0.05999964103102684f, 0.5831215977668762f, 0.358542263507843f, 0.27100974321365356f, 0.40899646282196045f, 0.6447015404701233f, 0.3144487142562866f, 0.5504049062728882f, 1.0034083127975464f, 0.03537527099251747f, -0.2417108714580536f, 0.20894522964954376f, -0.3797152042388916f, -0.6085500717163086f, -0.342233270406723f, -0.7638866901397705f, -0.7151119709014893f, -0.858221173286438f, 
-1.253027081489563f, 0.12112782150506973f, -0.13126949965953827f, -0.31748270988464355f, -0.15033817291259766f, 0.07170231640338898f, -0.05936858430504799f, -0.15884366631507874f, -1.1370995044708252f, -0.01979026012122631f, -0.1709318459033966f, -0.1564095914363861f, 0.2654740810394287f, -0.019414003938436508f, 0.5802284479141235f, -0.04373500868678093f, -0.8349947929382324f, -0.2751968204975128f, -1.8326752185821533f, -2.0885305404663086f, -2.8708577156066895f, -4.277115345001221f, -2.042219877243042f, -3.436060667037964f, -3.595198154449463f, -1.0010790824890137f, -1.0598924160003662f, -1.2829153537750244f, -1.7245935201644897f, -3.37886905670166f, -3.2056899070739746f, -1.8379154205322266f, -2.2361600399017334f, -1.0937888622283936f, -2.788825750350952f, -2.239718437194824f, -3.9212024211883545f, -2.361886978149414f, -2.9611942768096924f, -2.52864146232605f, -1.3896764516830444f, -3.177841901779175f, -2.424534797668457f, 
-2.6570565700531006f, -2.4122657775878906f, -2.4324638843536377f, -4.203587532043457f, -3.171191930770874f, -2.5040647983551025f, -3.361173391342163f, -1.0484791994094849f, -1.429775595664978f, -2.2914927005767822f, -1.6462794542312622f, -2.0071229934692383f, -2.209284782409668f, 0.1441323310136795f, -3.6150963306427f, -2.1786975860595703f, -0.4466748535633087f, -0.9127449989318848f, -1.569619059562683f, -3.3606340885162354f, -2.3100898265838623f, -2.5129826068878174f, -4.269975662231445f, -2.184173822402954f, -1.6360790729522705f, -2.3531055450439453f, -1.8500330448150635f, -2.361133575439453f, -0.6647725105285645f, -2.6622674465179443f, -3.274709701538086f, -0.7650251984596252f, -0.6742339730262756f, -1.5702227354049683f, -1.5776673555374146f, -2.4470510482788086f, -1.5055787563323975f, -1.3544660806655884f, -1.8801100254058838f, -1.0769883394241333f, -1.153262972831726f, -0.6413651704788208f, 0.1110246405005455f, 
-0.6545770168304443f, 0.8520888686180115f, -0.6546815633773804f, 0.48408186435699463f, 1.2083173990249634f, -0.34631669521331787f, -0.1403515785932541f, 0.17818668484687805f, -0.7948980331420898f, 0.12078651040792465f, 0.31421658396720886f, -0.26950010657310486f, -0.27460330724716187f, -0.27837732434272766f, -0.23230133950710297f, -0.06495483964681625f, -0.10581051558256149f, 0.11317452788352966f, -0.08483193814754486f, 0.3770664632320404f, 0.10686090588569641f, 0.09409235417842865f, 0.10042764991521835f, -0.07594569027423859f, -0.25836533308029175f, -0.09864942729473114f, -0.3829207718372345f, -0.5258725881576538f, -0.2775394916534424f, -0.5135588049888611f, -0.43145719170570374f, -0.6075173616409302f, -0.30734169483184814f, -0.18800613284111023f, -0.34419623017311096f, 0.02479083091020584f, 0.17998750507831573f, 0.4508605897426605f, 0.3886696398258209f, 0.1562092900276184f, 0.6667481660842896f, 0.44082796573638916f, 0.556213915348053f, 
0.610090970993042f, 0.446624755859375f, 0.6856012940406799f, 0.28853240609169006f, -0.08236132562160492f, 0.11416611820459366f, -0.19153434038162231f, -0.2008335143327713f, -0.573509156703949f, -0.22999829053878784f, -0.15842820703983307f, 0.007493622601032257f, -0.2618564963340759f, -0.07778352499008179f, -0.38449642062187195f, 0.027022110298275948f, -0.12186075747013092f, 0.05742857977747917f, -0.011621766723692417f, 0.020799128338694572f, -0.21468131244182587f, 0.15928736329078674f, -0.07171766459941864f, 0.11064796149730682f, 0.2518807649612427f, 0.07136547565460205f, 0.08281072974205017f, 0.05173652991652489f, 0.16010677814483643f, -0.1518726497888565f, 0.14253054559230804f, 0.28714558482170105f, 0.1238517016172409f, 0.025781653821468353f, -0.028708670288324356f, 0.02130698412656784f, 0.03824612870812416f, 0.0009725952986627817f, 0.13463300466537476f, -0.2657402753829956f, 0.01424569170922041f, -0.2556685507297516f, -0.1155371367931366f, 
-0.1288234442472458f, -0.19054247438907623f, -0.26025962829589844f, -0.34332311153411865f, -0.2351991981267929f, -0.15910741686820984f, -0.19719664752483368f, 0.051480356603860855f, -0.31680962443351746f, -0.0896139144897461f, -0.19124412536621094f, -0.14689698815345764f, -0.1624603122472763f, -0.15574413537979126f, -0.1626349240541458f, 0.011518465355038643f, -0.048519063740968704f, -0.2868049740791321f, -0.047641050070524216f, -0.37362584471702576f, 0.26980674266815186f, 0.05757276341319084f, 0.046598270535469055f, 0.12161709368228912f, -0.14220084249973297f, 0.06649668514728546f, -0.06233464553952217f, -0.13842467963695526f, 0.1646495759487152f, 0.01623380184173584f, 0.2482743263244629f, 0.1931537240743637f, -0.21282047033309937f, 0.10115382075309753f, -0.05678550899028778f, 0.21422649919986725f, -0.11856193840503693f, 0.4033855199813843f, 0.5934486389160156f, 0.5413944721221924f, 0.5409533381462097f, 0.5087655186653137f, -0.2396317571401596f, 
0.5573033690452576f, 0.7344597578048706f, -0.11868689954280853f, -0.46988728642463684f, -0.059337079524993896f, 0.06569131463766098f, 0.28982606530189514f, -0.15046319365501404f, -0.41200947761535645f, -0.2277643382549286f, -0.3106168210506439f, -0.2495579868555069f, -0.13382768630981445f, 0.14021269977092743f, 0.17150337994098663f, 0.3680119812488556f, 0.06967150419950485f, -0.08752775937318802f, -0.1249699518084526f, 0.014179261401295662f, 0.3003089725971222f, -0.026239395141601562f, 0.027672505006194115f, -0.26241323351860046f, 0.2432357668876648f, -0.07173044234514236f, 0.1086527556180954f, 0.24807703495025635f, -0.05919014662504196f, 0.17097602784633636f, 0.20287199318408966f, -0.01773218624293804f, 0.19436359405517578f, 0.0974138155579567f, -0.11829833686351776f, -0.03130241110920906f, -0.0026456285268068314f, -0.1926882117986679f, -0.4146745800971985f, -0.19274237751960754f, -0.007655613124370575f, 0.03904280066490173f, -0.25258490443229675f, 
0.12326892465353012f, 0.03788253292441368f, -0.28887563943862915f, -0.15048538148403168f, -0.11228634417057037f, 0.2073819637298584f, -0.04650145396590233f, 0.21278178691864014f, 0.25093451142311096f, 0.07253788411617279f, -0.027623042464256287f, -0.19657450914382935f, -0.03389716520905495f, 0.45244714617729187f, -0.3145301640033722f, 0.15981660783290863f, -0.13821907341480255f, 0.17814204096794128f, -0.3632155656814575f, 0.33471688628196716f, 0.12163877487182617f, 0.03504902496933937f, 0.4271067678928375f, -0.012112706899642944f, -0.09256445616483688f, 0.16593977808952332f, 0.068141870200634f, 0.38842183351516724f, 0.18739131093025208f, 0.2192300260066986f, 0.2478458136320114f, -0.33054742217063904f, -0.2916337549686432f, -0.19974538683891296f, -0.6224165558815002f, -0.35471272468566895f, 0.33986765146255493f, -0.2851316034793854f, 0.41391971707344055f, -0.17793011665344238f, -0.06482183933258057f, 0.4122939109802246f, -0.5394560098648071f, 
0.196711927652359f, 0.5043544769287109f, 0.47455936670303345f, 0.8453824520111084f, -0.14041337370872498f, -0.1079443171620369f, 0.62930828332901f, -0.2782478332519531f, 0.37436023354530334f, 0.5715591907501221f, -0.09750796854496002f, 0.5766888856887817f, -0.5600089430809021f, -0.8106546998023987f, 0.22888167202472687f, -1.358989953994751f, -0.8049448132514954f, 0.05050792172551155f, -1.4445160627365112f, 0.07493127882480621f, -0.8045756816864014f, -2.0459649562835693f, -0.13563811779022217f, -2.706353187561035f, -0.9498007893562317f, -0.06087052822113037f, -2.165895938873291f, -0.35214295983314514f, -1.4928085803985596f, -1.9804644584655762f, -0.16134916245937347f, -2.5522477626800537f, -1.4731025695800781f, 0.23943985998630524f, -4.364537715911865f, 0.009204103611409664f, -1.7444405555725098f, -3.693037748336792f, 0.03575058653950691f, -3.833552598953247f, -0.9857222437858582f, -0.3551560640335083f, 0.012858901172876358f, 
0.21827691793441772f, -0.052189942449331284f, 0.056490737944841385f, -0.13741075992584229f, -0.27112096548080444f, -0.3067452013492584f, -0.7756274938583374f, -0.514974057674408f, -0.9143179655075073f, -0.47468483448028564f, 0.5091302990913391f, 1.292436122894287f, 1.7918553352355957f, 1.6531519889831543f, 0.7935629487037659f, -0.010551859624683857f, -0.2000380903482437f, -0.37781840562820435f, -0.384883850812912f, -0.38833171129226685f, -0.4822029173374176f, -0.8382146954536438f, -0.4714941680431366f, 0.05787975341081619f, 0.03345675393939018f, -0.005793854594230652f, 0.14842624962329865f, 0.20497575402259827f, 0.2707240581512451f, 0.5548735857009888f, 0.3817729651927948f, -0.16996684670448303f, -0.25074315071105957f, -0.21455951035022736f, -0.29779526591300964f, -0.2979249954223633f, -0.4116166830062866f, -0.17766334116458893f, 0.07014822214841843f, 0.19426460564136505f, 0.3927261233329773f, 0.5633192658424377f, 0.36688873171806335f, 
0.1682192087173462f, 0.12778060138225555f, -0.5442938804626465f, -0.41032612323760986f, -0.45921987295150757f, -0.3343813121318817f, -0.25589674711227417f, -0.019687948748469353f, -0.5785536766052246f, -0.1324315220117569f, -0.28228113055229187f, -0.16855227947235107f, -0.3785472810268402f, 0.3774878680706024f, -0.36824989318847656f, 0.02865591086447239f, -0.031006988137960434f, -0.2586570978164673f, -0.667131781578064f, -0.6033481359481812f, -0.5602812767028809f, -0.6390864849090576f, -0.5518414974212646f, -0.08118649572134018f, 0.2821125388145447f, -0.4362400472164154f, 0.10287357866764069f, 0.33590519428253174f, -0.2576221227645874f, 0.013950224034488201f, 0.003214428434148431f, 0.30093881487846375f, -0.22649408876895905f, 0.30413463711738586f, -0.2838604152202606f, 0.35146376490592957f, 0.11442181468009949f, 0.5991525650024414f, 0.14747458696365356f, 0.5511063933372498f, -0.22894233465194702f, -0.21668902039527893f, -0.1163099855184555f, 
0.3283269703388214f, -0.22324863076210022f, 0.02483667992055416f, 0.5741631984710693f, -0.4531496465206146f, -0.23732788860797882f, 0.575702965259552f, 0.04398142546415329f, -0.3059771955013275f, -0.0986436977982521f, -0.15395620465278625f, 0.1602797508239746f, -0.2654588520526886f, 0.37734219431877136f, -0.4551171362400055f, -0.5407190918922424f, 0.32114824652671814f, -0.11411596834659576f, -0.7355246543884277f, -0.21281269192695618f, 0.019589999690651894f, -0.1503920704126358f, -0.1575000286102295f, -0.7044323682785034f, -0.15393716096878052f, 1.0063748359680176f, 0.21511559188365936f, -0.3346012234687805f, -0.048644714057445526f, -0.3982469141483307f, -0.18283121287822723f, 0.12762460112571716f, -0.31736835837364197f, -0.3737780451774597f, 0.34633132815361023f, -0.2026161402463913f, -0.003959419671446085f, 0.3898213505744934f, -0.11579487472772598f, 0.2975994050502777f, 0.21593952178955078f, 0.8432717323303223f, 0.07011895626783371f, 
-0.017547426745295525f, 0.008508971892297268f, -0.1391504555940628f, -0.022191356867551804f, -0.03178493678569794f, -0.1281864047050476f, 0.13238999247550964f, -0.05841655284166336f, -0.04023858904838562f, -0.0749729797244072f, -0.04026387259364128f, -0.06288778781890869f, 0.05705816671252251f, 0.1955995261669159f, 0.19966894388198853f, -0.005242528859525919f, 0.31557896733283997f, 0.1125616803765297f, 0.202737957239151f, -0.1326228827238083f, 0.23943673074245453f, -0.47914984822273254f, -0.005914661101996899f, -0.014305723831057549f, -0.034503594040870667f, 0.28319376707077026f, -0.034838587045669556f, -0.1899615228176117f, -0.06116994470357895f, -0.05613664910197258f, -0.020885556936264038f, -0.045371148735284805f, -0.5412588119506836f, -0.2522198557853699f, 0.1945607215166092f, -0.12947697937488556f, 0.3201596140861511f, -0.3726971447467804f, 0.1568658947944641f, 0.5105017423629761f, -0.41252008080482483f, 0.3822614252567291f, 0.10179460793733597f, 
-0.08296923339366913f, 0.4057197868824005f, -0.19934093952178955f, 0.316849023103714f, 0.6995112895965576f, -0.1102936714887619f, 0.5757010579109192f, -0.07463188469409943f, -0.07505471259355545f, 0.5019680857658386f, -0.17398419976234436f, -0.3346741199493408f, 0.22932621836662292f, -0.37880152463912964f, 0.5882976055145264f, -0.012719458900392056f, -0.3385068476200104f, 0.5000351667404175f, -0.3445030748844147f, -0.20605139434337616f, 0.3187563121318817f, -0.7452281713485718f, 0.385703980922699f, -0.09474785625934601f, -1.2147705554962158f, 0.8075831532478333f, -2.320784568786621f, -2.0736451148986816f, 0.21022111177444458f, -2.266784191131592f, -0.4434592127799988f, -2.3774654865264893f, -3.9538700580596924f, -0.333497554063797f, -2.5170350074768066f, -1.609527587890625f, -0.14193779230117798f, -4.61387300491333f, -0.53914475440979f, -1.354919672012329f, -4.276588439941406f, 0.6335488557815552f, -4.643868446350098f, 
-3.865020990371704f, -1.6065865755081177f, -4.816940784454346f, -0.624230146408081f, -3.4881279468536377f, -3.947694778442383f, 0.8747632503509521f, -4.353178977966309f, -2.209604501724243f, -0.3101066052913666f, -5.802713871002197f, 0.1773877590894699f, -4.075333118438721f, -4.346001148223877f, -1.1598480939865112f, -4.840919494628906f, -4.621962547302246f, -1.009773850440979f, -4.824050426483154f, -1.7702726125717163f, -5.162816524505615f, -4.751743316650391f, -1.3137943744659424f, -5.80880069732666f, -2.5119848251342773f, -1.7455881834030151f, -5.0987372398376465f, -1.5233110189437866f, -2.8468196392059326f, -5.281589508056641f, -0.3600063920021057f, -3.6382663249969482f, -2.516519546508789f, -0.06535794585943222f, -3.269501209259033f, -0.014272930100560188f, -3.6174421310424805f, -2.956865072250366f, 2.7040414810180664f, -2.101846694946289f, -2.856969118118286f, 1.0058541297912598f, -0.017558682709932327f, 
0.5250452160835266f, -0.3475126028060913f, -0.14438892900943756f, -1.1518148183822632f, -1.4436489343643188f, -0.31584909558296204f, 0.1701442301273346f, 0.9061093926429749f, 1.824691891670227f, 1.3344172239303589f, 0.8454409241676331f, 0.5673225522041321f, 0.42017948627471924f, 0.0035404665395617485f, -0.0624343678355217f, -0.1336134672164917f, 0.01704694889485836f, -0.15520672500133514f, -0.1594286561012268f, -0.14844980835914612f, -0.03085367940366268f, -0.04262141138315201f, -0.12431499361991882f, -0.023394301533699036f, -0.14708217978477478f, -0.023844895884394646f, 0.015222817659378052f, -0.12642478942871094f, -0.06631996482610703f, 0.009403588250279427f, -0.00850987434387207f, 0.03350646793842316f, -0.08242752403020859f, 0.057056088000535965f, -0.12653784453868866f, -0.06640175729990005f, 0.13941991329193115f, 0.08851911872625351f, 0.17758585512638092f, 0.20372596383094788f, 0.11470384150743484f, 0.10818576067686081f, 0.14459700882434845f, 
0.0098096439614892f, 0.1429051160812378f, 0.11062505096197128f, 0.02934887632727623f, 0.1541978269815445f, 0.06162465736269951f, 0.002211969578638673f, -0.14369796216487885f, -0.072078175842762f, -0.03866570442914963f, -0.055948104709386826f, -0.16157127916812897f, -0.07548616826534271f, -0.005204738583415747f, -0.1636926680803299f, -0.14763927459716797f, -0.10109616070985794f, -0.05280860885977745f, -0.1300327479839325f, -0.12631256878376007f, -0.2010566145181656f, -0.08676840364933014f, 0.011129375547170639f, -0.06168650835752487f, 0.04599091783165932f, -0.12163758277893066f, -0.07881206274032593f, -0.1266329437494278f, -0.028447210788726807f, -0.04185343533754349f, -0.049449823796749115f, 0.04785133898258209f, -0.15947040915489197f, 0.01619786210358143f, -0.03108127973973751f, 0.0037526709493249655f, -0.06379777193069458f, -0.11588611453771591f, -0.06311079114675522f, 0.011420845054090023f, -0.018368935212492943f, 0.02887497842311859f, -0.03754535689949989f, 
0.016431348398327827f, -0.05487671494483948f, -0.08354926109313965f, 0.0523788258433342f, -0.04253621771931648f, -0.08733674883842468f, -0.09236200898885727f, -0.016741733998060226f, -0.04130689799785614f, -0.02606968767940998f, -0.008975660428404808f, 0.043772950768470764f, 0.07874174416065216f, -0.09297715872526169f, -0.07613440603017807f, 0.12634600698947906f, 0.08647970855236053f, -0.0019117556512355804f, 0.1555522233247757f, 0.05865083634853363f, 0.19517214596271515f, 0.09781837463378906f, 0.09360262751579285f, 0.010840816423296928f, -0.06551021337509155f, 0.005769405979663134f, -0.11860732734203339f, 0.017917413264513016f, -0.01818358339369297f, -0.015923794358968735f, -0.04383350536227226f, -0.09225556254386902f, 0.08503683656454086f, -0.023988323286175728f, -0.07838927954435349f, 0.0030072545632719994f, -0.09041399508714676f, -0.0826726108789444f, -0.16350898146629333f, -0.13773804903030396f, 0.1322885900735855f, -0.005230037495493889f, 0.10142486542463303f, 
-0.04520980268716812f, -0.2718488872051239f, 0.21628375351428986f, 0.655052125453949f, 0.3344714343547821f, -0.03482341393828392f, -0.10827264934778214f, 0.0809667557477951f, 0.1362135112285614f, 0.49423712491989136f, 0.24757663905620575f, 0.06655260920524597f, 0.20652827620506287f, -0.7027777433395386f, -0.04595678299665451f, -0.17705626785755157f, -0.4050784409046173f, 0.5824931859970093f, -0.14462828636169434f, -0.8379530906677246f, -0.24610289931297302f, -1.7851946353912354f, -0.8788524866104126f, -0.47240620851516724f, -2.265988826751709f, -2.012239456176758f, -3.4906005859375f, -5.959842681884766f, -3.334993600845337f, -6.502990245819092f, -3.780441999435425f, -4.598374843597412f, -3.329655408859253f, -2.7292587757110596f, -2.6658525466918945f, -3.7248032093048096f, -0.8328176140785217f, -1.8941413164138794f, 1.0376968383789062f, -1.2420790195465088f, -2.2964420318603516f, -0.6559074521064758f, -0.7531534433364868f, 
-0.746867299079895f, -0.14923332631587982f, -1.6866425275802612f, -1.1861305236816406f, -0.08390319347381592f, 0.364993155002594f, -0.5180017352104187f, -1.6522107124328613f, -0.6985123157501221f, -0.7973690032958984f, -1.5613975524902344f, 0.29064813256263733f, -1.129576325416565f, -1.1785274744033813f, -0.4655584692955017f, 0.18408609926700592f, -0.05603838339447975f, -0.25624901056289673f, -0.5471423268318176f, -2.5987584590911865f, 0.9618642926216125f, 0.6165408492088318f, -0.9553953409194946f, -0.5943528413772583f, -1.035724401473999f, 0.10947701334953308f, -0.48495033383369446f, 0.6387013792991638f, -0.2225218415260315f, -0.7232686877250671f, 0.20489999651908875f, -0.7200062870979309f, -0.3595491349697113f, -0.2092473804950714f, 0.5239336490631104f, 0.4948463439941406f, 0.8302969336509705f, -0.41375532746315f, 0.464434951543808f, -0.5515483021736145f, 0.2574813961982727f, -1.5949007272720337f, 0.028399331495165825f, 
0.851224958896637f, -0.8678478002548218f, -0.9723584055900574f, 0.24098169803619385f, 0.48857760429382324f, -1.8580092191696167f, -0.6075906157493591f, -0.9836831092834473f, 1.3137094974517822f, -0.48904943466186523f, -1.2954826354980469f, -0.044910728931427f, 0.12898485362529755f, -0.2935492992401123f, -0.018047530204057693f, -0.3443390429019928f, 0.40867435932159424f, -0.08247371762990952f, -0.38024869561195374f, -0.18070121109485626f, -0.26833295822143555f, 0.3855884373188019f, -0.5416943430900574f, 0.5700156092643738f, -0.544350802898407f, 0.30586057901382446f, 0.4264723062515259f, -0.42051151394844055f, -1.0448691844940186f, 0.395222932100296f, -0.059588685631752014f, 0.44166967272758484f, 0.5995910167694092f, 0.5603920817375183f, 0.5958433151245117f, -0.150227352976799f, -0.25986120104789734f, -0.15961475670337677f, -0.3136744201183319f, -0.9912869334220886f, 0.22052615880966187f, -0.8607689142227173f, 0.09150444716215134f, 
-0.3303648829460144f, -0.2725640535354614f, -0.13442379236221313f, -0.3865843415260315f, 0.33321306109428406f, -0.14236797392368317f, -0.13429395854473114f, -0.2174590528011322f, -0.2316233515739441f, -0.34998345375061035f, -0.5796068906784058f, -0.6935883164405823f, 0.4535925090312958f, 0.7557963132858276f, 0.9663094282150269f, 0.8722776174545288f, 0.16406331956386566f, -0.08180216699838638f, -0.26443594694137573f, -0.7826912999153137f, -0.3157883286476135f, -0.5512197613716125f, -0.5444101095199585f, -0.20292790234088898f, 0.16885291039943695f, 0.3569336235523224f, 0.6430843472480774f, 0.144228994846344f, -0.04728316888213158f, -0.1715424358844757f, -0.02637827955186367f, -0.2526307702064514f, -0.23450203239917755f, -0.8279852867126465f, -0.0061046225018799305f, 0.4100925326347351f, 0.003488249145448208f, 0.0050699757412076f, -0.04997488856315613f, 0.20235690474510193f, 0.29656869173049927f, 0.5610415935516357f, 0.4488380253314972f, 
0.6164320111274719f, 0.4741060733795166f, -0.060782697051763535f, 0.09547597169876099f, 0.08752188831567764f, 0.09020882099866867f, 0.07293308526277542f, 0.3784318268299103f, 0.24975541234016418f, -0.09577642381191254f, 0.12497325986623764f, -0.1987878680229187f, 0.034717854112386703f, -0.0880957841873169f, -0.4289295971393585f, -0.3288430869579315f, -0.1849018782377243f, -0.0685032531619072f, 0.11140518635511398f, 0.11860910803079605f, 0.2350306212902069f, 0.4686684310436249f, -0.08565174043178558f, 0.26320749521255493f, 0.08606897294521332f, -0.18129095435142517f, 0.23440633714199066f, -0.2552770674228668f, -0.03139413893222809f, 0.18523141741752625f, -0.11018754541873932f, 0.18284352123737335f, -0.4434504508972168f, -0.0697258710861206f, -0.13438408076763153f, -0.09211768209934235f, -0.16008278727531433f, 0.10690334439277649f, -1.5673688650131226f, -0.7650996446609497f, 0.3924348056316376f, -0.7102842926979065f, -0.2864011228084564f, 
0.2735993564128876f, 0.09733734279870987f, 0.08602159470319748f, -0.3434734642505646f, 0.22099031507968903f, -0.04228197783231735f, -0.036954160779714584f, 0.22503136098384857f, -0.06661485880613327f, -0.7626712322235107f, 0.3639112114906311f, -0.9040578007698059f, 0.6097850799560547f, -0.1080930083990097f, -1.5156651735305786f, 0.055370084941387177f, 0.359959214925766f, 0.0684891790151596f, 0.2597240209579468f, 0.5571197867393494f, -0.047583598643541336f, 0.29009878635406494f, -0.4379505217075348f, 0.4235314428806305f, 0.2717723250389099f, -0.5473535060882568f, -0.2875051498413086f, -0.4479578137397766f, -0.28974175453186035f, 0.8014224171638489f, -0.7989403605461121f, 0.28514203429222107f, 0.4474498927593231f, -1.4470411539077759f, 0.067391537129879f, -1.1942802667617798f, -0.14700046181678772f, -0.94370436668396f, -3.2052979469299316f, -0.2583121061325073f, -1.1970970630645752f, -2.789438009262085f, 0.047296471893787384f, 
-0.14373506605625153f, -0.08744359761476517f, 0.13728812336921692f, -0.05588243156671524f, -0.23152638971805573f, 0.0046272859908640385f, 0.08270512521266937f, 0.18367622792720795f, 0.01818237453699112f, 0.02623426914215088f, -0.19075947999954224f, -0.30205535888671875f, -0.1938580870628357f, -0.2899995744228363f, -0.17647671699523926f, -0.18175628781318665f, -0.34611064195632935f, -0.08879607915878296f, -0.1642305999994278f, -0.31069713830947876f, -0.2925766706466675f, -0.34302935004234314f, -0.2136559635400772f, -0.16163648664951324f, -0.24460522830486298f, -0.1474616974592209f, -0.06532691419124603f, -0.009071857668459415f, -0.008273708634078503f, -0.09842316061258316f, -0.024990636855363846f, -0.08902788162231445f, -0.2414083480834961f, -0.19918514788150787f, -0.09429507702589035f, -0.24659006297588348f, -0.2784292697906494f, -0.30753666162490845f, -0.2365959733724594f, -0.16623759269714355f, -0.34233933687210083f, -0.26876458525657654f, -0.24252523481845856f, 
-0.19848133623600006f, -0.2094605267047882f, -0.25868383049964905f, -0.2948041260242462f, -0.18803705275058746f, -0.3108200132846832f, -0.1337154060602188f, -0.3814103603363037f, -0.16924290359020233f, -0.2225877046585083f, -0.23259887099266052f, -0.08733256906270981f, -0.08325251936912537f, -0.13575990498065948f, 0.04622860625386238f, -0.046876970678567886f, 0.16887423396110535f, 0.06491497904062271f, 0.1925712525844574f, 0.19660180807113647f, 0.08826357126235962f, 0.17650552093982697f, 0.18569564819335938f, 0.18859578669071198f, 0.13381405174732208f, 0.18477001786231995f, 0.24536602199077606f, 0.16597990691661835f, 0.24967023730278015f, 0.17527633905410767f, 0.20993661880493164f, -0.020358406007289886f, 0.16081716120243073f, 0.12962591648101807f, 0.26297545433044434f, 0.2026837319135666f, 0.06858410686254501f, 0.07781699299812317f, 0.14246398210525513f, 0.3034103810787201f, 0.15402653813362122f, 0.11743525415658951f, 0.13759714365005493f, 
0.03380189090967178f, 0.1868254691362381f, 0.20083662867546082f, 0.00011462238762760535f, 0.33127668499946594f, 0.07070551812648773f, 0.24105994403362274f, 0.11043957620859146f, 0.11741315573453903f, 0.2597197890281677f, 0.28559842705726624f, 0.37168431282043457f, 0.1868240237236023f, 0.18547628819942474f, 0.27424684166908264f, 0.3166961073875427f, 0.011951982975006104f, 0.1600489765405655f, 0.2014913409948349f, 0.18848657608032227f, 0.15564213693141937f, 0.20383892953395844f, 0.2642413079738617f, 0.14002260565757751f, 0.16019292175769806f, 0.017754608765244484f, 0.2698611915111542f, 0.041205983608961105f, 0.2122182995080948f, 0.2305629700422287f, 0.15162880718708038f, 0.05661652609705925f, 0.07223235815763474f, 0.14794082939624786f, 0.16010689735412598f, 0.047381628304719925f, 0.1639488935470581f, -0.1127103939652443f, 0.054431501775979996f, -0.0016186919528990984f, -0.13269977271556854f, -0.09949209541082382f, -0.07465949654579163f, 
0.07244786620140076f, 1.2345737218856812f, 2.844676971435547f, 0.8939353227615356f, -1.3303065299987793f, -1.1857599020004272f, -0.0744534432888031f, 0.01321886945515871f, -0.12643124163150787f, -0.2274496853351593f, -0.001181429484859109f, 0.1724896878004074f, 0.2733708322048187f, 0.18118895590305328f, -0.12893547117710114f, -0.20919381082057953f, 0.11058809608221054f, -0.005108213517814875f, -0.31921079754829407f, -0.15449757874011993f, 0.015620057471096516f, -0.11917892843484879f, -0.10591346770524979f, 0.01427959743887186f, -0.034647852182388306f, 0.025086194276809692f, -0.019516875967383385f, -0.004398169927299023f, -0.10048113763332367f, -0.04592256620526314f, 0.0625794380903244f, 0.009677126072347164f, 0.04892976954579353f, -0.0848088338971138f, -0.028093818575143814f, 0.02342732436954975f, -0.01902557536959648f, -0.0031332767102867365f, -0.023621128872036934f, -0.024681370705366135f, 0.14284268021583557f, 0.20575763285160065f, 0.021455930545926094f, 
0.005582865793257952f, 0.16970020532608032f, -0.024537790566682816f, 0.035556647926568985f, -0.01665995828807354f, -0.05223176255822182f, 0.059474967420101166f, -0.046023499220609665f, -0.01845119521021843f, -0.1585608571767807f, -0.05075935274362564f, -0.06646300852298737f, -0.139705628156662f, -0.04483434557914734f, 0.005550879519432783f, -0.14075694978237152f, -0.12824799120426178f, -0.003057543421164155f, -0.046728093177080154f, -0.04439134895801544f, -0.1829265058040619f, 0.039489902555942535f, -0.001976730301976204f, -0.06294133514165878f, -0.044313035905361176f, -0.0368119515478611f, -0.005463575012981892f, 0.05411642789840698f, -0.0800861194729805f, -0.0908249095082283f, 0.14484038949012756f, 0.020763734355568886f, -0.1180398017168045f, -0.09003249555826187f, 0.009760740213096142f, 0.09773638099431992f, -0.06606970727443695f, 0.04432530328631401f, -0.00536356121301651f, -0.05252394825220108f, -0.05915914103388786f, -0.04561346396803856f, -0.005265107378363609f, 
0.07786859571933746f, -0.11435603350400925f, -0.09044041484594345f, -0.003065345110371709f, -0.004205291625112295f, 0.03449208661913872f, 0.010557834059000015f, 0.12699487805366516f, -0.16265259683132172f, 0.026757733896374702f, 0.10025431960821152f, -0.02590758539736271f, 0.005370332859456539f, -0.03816457465291023f, 0.058220285922288895f, 0.018033305183053017f, -0.06937152147293091f, -0.05764186009764671f, -0.007609676104038954f, 0.015459729358553886f, -0.12521520256996155f, 0.0411604642868042f, 0.14623139798641205f, 0.0045353989116847515f, -0.12020451575517654f, -0.07816193997859955f, -0.10451294481754303f, -0.06941399723291397f, -0.2716866433620453f, -0.1347309798002243f, -0.05366542935371399f, 0.014350736513733864f, -0.010172883979976177f, -0.0359792597591877f, 0.11463220417499542f, -0.1320052593946457f, 0.005631847772747278f, 0.06167110800743103f, 0.07974747568368912f, 0.3382248878479004f, 0.06642179936170578f, 0.20837809145450592f, 0.14518500864505768f, 
0.3672889471054077f, -0.14137664437294006f, -0.5161454677581787f, -0.2788415849208832f, -0.08622138202190399f, 0.07781701534986496f, -0.3874114453792572f, -0.4432930648326874f, -0.1266413927078247f, -0.0062868925742805f, 0.006587525364011526f, -0.4130721390247345f, -0.4356703758239746f, 0.1370587795972824f, 0.7002425789833069f, 0.622930645942688f, 0.10670307278633118f, -0.25602060556411743f, -0.6357293725013733f, -0.6836369037628174f, -0.5321047306060791f, 0.07961364835500717f, 0.42609357833862305f, 0.4084874093532562f, -0.3056414723396301f, -0.44696006178855896f, 0.35833480954170227f, 0.7022441625595093f, 0.9845958948135376f, 0.7843373417854309f, 0.5369893908500671f, 0.06769965589046478f, -0.32200124859809875f, 0.13306047022342682f, -0.1701505035161972f, 0.20720702409744263f, 0.05156052112579346f, -0.039946526288986206f, -0.12267760932445526f, -0.9592441916465759f, -0.7243154644966125f, -0.37207087874412537f, -0.4770960211753845f, 
-0.06330359727144241f, 0.31734317541122437f, 0.3609517812728882f, 0.37455663084983826f, 0.1901978701353073f, -0.5947481393814087f, 0.018802963197231293f, 0.1989494264125824f, 0.2172536700963974f, 0.39741024374961853f, 0.19110599160194397f, 0.48262205719947815f, 0.4204323887825012f, 0.7529627680778503f, 0.14627967774868011f, 0.04941501468420029f, -0.22384010255336761f, -0.045540276914834976f, 0.1606409102678299f, -0.25646963715553284f, -0.1006491631269455f, -0.5434718132019043f, -0.555504322052002f, -0.39275696873664856f, -0.6582942605018616f, -0.6471095681190491f, -0.686700165271759f, -0.3473491370677948f, -0.30263790488243103f, -0.29068148136138916f, -0.17687492072582245f, -0.1818629950284958f, 0.05219898372888565f, 0.4981638789176941f, 0.18332839012145996f, -0.07215273380279541f, 0.4908446967601776f, 0.3537119925022125f, 0.4998317062854767f, 0.35559001564979553f, 0.41339293122291565f, 0.36920177936553955f, -0.4694274663925171f, 
0.11077682673931122f, -0.353840172290802f, -0.3945348560810089f, -0.17569123208522797f, 0.1704741269350052f, -0.2838243246078491f, -0.2542590796947479f, -0.24186258018016815f, -0.12913019955158234f, -0.28049054741859436f, -0.5493009090423584f, 0.06153543293476105f, 0.2507687509059906f, -0.18865834176540375f, 0.047796621918678284f, 0.2975406050682068f, 0.2876838743686676f, -0.09615765511989594f, -0.39158475399017334f, 0.2984536290168762f, -0.25400620698928833f, 0.41595619916915894f, -0.08697666972875595f, 0.11207125335931778f, 0.030711470171809196f, 0.342326283454895f, -0.216849684715271f, 0.17826788127422333f, -0.060261934995651245f, 0.06734219938516617f, -0.07736362516880035f, 0.1654694527387619f, -0.14962267875671387f, -0.1860279142856598f, -0.47594302892684937f, -0.1128680631518364f, -0.040292754769325256f, -1.0785883665084839f, -0.12884284555912018f, -0.9517509937286377f, -1.3104074001312256f, -0.9280974864959717f, 0.16262736916542053f, 
0.2048976570367813f, -0.5107738375663757f, -0.027291644364595413f, -0.4904469847679138f, 0.51847243309021f, -0.398892879486084f, -0.00982603244483471f, 0.4866035580635071f, -0.6483857035636902f, 0.5792628526687622f, 0.02723609283566475f, -0.42411908507347107f, 0.44766247272491455f, -0.22013679146766663f, 0.2767983078956604f, 0.3601970076560974f, -1.055530309677124f, 0.4630098342895508f, -0.14639772474765778f, -0.23771212995052338f, 0.5826879739761353f, -0.14177650213241577f, 0.13921602070331573f, 0.6325103044509888f, -0.9307339787483215f, 0.6062914729118347f, 0.026825428009033203f, -0.3031840920448303f, 0.4393409192562103f, -1.0654855966567993f, 0.3565601110458374f, 0.31797635555267334f, -0.6865339875221252f, 0.6944841146469116f, 0.11903883516788483f, -0.4290686845779419f, 0.6670024394989014f, -0.3315572142601013f, -0.7215122580528259f, 0.3022492229938507f, -2.6682960987091064f, 0.03565296158194542f, 0.2478683888912201f, 
-0.7486275434494019f, -0.32668277621269226f, -1.081288456916809f, -0.5373644232749939f, -0.22646664083003998f, -4.016618251800537f, 0.15492390096187592f, -0.6670270562171936f, -1.2579783201217651f, 0.23885194957256317f, -0.555507481098175f, 0.1835126131772995f, 0.2342512011528015f, -0.8289858102798462f, 0.35858866572380066f, -0.43713781237602234f, -0.5229246616363525f, 0.3384106457233429f, -0.4335508644580841f, 0.09506580233573914f, 0.3898897171020508f, -0.40925735235214233f, 0.1558322310447693f, -0.450870156288147f, -0.7481694221496582f, -0.16670900583267212f, -1.0356217622756958f, 0.03376815840601921f, -0.14895248413085938f, -1.7175207138061523f, -0.0567646361887455f, -0.18960660696029663f, -0.08177021890878677f, 0.2671004831790924f, -0.6040831208229065f, 0.09315892308950424f, 0.4737842381000519f, -0.7336471676826477f, 0.24656625092029572f, -0.3158209025859833f, -0.06115613877773285f, 0.4038603603839874f, 0.5330290794372559f, 
0.2951868176460266f, 0.2206650823354721f, -0.5411624312400818f, 0.6156865954399109f, -0.14409956336021423f, 0.2179878205060959f, 0.13407757878303528f, -0.40405726432800293f, 0.33846351504325867f, 0.24181896448135376f, -0.13256758451461792f, 0.37196263670921326f, 0.2317284196615219f, 0.1747611165046692f, 0.3810780942440033f, 0.08233372122049332f, 0.239546537399292f, -0.055304814130067825f, -0.4412747621536255f, 0.12010180950164795f, -0.12882207334041595f, 0.2404499053955078f, -0.1955857276916504f, 0.2055046260356903f, 0.49866726994514465f, 0.522840142250061f, -0.29821422696113586f, -0.32103991508483887f, -0.13490314781665802f, -0.11422866582870483f, 0.01462984923273325f, -0.14645133912563324f, -0.42608943581581116f, -0.6389042139053345f, -0.9167866110801697f, -0.6388714909553528f, -0.7322812676429749f, 0.46669843792915344f, -0.010106774047017097f, 0.39163917303085327f, -0.09387855976819992f, 0.11424081027507782f, -0.021228311583399773f, 
0.03857070207595825f, -0.10692810267210007f, -0.17952832579612732f, -0.05594475939869881f, 0.16592448949813843f, 0.08590521663427353f, 0.0667724534869194f, -0.052649419754743576f, -0.014588939025998116f, 0.0349925234913826f, 0.021284766495227814f, 0.08486941456794739f, 0.0748124048113823f, 0.11138588935136795f, 0.07572901248931885f, 0.08632471412420273f, 0.09491662681102753f, 0.07393988221883774f, 0.04675394296646118f, 0.12927868962287903f, 0.20715519785881042f, 0.18621014058589935f, 0.1547199934720993f, 0.19169631600379944f, 0.2252899408340454f, 0.1521313190460205f, 0.12696602940559387f, 0.13261084258556366f, 0.12835143506526947f, 0.12078361958265305f, 0.09275514632463455f, 0.12286216020584106f, 0.17275860905647278f, 0.15388350188732147f, 0.125303253531456f, 0.12790913879871368f, 0.14016954600811005f, 0.10578621923923492f, 0.10574416816234589f, 0.10226455330848694f, 0.0826411023736f, 0.18649950623512268f, 0.1153566837310791f, 
0.1191939041018486f, 0.16288527846336365f, 0.13136202096939087f, 0.09509792178869247f, 0.12559036910533905f, 0.11266253888607025f, 0.11404457688331604f, 0.10919737815856934f, 0.09467735886573792f, 0.11496864259243011f, 0.12192102521657944f, 0.10642535239458084f, 0.08772256970405579f, 0.11308330297470093f, 0.0664089024066925f, 0.10054748505353928f, 0.058911919593811035f, 0.11010990291833878f, 0.06390409171581268f, 0.09350577741861343f, 0.09821870177984238f, 0.0658746138215065f, 0.08751044422388077f, 0.04402252659201622f, 0.09426179528236389f, 0.06836732476949692f, 0.026726048439741135f, 0.05590434372425079f, 0.08513046056032181f, 0.07915108650922775f, 0.10721252858638763f, 0.06952722370624542f, 0.06070713698863983f, 0.09101501107215881f, 0.04501623287796974f, 0.04512479156255722f, 0.08109993487596512f, 0.057107191532850266f, 0.07416806370019913f, 0.05798304080963135f, 0.056357983499765396f, 0.1066918894648552f, 0.05550666153430939f, 
0.07132571935653687f, 0.09277652204036713f, 0.05329512059688568f, 0.1589645892381668f, 0.06283842027187347f, 0.031728100031614304f, 0.12242269515991211f, 0.08340403437614441f, 0.10271022468805313f, 0.06818938255310059f, 0.08610737323760986f, 0.08814917504787445f, 0.07586073875427246f, 0.07874444127082825f, 0.0767967477440834f, 0.049634721130132675f, 0.09794492274522781f, 0.12615573406219482f, 0.07810316979885101f, 0.1252429187297821f, 0.09185628592967987f, 0.0508163683116436f, 0.092584989964962f, 0.07919351011514664f, 0.10086935013532639f, 0.10800494998693466f, 0.08270525187253952f, 0.10933515429496765f, 0.0567423440515995f, 0.08142797648906708f, 0.11430270224809647f, 0.12205328792333603f, 0.11067456752061844f, 0.1059483215212822f, 0.1392795294523239f, 0.13329416513442993f, 0.08831342309713364f, 0.15519075095653534f, 0.23510347306728363f, 0.12287625670433044f, 0.15316946804523468f, 0.2557937800884247f, -0.008590052835643291f, 
-0.21851447224617004f, 0.1384454071521759f, 0.09871809929609299f, -0.2303750067949295f, -0.43974146246910095f, -0.40923935174942017f, 0.2710431218147278f, 0.6353878378868103f, 0.2893826365470886f, -0.021655013784766197f, -0.15731386840343475f, -0.3314535319805145f, -0.34498533606529236f, -0.27331575751304626f, -0.11397306621074677f, 0.04364153742790222f, 0.001990149263292551f, 0.1257658451795578f, 0.2142489105463028f, 0.1709284484386444f, 0.0831788033246994f, -0.04148625582456589f, -0.0067361583933234215f, -0.22747761011123657f, -0.21125006675720215f, -0.05227866396307945f, 0.18156811594963074f, 0.05380662530660629f, 0.04905273765325546f, 0.14029154181480408f, -0.16311219334602356f, -0.2047867327928543f, -0.2858417332172394f, -0.3392946720123291f, -0.3390170931816101f, -0.41922828555107117f, -0.16325417160987854f, -0.3147352337837219f, -0.19369028508663177f, -0.143819659948349f, -0.08317182958126068f, -0.07993490993976593f, -0.023911340162158012f, 
0.05753621086478233f, 0.16185328364372253f, 0.2648930847644806f, 0.47712641954421997f, 0.2986673414707184f, 0.8575477600097656f, 0.7972186803817749f, 0.5561720132827759f, 0.8482245206832886f, 0.5882709622383118f, 0.8430346846580505f, 0.594595193862915f, 0.7554284930229187f, 0.7818408012390137f, 0.5898153781890869f, 0.3718506097793579f, 0.611247181892395f, 0.6356322765350342f, 0.42448511719703674f, 0.26868703961372375f, 0.2255934774875641f, 0.3627457320690155f, 0.2813265323638916f, 0.1997293382883072f, -0.02953517809510231f, -0.005610265303403139f, -0.05916958674788475f, 0.04793228581547737f, -0.4148916006088257f, -0.0620957650244236f, -0.33374857902526855f, -0.038047388195991516f, -0.10465800762176514f, -0.20456597208976746f, -0.2756165862083435f, -0.3553156852722168f, -0.2608339488506317f, -0.6425104141235352f, -0.17977552115917206f, -0.3014545142650604f, -0.26253190636634827f, -0.47913533449172974f, -0.4138924777507782f, 
-0.21034082770347595f, -0.4363744854927063f, -0.30234384536743164f, -0.18120858073234558f, -0.09466345608234406f, -0.18516694009304047f, -0.29185935854911804f, -0.3312416076660156f, -0.28784283995628357f, -0.11635321378707886f, 0.04543249309062958f, -0.35594332218170166f, 0.10649394989013672f, -0.2727271318435669f, 0.139632448554039f, -0.247437983751297f, 0.06579911708831787f, 0.04558251425623894f, -0.035926032811403275f, -0.007074174005538225f, 0.3027498126029968f, -0.07174064964056015f, 0.12778255343437195f, -0.26418337225914f, -0.13797114789485931f, 0.1089237779378891f, -0.033752668648958206f, 0.10754745453596115f, 0.13252922892570496f, -0.1841677725315094f, 0.20197124779224396f, -0.04777715355157852f, -0.024887030944228172f, 0.07884406298398972f, -0.08374825865030289f, -0.230351060628891f, 0.06725044548511505f, -0.15953786671161652f, -0.18463703989982605f, -0.2708861231803894f, -0.33858752250671387f, -0.4366346299648285f, 0.016534708440303802f, 
-0.003891205182299018f, -0.068654865026474f, 0.05145867541432381f, 0.01053872611373663f, -0.09963450580835342f, 0.059044357389211655f, 0.008723773993551731f, 0.07094796746969223f, 0.038666438311338425f, -0.04711631312966347f, 0.025240033864974976f, 0.06386253982782364f, 0.032264743000268936f, -0.09226817637681961f, -0.04166802018880844f, -0.02523394487798214f, -0.0800318568944931f, -0.11028224229812622f, -0.029471857473254204f, -0.08667842298746109f, -0.07699893414974213f, -0.026934737339615822f, 0.02068823017179966f, -0.04533155634999275f, -0.008911807090044022f, -0.09436992555856705f, -0.09632589668035507f, -0.02219139039516449f, -0.005424023140221834f, 0.011798357591032982f, 0.02227901853621006f, 0.054510947316884995f, -0.04796542599797249f, 0.037180326879024506f, -0.05443578213453293f, -0.024245621636509895f, -0.02532627247273922f, -0.05565230920910835f, -0.07185586541891098f, 0.01621733047068119f, -0.08963733166456223f, -0.09256473928689957f, -0.030281059443950653f, 
0.050833117216825485f, 0.04783143103122711f, -0.030515827238559723f, -0.05380789935588837f, -0.09191038459539413f, -0.03716729208827019f, 0.01838359236717224f, -0.06308368593454361f, 0.029784293845295906f, -0.05562017858028412f, -0.0933149978518486f, 0.009971113875508308f, -0.08176951855421066f, 0.04842199757695198f, 0.023718254640698433f, -0.019584503024816513f, -0.04947914183139801f, 0.04766474664211273f, -0.030534768477082253f, -0.0803854912519455f, -0.05680996924638748f, -0.019940877333283424f, -0.005354364402592182f, -0.07530324906110764f, 0.024489162489771843f, 0.008839795365929604f, 0.038892120122909546f, -0.03884406015276909f, 0.03279545158147812f, -0.0015376342926174402f, -0.008541697636246681f, -0.061734843999147415f, -0.050290122628211975f, -0.09663185477256775f, -0.03319888561964035f, -0.08245982229709625f, 0.0013885039370507002f, 0.004537344444543123f, 0.02844930998980999f, -0.09023040533065796f, -0.0973329097032547f, -0.07248583436012268f, 0.012725286185741425f, 
0.034489911049604416f, 0.00836960133165121f, 0.03258577734231949f, 0.023181524127721786f, 0.06287697702646255f, 0.06777063012123108f, -0.06170454993844032f, -0.0950433760881424f, 0.05889907479286194f, 0.07422038167715073f, -0.017572999000549316f, -0.0815252810716629f, 0.05962342023849487f, 0.030035486444830894f, 0.03459547460079193f, 0.02130074054002762f, -0.08658720552921295f, 0.06584105640649796f, -0.006691147573292255f, 0.01656394824385643f, -0.0931418314576149f, 0.07297585159540176f, -0.053710415959358215f, 0.05623853951692581f, -0.05326611176133156f, -0.06870416551828384f, 0.04875729978084564f, 0.00767721189185977f, 0.06304560601711273f, -0.000553182209841907f, -0.060672689229249954f, -0.08674723654985428f, -0.04535791650414467f, -0.07309474050998688f, 0.02959468960762024f, -0.07149635255336761f, -0.019700706005096436f, 0.04247701168060303f, -0.07063960283994675f, 0.07188895344734192f, 0.0628160685300827f, -0.06635934114456177f, -0.02812652289867401f, 
-0.7904176712036133f, -1.5621827840805054f, -1.9596388339996338f, -1.5144168138504028f, -0.6299327611923218f, 0.5828391313552856f, 0.48359599709510803f, 0.5784650444984436f, 0.5212311744689941f, 0.0976351797580719f, -0.8055205345153809f, -0.3736893832683563f, -0.8272530436515808f, -0.608159065246582f, -0.6233779788017273f, -0.6608856916427612f, -0.500083327293396f, -0.43504855036735535f, -0.19149568676948547f, 0.5202394127845764f, 0.986627995967865f, 0.8116287589073181f, 0.8573679327964783f, 0.40171870589256287f, 0.6391409635543823f, -0.29595091938972473f, 0.025881148874759674f, 0.17992794513702393f, 0.17770586907863617f, 0.07470225542783737f, 0.03758763149380684f, 0.010667426511645317f, 0.3652189373970032f, 0.6143805384635925f, 0.17667697370052338f, 0.7149861454963684f, 0.17229773104190826f, 0.1568901687860489f, -0.16161058843135834f, 0.12195534259080887f, 0.31702667474746704f, 0.07986973226070404f, 0.12963320314884186f, 
0.1832740753889084f, 0.5930147171020508f, 0.25554654002189636f, -0.13489650189876556f, 0.1466936320066452f, 0.22352391481399536f, 0.04400811716914177f, -0.4626784920692444f, -0.5641761422157288f, -0.5038974285125732f, -0.34410181641578674f, 0.2840631306171417f, -0.5072794556617737f, -0.15071865916252136f, -0.09715846180915833f, -0.03493551164865494f, -0.11867936700582504f, -0.07061408460140228f, -0.8543999791145325f, -0.26251670718193054f, -0.4221530258655548f, 0.3258393704891205f, -0.08787128329277039f, -0.17842963337898254f, 0.6415526270866394f, 0.23587779700756073f, 0.281101793050766f, -0.09675727784633636f, 0.46910786628723145f, 0.49781230092048645f, 0.30448853969573975f, -0.06922731548547745f, -0.3449476957321167f, 0.11609449237585068f, -0.036706745624542236f, 0.19328869879245758f, -0.11700918525457382f, 0.06233975291252136f, 0.06729728728532791f, -0.046935465186834335f, -0.015405824407935143f, -0.08626306056976318f, 0.0832786113023758f, 
0.22413566708564758f, 0.5098163485527039f, 0.06267514824867249f, 0.20932139456272125f, -0.640528678894043f, -0.5625093579292297f, 0.05667904391884804f, 0.46585240960121155f, 0.6229560375213623f, 0.44661498069763184f, 0.30021458864212036f, -0.11573973298072815f, -0.3455025553703308f, 0.10985296219587326f, 0.3365618586540222f, -0.06310290843248367f, -0.39643487334251404f, -0.4809507131576538f, -0.6667590737342834f, 0.012583215720951557f, -0.3678104281425476f, -0.6149650812149048f, -0.3926396369934082f, -0.2627815902233124f, -0.3227508068084717f, -0.34105682373046875f, -0.03663722425699234f, 0.10441607981920242f, 0.02273954451084137f, -0.22860132157802582f, 0.0910024419426918f, 0.0026257105637341738f, -0.1680028736591339f, -0.010600859299302101f, 0.4101402461528778f, 0.9272142648696899f, -0.2222411334514618f, 0.11468573659658432f, -0.23005324602127075f, 0.04000166431069374f, -0.39578208327293396f, -0.13786707818508148f, 0.11166124790906906f, 
-0.4032246172428131f, -0.5390061140060425f, 0.1462438851594925f, 0.051374245434999466f, -0.06473731249570847f, -0.638569176197052f, -0.7518265843391418f, -0.6151580214500427f, -0.5386726260185242f, -0.8414234519004822f, -0.9092689752578735f, -0.2670130729675293f, 0.16578151285648346f, 0.25111931562423706f, 0.09224370867013931f, -0.07791199535131454f, 0.24205365777015686f, 0.1336967945098877f, -0.16857193410396576f, -0.28524479269981384f, -0.17484623193740845f, -0.7293830513954163f, -1.3881877660751343f, -0.31870827078819275f, -1.8850958347320557f, -0.5167704820632935f, -0.6844847798347473f, -0.7936567664146423f, 0.05097832530736923f, 0.18108128011226654f, -0.629416286945343f, -0.6865409016609192f, -0.5193917155265808f, -0.28421977162361145f, -0.8330559134483337f, 0.06886813044548035f, 0.0372500978410244f, -0.7212216258049011f, 0.7865913510322571f, 0.07006227970123291f, 0.18681928515434265f, 0.3846691846847534f, 0.37169086933135986f, 
0.11493535339832306f, 0.8622171878814697f, 0.9726617336273193f, -0.6485204696655273f, -0.6721580624580383f, -0.38135817646980286f, -0.2541835606098175f, -0.004486314486712217f, -0.2742350995540619f, 0.06587878614664078f, 0.24768798053264618f, 0.05208687484264374f, 0.051433246582746506f, 0.0865984633564949f, 0.43756407499313354f, -0.49828624725341797f, -0.1440160572528839f, -0.4904976189136505f, -1.1295623779296875f, -1.0466842651367188f, 0.4641979932785034f, 0.5578093528747559f, -0.6039091348648071f, -0.05298171192407608f, -0.4034724831581116f, -0.5026929974555969f, -0.5755400061607361f, -0.33396685123443604f, -0.20200352370738983f, 0.0807168185710907f, -0.25272536277770996f, -0.05336578190326691f, 0.2979930341243744f, 0.08032914996147156f, 0.4038994014263153f, -0.13056287169456482f, -0.0792447030544281f, 0.3658948540687561f, 0.4468132257461548f, 0.16249439120292664f, -0.06467118114233017f, 0.037663478404283524f, 0.4322963356971741f, 
-0.37444034218788147f, -0.1749555468559265f, 0.5153093934059143f, -0.18993394076824188f, -0.01253215316683054f, -1.3989975452423096f, -0.19098444283008575f, -0.07235066592693329f, 0.3251238167285919f, -0.09560762345790863f, 0.13823223114013672f, 0.17982372641563416f, -0.44702327251434326f, -0.7317917346954346f, -0.18134285509586334f, -0.5075641870498657f, -0.5306216478347778f, 0.07866403460502625f, 0.11224714666604996f, 0.38367924094200134f, 0.2916852533817291f, 0.5632978677749634f, -0.4148528277873993f, -0.05235239863395691f, -0.07015219330787659f, 0.895013689994812f, 0.32734930515289307f, 0.15568101406097412f, -0.45361950993537903f, -0.20039615035057068f, 0.4482008218765259f, -0.45601773262023926f, -0.375116765499115f, -0.77798992395401f, -0.9588010311126709f, -0.09756293147802353f, -0.220730721950531f, 0.08091211318969727f, 0.15998411178588867f, 0.18284447491168976f, 0.20874552428722382f, 0.7944961190223694f, 0.21431785821914673f, 
0.01864553429186344f, -0.1289101243019104f, 0.1851283311843872f, -0.06763188540935516f, -0.14087142050266266f, -0.026321522891521454f, -0.22183530032634735f, -0.031393080949783325f, -0.06204603239893913f, 0.1381927728652954f, 0.18169520795345306f, 0.08212343603372574f, -2.9211296350695193e-05f, -0.3333394527435303f, -0.18152542412281036f, -0.5641945600509644f, -0.5096526741981506f, -0.475421667098999f, -0.266793429851532f, -0.6085783243179321f, -0.6619578003883362f, -0.565284252166748f, -0.4748381972312927f, -0.44278576970100403f, -0.6592616438865662f, -0.5313952565193176f, -0.5789879560470581f, -0.286798357963562f, -0.4672180712223053f, 0.03938379883766174f, 0.24050219357013702f, 0.4877607524394989f, 0.9446647763252258f, 0.7178405523300171f, 0.9241426587104797f, 0.9000562429428101f, 1.0324923992156982f, 0.8184791803359985f, 0.902595043182373f, 0.8355594277381897f, 1.0777513980865479f, 0.7800412774085999f, 0.4893419146537781f, 
0.6981737017631531f, 0.5015571713447571f, 0.19205282628536224f, -0.019669607281684875f, 0.05080705136060715f, 0.03790991008281708f, 0.12523001432418823f, 0.05547327548265457f, 0.10938578844070435f, 0.1641661822795868f, -0.07817769795656204f, -0.004475637339055538f, -0.1307121217250824f, -0.1298713982105255f, -0.19729062914848328f, -0.24390441179275513f, -0.14536434412002563f, -0.1659175157546997f, -0.08186749368906021f, -0.16496971249580383f, -0.17986518144607544f, -0.23890362679958344f, -0.2507798969745636f, -0.1832689642906189f, -0.05339955538511276f, -0.03999565914273262f, -0.0653441920876503f, -0.19973811507225037f, 0.10065416991710663f, -0.055948108434677124f, -0.14671190083026886f, -0.21009954810142517f, -0.1299491673707962f, 0.0741352066397667f, 0.0333135761320591f, -0.02351195737719536f, -0.05665985494852066f, 0.013241102918982506f, -0.1703868806362152f, 0.15175805985927582f, -0.18573613464832306f, -0.010961891151964664f, -0.027474025264382362f, 
