/*This file is automatically generated from a Keras model*/

#ifdef HAVE_CONFIG_H
#include "config.h"
#endif

#include "rnn.h"

static const rnn_weight input_dense_weights[912] = {
   1,13,7,17,25,31,60,63,
   -13,-67,-126,-126,-69,-101,35,91,
   80,-49,8,29,13,18,38,126,
   -24,-12,-18,22,44,95,-127,-55,
   11,-10,-27,60,115,23, -1,-7,
   -4,4,8,-8,-58,-35,-82,-79,
   58,38,15,-46,122,67,-96,122,
   7,1,18,49,29,-35,12,-14,
   13,-37,8,-20,-127,-127,127,127,
   127,47,-26,-18, 4,4,0,-3,
   -5,-7,-36,-30,-44,-80,-13,-4,
   -7,58,117,65,90,-55,-51,-12,
   -53,-64,-7,27,-36,-41,-105,-26,
   -114,-6,-21,-3,-21,-2,-9,42,
   127,0, -2,1,-2,4,-4,-3,
   -83,-92,-114,-95,-127,2,-104,-97,
   -92,-127,-47,-19,29,15,40,-57,
   -25,-82,3,-58,18,-86,58,-2,
   -66,-122,-23,-41,20,3,-128,-23,
    3,3,22,24,19,3,-31,-39,
   4,-62,-127,-128,-53,-9,-55,22,
   73,-77,84,-41,125,-49,14,-53,
   119,47,62,47,19,-77,-127,-86,
   43,-72,62,77,66,-17, -3,-7,
   -18,-11,-10,-4,-1,79,19,65,
   -1,12,6,15,-34,-13,10,-9,
   -3,-127,-25,-45,34,77,77,80,
   31,-38,-32,-48,-128,-103,7,-26,
   -48,36,43,-8, 0,7,18,27,
   14,7,-65,-111,-128,-98,-127,-101,
   -111,-119,-125,-40,-18,-114,-4,63,
   57,17,-9,-37,-7,13,-15,-18,
   -46,-15,127,127,-62,-13,-63,-85,
   -67,-39, -1,-16,22,-17,17,-14,
   -11,18,-2,40,-19,-21,-95,-26,
   39,-28,-32,8,-9,-41,67,-67,
   47,-43,-33,-54,-5,-42,62,-29,
   53,19,-69,12,10,36,-53,4,
    -3,0,-1,16,13,25,127,96,
   124,127,127,124,29,13,-114,-32,
   127,-128,31,54,19,-3,-39,-34,
   7,0,10,-4,-12,-20,-54,-28,
   73,14,100,127,-10,-17, 0,0,
   -10,-16,-11,-9,0,-28,-47,-51,
   8,-63,-39,19,121,-49,19,14,
   39,127,87,-12,7,-66,54,119,
   58,-44,-48,-88,-77,-85,-21,-4,
   12,115,23,8, 1,1,31,-22,
   -1,13,-74,54,-80,27,39,-41,
   -17,124,8,-23,74,-28,24,62,
   126,-90,58,24,-42,-28,69,22,
   38,26,123,15,-104,21,14,-36,
   -3,8, 5,-19,-7,11,45,-22,
   -1,-13,20,18,0,71,7,-32,
   70,-17,-59,-19,18,-38,-7,54,
   110,-65,2,-29,5,-68,60,-25,
   60,17,-32,9,-78,84,24,-14,
    -2,4,-4,-1,1,10,52,54,
   9,43,0,51,44,74,13,-50,
   18,-64,126,67,49,49,8,-64,
   108,49,82,-39,-53,-115,127,127,
   -43,56,-72,-128,36,-124, 1,10,
   11,0,10,-17,-24,-54,82,8,
   126,-90,46,-82,41,-26,56,108,
   -46,-6,-76,74,-44,-43,-47,-56,
   -19,-22,63,60,85,127,127,5,
   16,-62,127,-73, 1,7,6,2,
   3,13,-1,79,74,88,56,-43,
   45,-77,-37,-100,-104,-69,-128,-128,
   43,-31,28,126,26,-107,-73,39,
   -16,10,-127,-65,43,-87,87,76,
   35,-88, 3,10,8,15,18,25,
   70,79,-11,7,-99,-85,-60,-10,
   9,83,30,14,23,-4,30,60,
   61,74,108,50,28,-19,-55,-1,
   127,92,7,121,-40,43,-26,43,
    3,7,11,9,1,-10,-69,-114,
   -93,-34,57,68,127,127,103,-22,
   -16,-22,14,26,34,12,-6,-67,
   30,35,29,-11,-5,-14,60,19,
   48,35,80,6,8,-11, -3,16,
   -11,-9,26,-20,-55,9,-33,28,
   9,22,17,-47,-45,-6,-44,-37,
   -17,61,-105,-25,74,-76,-31,49,
   -23,-10,43,5,-29,-64,-9,0,
   -19,1,-93,2, 1,4,5,12,
   4,2,38,18,35,24,70,-25,
   -11,-41,1,6,-7,55,-127,73,
   5,20,92,63,-127,34,73,5,
   50,26,9,-2,-19,-32,12,15,
   86,-55, 4,5,-1,-4,0,-9,
   -56,-22,14,9,127,3,70,-124,
   -23,16,-111,123,79,70,20,9,
   -40,-5,-12,76,-4,16,-13,-2,
   102,-1,4,-116,-92,-127,-23,5,
    2,-8,-15,-28,-27,-19,11,80,
   76,127,78,49,-32,-6,-37,-86,
   -32,-35,25,-46,-12,-98,-41,-23,
   30,-20,5,-16,2,14,-5,-20,
   120,42,114,73,16,-1, -10,-6,
   -1,3,-2,2,-3,2,7,48,
   40,29,30,47,-8,-53,-8,-6,
   -20,-19,-2,-2,-2,-5,-3,-36,
   -5,-15,17,17,75,30,19,-3,
   25,-1,-7,-14, 1,35,-7,6,
   -3,-21,15,-62,-1,3,13,-44,
   -38,-94,3,1,-11,-16,-11,115,
   -102,30,-36,-15,17,43,-5,8,
   32,-36,23,-17,8,11,-33,-6,
   -58,-18, -8,-4,-4,0,1,1,
   9,-6,8,16,30,1,34,7,
   10,-13,-11,0,-24,-8,-10,2,
   -3,-8,-23,-5,-19,-3,-24,-8,
   51,7,13,-3,8,-10,14,2
};

static const rnn_weight input_dense_bias[24] = {
   -128, 81, -128, 127, -43, -127, -86, -72,
   55, 79, -128, -127, 57, -109, 25, 53,
   -128, 127, 24, -73, -128, 127, 55, -128
};

const DenseLayer input_dense = {
   input_dense_bias,
   input_dense_weights,
   38, 24, ACTIVATION_TANH
};

static const rnn_weight update_vad_gru_weights[576] = {
   127, 12, 13, -93, 127, 126, -122, 55,
   -95, -37, 122, 32, 78, 68, 127, -116,
   83, -73, -35, -1, 87, -121, 97, -4,
   125, 127, 20, 12, 125, 69, -128, -128,
   76, 127, 56, -17, 106, -128, -127, -127,
   127, -26, 70, 127, 6, -78, -39, -125,
   69, 44, -46, 83, 14, -68, -65, -61,
   -7, 31, -45, 40, 125, -23, 121, -127,
   -67, -13, -70, 34, 39, -97, 28, -123,
   86, 122, 80, -125, -89, 127, -92, -43,
   -11, -2, 2, -126, -128, 121, 127, 126,
   117, -43, -127, -68, 126, -60, -75, 127,
   -50, -124, 121, -60, 96, -128, 90, -77,
   -89, 5, 46, -126, -104, 58, 66, -8,
   51, -62, 42, 126, -21, -50, 127, -40,
   127, 32, 127, -128, 16, 127, -128, -127,
   127, 82, -39, 127, 117, 41, -128, 63,
   56, -65, -113, 127, 127, -126, -127, -117,
   -128, 127, -128, 127, 95, -128, -86, 35,
   -105, 120, -127, -116, -11, -127, 86, 57,
   -128, 127, -7, -63, -128, 127, -21, -128,
   -105, 17, -62, 24, 37, -60, 111, -125,
   28, 93, -58, 127, -52, 127, 77, -45,
   78, 61, 127, -78, -33, -5, -44, -62,
   -127, 30, 120, -59, 19, 127, -113, -115,
   -15, 107, -115, 127, 32, 44, 29, -23,
   -64, 7, 29, -126, 109, -118, -77, 11,
   127, 43, 127, -126, 88, 127, -128, -128,
   97, -42, 75, 120, -41, -22, -128, 127,
   127, -127, -25, 127, -35, -128, -116, -127,
   -26, 117, -128, 127, 107, -127, -126, 12,
   -58, 127, -58, -67, -79, -9, -51, 42,
   -96, 14, -94, -61, -45, 36, 98, -128,
   127, 127, 58, 5, 127, 60, -85, -55,
   127, 117, -128, -82, -128, 92, -35, -117,
   -54, -79, -53, 68, -41, -108, -74, 26,
   -102, 127, -127, 127, 127, -25, 55, 107,
   127, 127, -124, -127, 72, -126, 64, 64,
   -87, 127, -128, -127, -124, 127, 31, 64,
   80, -123, 127, -25, -47, -127, 7, -114,
   -128, -37, 98, 56, 15, 73, 3, -127,
   18, -12, 107, -49, 81, 16, 84, -93,
   -115, -7, 108, -8, -33, -83, 50, 57,
   83, -94, -73, 14, -13, -127, 127, 127,
   -127, -23, 126, -100, 84, 0, -20, -128,
   124, 60, -102, 57, 127, 70, -89, -22,
   127, 116, 84, 33, -128, 1, 39, 125,
   90, -64, 47, 104, 14, 50, -38, 70,
   126, 126, 127, -71, 125, 127, -128, -58,
   122, 71, 81, -95, -55, -48, -17, 125,
   127, 62, 13, 22, 95, -125, 84, -72,
   -71, 109, -127, 127, 98, 21, -93, 94,
   -3, 96, -99, -126, -128, -128, 127, -67,
   -48, 123, -123, -127, -84, 126, -24, 83,
   127, -6, 127, -21, -128, 122, -82, -125,
   127, -112, -110, 126, -87, 125, 115, 21,
   102, -126, -29, 123, -89, -72, 109, 103,
   127, 111, 127, -81, -128, 125, -120, -128,
   66, 16, -1, 94, -127, 21, 124, -126,
   -1, -84, -71, 15, 23, -127, 23, -128,
   127, -114, 85, -48, -126, -81, -127, -79,
   33, 62, 112, -4, -127, 127, 113, 100,
   14, 5, 127, 41, 37, -125, 103, -44,
   92, 42, -127, -62, 38, -13, 38, 93,
   -73, 125, -97, -108, -16, 109, 95, 121,
   113, 127, 24, 73, 94, -61, -28, -62,
   108, -5, 127, -14, 88, 85, 93, -38,
   -127, 127, -14, 1, -82, 105, 59, 127,
   123, -128, -16, 13, -8, -82, -122, 36,
   7, 3, -61, 104, -60, 77, 90, 82,
   40, 72, -89, -12, -51, -123, 125, 62,
   -3, 92, 61, -126, -17, 60, -67, 54
};

static const rnn_weight reset_vad_gru_weights[576] = {
   -128, -44, 39, 13, -58, -19, 36, 17,
   50, 5, 2, 11, 127, -125, -77, -128,
   -126, 23, -81, 65, 40, 92, 37, 114,
   22, -65, -38, 43, 57, -45, 127, 87,
   86, 127, -82, -40, 127, -71, -16, -59,
   -76, 81, 28, 127, -124, 35, 14, -104,
   -57, 127, 59, 32, 126, -114, -62, -10,
   26, 127, 73, 16, -53, -45, -77, 4,
   86, -74, -127, -7, 35, 0, 79, -30,
   89, 127, 101, 21, 77, 103, 7, -127,
   -49, 125, -17, -71, -60, 22, 127, 73,
   24, 127, 127, -33, 38, -85, 127, -119,
   46, 23, 13, -24, -68, 125, -99, 6,
   126, -42, -97, -14, -124, 36, 88, -14,
   -127, -63, 114, 84, -57, -128, -119, -42,
   127, -62, 37, -71, 94, -32, -29, -92,
   127, -85, 43, 4, 124, -24, 18, 121,
   -29, -21, 127, 57, -57, 13, -63, -7,
   -127, 29, -128, 127, 106, -22, -79, -126,
   -27, 24, 57, 97, -109, -11, 18, 117,
   -19, -7, -53, 127, 81, 60, 7, -128,
   -78, -76, -20, -1, 109, 63, -95, -127,
   30, -61, -23, -50, 22, -80, 127, 44,
   92, -9, -127, -41, 60, 22, 51, -123,
   -21, -73, 3, -32, -127, -128, 50, 25,
   -67, -128, -4, 54, -43, 46, -5, -56,
   -127, -38, 69, -16, -128, 65, 6, 56,
   -31, -35, 2, 73, -54, -8, -68, -16,
   -46, -21, -47, 33, 21, 40, -21, 17,
   -128, -87, 40, 116, 25, -128, -74, -21,
   -68, 47, -123, 91, 54, 104, 51, 82,
   109, 127, -51, -7, 125, -80, -79, -127,
   77, 86, -28, 34, 70, 62, -41, 42,
   78, 68, -60, 65, -9, 106, -48, 109,
   37, 127, 58, -10, -10, 31, -23, -128,
   19, 77, 15, -30, -57, 97, -15, 125,
   -52, 12, -123, 43, -66, 29, 73, 100,
   -19, -7, -59, -62, 102, -12, -20, -106,
   -114, 79, -16, 16, -59, 127, -69, 127,
   126, 127, 40, 56, -77, 127, -93, 44,
   19, -123, 117, 76, -128, 76, 127, -37,
   -128, -12, -3, -114, -62, 122, -104, 42,
   -128, -127, -128, -110, -126, -127, 70, 127,
   -33, -9, -78, -29, 116, 105, -126, -5,
   112, 127, -13, 127, 44, 127, -33, 126,
   -127, 11, -37, 15, -73, -88, -101, -17,
   29, 90, -125, -85, 127, 1, -15, -57,
   -128, 42, 9, -117, 38, 127, -34, 126,
   25, 84, 53, 29, 69, -18, -8, 13,
   35, 126, -2, 3, 30, 73, 110, 54,
   27, -41, 61, -30, -118, -9, -72, -120,
   64, 124, 28, 125, 125, 127, -127, -128,
   51, 127, 74, 79, -123, 95, 0, -85,
   49, -127, -12, 44, 127, -80, 22, -128,
   -127, 123, -24, 38, -99, 12, 59, 109,
   75, -21, 49, 126, -64, 0, 101, -69,
   -93, -83, 38, -128, -71, 127, -126, 127,
   -128, -96, 127, -108, -67, -77, -15, -57,
   -61, 105, -83, -127, 14, -25, 24, -93,
   46, 7, -2, 127, -1, 47, -28, 127,
   -18, 29, 14, 6, 78, 7, 32, -15,
   55, -52, 1, 71, 60, -128, 19, -43,
   -122, -66, -55, -72, -127, 126, -101, 15,
   86, 82, -62, -28, -80, 86, -28, -114,
   12, -128, 87, 106, 94, -68, 127, -122,
   -126, 2, -128, -85, 102, 78, 39, 127,
   71, 72, 41, -70, 102, 66, 96, -81,
   9, 122, 12, -126, 126, -33, 127, 127,
   113, -46, 116, -68, 11, 17, 5, 26,
   -101, -5, -44, 84, 103, -17, 29, -84,
   44, -83, 65, -2, -100, -42, 41, 89,
   114, 21, -29, 42, 106, -58, 8, -128
};

static const rnn_weight output_vad_gru_weights[576] = {
   126, 62, 24, -21, -99, -2, 9, 99,
   43, -32, -1, -38, 10, 49, 33, 29,
   -55, 53, 127, -39, -86, -6, -117, -24,
   -94, -78, -41, -48, 27, -128, 8, -90,
   -69, 19, -22, 29, 85, -38, -78, -59,
   64, 2, 60, 45, 71, -9, 67, -62,
   -87, 0, -42, 101, -118, -38, 27, -28,
   13, -46, 27, 47, 46, -17, -4, 122,
   -57, -33, 19, 12, 56, 45, -5, -20,
   -127, -127, -123, -88, -59, -94, 76, 32,
   -30, 6, -37, 68, 31, -78, -28, 32,
   88, 20, -83, 44, 126, 8, 87, -7,
   94, -4, 4, -36, -60, -70, 0, 28,
   29, 73, -75, 1, -14, 9, 84, 13,
   -127, 39, 111, -42, -85, 58, -126, 93,
   -128, -125, -58, 72, 2, 36, 40, -90,
   -44, -41, 1, 1, 5, 35, -38, -65,
   68, -14, -126, 42, 127, -7, 124, -102,
   -19, 3, 3, 55, 22, -1, 3, 23,
   37, -8, -31, -5, 23, 9, 35, -20,
   -15, 35, -28, 10, -1, 74, -7, 87,
   23, 85, 56, -32, 33, 52, -120, 58,
   16, -7, 27, -9, -24, 57, 41, 15,
   -26, -23, 35, -23, -82, 8, -43, 46,
   17, 47, -26, -56, -37, -3, -83, 48,
   -13, 26, -61, -38, -37, -29, 98, 3,
   -64, 44, 123, 16, -99, 57, -80, -24,
   57, 51, -3, -64, -101, 41, 18, 127,
   82, 9, -24, -87, 14, 15, -13, 56,
   -87, 38, 81, -15, -94, 51, -102, 97,
   12, 24, 49, 18, 5, 30, -65, -22,
   -24, -17, 2, -7, -5, -9, 65, 40,
   -18, -20, 14, -41, -11, 5, -23, 8,
   16, 127, 19, -23, 105, 72, -128, 14,
   125, 73, 28, -29, -127, -62, 88, -24,
   -59, 18, 51, -41, -55, 65, -16, -56,
   -62, -18, -53, 127, -18, 8, -19, -73,
   -33, -3, 28, 52, -22, 40, 5, 33,
   -15, -28, 0, -1, -1, 13, -14, -127,
   31, -1, 0, 20, 1, 119, -7, -114,
   -13, -103, 123, 85, -65, 25, 22, -38,
   -24, -61, -62, 2, 57, -28, 32, -40,
   20, -3, 56, 13, 16, -2, 20, 47,
   33, -34, -9, -27, -30, 68, -30, 9,
   -38, -20, -19, -43, -55, 46, 4, 127,
   33, -30, -47, 57, 25, -23, 20, 12,
   15, -11, -13, -27, 53, 35, -45, 9,
   19, 17, -9, -17, 65, -49, 14, -74,
   127, 124, 57, -9, -30, 25, -46, 78,
   85, 54, -6, -75, -14, -6, -29, -9,
   -127, 24, 26, 19, -83, 116, -85, 42,
   -96, -122, -7, -36, -54, -92, 84, 52,
   44, -73, -104, -51, 54, 91, 30, 101,
   94, 44, -46, 17, 5, 30, 92, 89,
   57, 25, 85, -11, -46, 4, -27, 112,
   12, -28, -98, -31, -19, -23, 70, -32,
   -24, 62, 85, 46, -71, 76, -54, 34,
   30, 75, -10, -68, -1, 47, -31, -89,
   9, 7, 44, 48, -24, -72, 56, -71,
   -81, 81, -12, -94, -36, 81, -85, 127,
   -109, -31, -33, 29, 104, -12, 56, -51,
   -45, -45, 57, 60, -23, 25, -64, 11,
   62, -94, -123, 33, 11, -25, 99, -1,
   -1, -29, -62, 62, -21, 22, 13, -35,
   -12, -57, 59, 80, -15, -10, -39, -55,
   -10, -100, -128, 7, -21, 0, 45, -8,
   101, 103, 21, 9, -49, -32, -42, 55,
   72, -15, -29, 45, -125, 49, 83, 21,
   -31, -4, 127, -28, -84, 106, -45, 40,
   -59, -37, 26, 17, -36, 0, 53, 17,
   -42, -67, -24, -8, -24, 61, 8, -45,
   9, 19, 21, 48, -27, -3, 32, -36
};

static const rnn_weight update_vad_gru_recurrent_weights[576] = {
   -97, -127, 69, 5, -126, 74, -37, -10,
   -75, -125, 127, -101, -101, 116, 52, 127,
   -125, -44, -127, -126, 126, 118, 12, 127,
   17, -61, -61, 109, -125, -17, 127, -127,
   127, -3, -44, -44, -126, 127, -49, -81,
   108, -127, -84, 1, 102, 127, -127, 114,
   19, -70, 53, -118, -57, -126, 127, -124,
   20, 3, 126, 114, 8, -106, -71, 127,
   124, 92, 5, -37, 38, 5, -115, -16,
   75, -127, 124, 127, -94, 78, -56, -128,
   114, 36, 59, -128, 54, 104, 126, -126,
   -112, 126, -97, -127, 20, 126, 53, 127,
   17, -78, 105, 116, -120, -22, -4, -106,
   127, -61, 120, -42, -127, 125, -128, 127,
   -128, -128, -127, -128, 23, -121, -49, 124,
   -22, -11, -128, 29, -88, -126, 127, -127,
   87, -3, -126, 102, -128, 127, -127, 124,
   51, -128, -126, -119, 5, -8, -121, -12,
   41, -97, -3, -125, -33, -128, 53, -80,
   -54, -82, -128, 127, 127, 127, -127, -128,
   -112, 127, -38, -127, 0, -128, 119, -128,
   98, -4, -128, 54, 126, 36, -41, 127,
   64, -47, 118, 69, 25, -75, 19, 39,
   -121, -59, 34, 126, -126, 32, 126, -80,
   -14, -35, -106, 127, -17, 77, 62, -16,
   43, -90, 57, -128, -127, 127, -128, -127,
   -118, -91, -61, 17, 56, 127, 50, 43,
   -39, -127, -117, 88, -128, -127, 127, -128,
   98, 127, -128, 28, -128, 12, -128, 116,
   127, -128, -127, -127, 27, -115, -128, 127,
   15, -128, 127, -126, -25, -126, 127, 56,
   123, -82, -114, 127, 127, -97, -127, -73,
   71, -126, -127, 124, -69, -36, 11, -128,
   -44, -127, 53, 41, -120, -127, 4, -79,
   127, -124, 63, -123, 64, 127, 125, 127,
   -126, -59, -78, -90, 123, -56, -32, 41,
   -17, 0, 55, -46, -52, -110, 127, -11,
   -84, 105, -128, 36, 127, 40, -128, -128,
   -56, -83, -19, 3, 19, -128, -43, -126,
   -90, 46, -78, 34, -25, -3, 32, -82,
   15, -105, 114, 72, -127, -6, -128, 127,
   40, -128, -128, -26, 54, 24, -68, 27,
   49, 73, -63, -82, -83, 33, 105, -127,
   34, -73, 14, 127, -128, 118, -124, -128,
   -81, -128, -15, -10, -19, -100, -111, 127,
   -94, -128, -20, 71, -127, -98, -126, -71,
   100, -28, -85, -67, 77, 127, 127, -27,
   6, 118, 59, -12, 79, -83, -55, 59,
   25, 13, -96, 127, -127, -73, 127, -127,
   54, -35, -128, 74, -127, 127, -126, 119,
   73, -128, -123, -124, 47, -106, -83, 80,
   27, -128, 127, 40, 127, -15, -128, -54,
   -96, -114, 119, -103, 127, 21, 127, -128,
   -127, 127, 127, 119, 5, -125, 126, -121,
   12, -102, -23, 127, -15, 76, 25, -125,
   -128, -20, -75, -127, -119, 127, 127, 121,
   -127, -122, -128, -122, 40, 126, -29, 126,
   60, 127, 127, 127, 47, 127, 127, -128,
   -128, -25, -128, -128, -123, 127, 127, 83,
   -126, -30, -99, -67, 10, 125, 1, 125,
   -38, -124, 117, 36, -100, -51, -43, -108,
   123, -35, 113, -128, -64, 127, 56, 127,
   29, -127, -54, -61, 106, -24, 115, 62,
   -57, 72, 94, 124, -127, 100, 19, -89,
   44, -45, -116, 71, -127, -24, -78, 48,
   25, -71, 98, 77, -10, -31, -68, 127,
   -48, -5, 109, 114, -127, 14, -111, -127,
   32, -112, 127, -89, -29, 127, 126, -77,
   -127, -100, -92, -33, 17, -128, -35, 123,
   86, 127, 3, -70, -68, 29, -38, -128,
   -34, 15, -118, -38, 127, 124, -128, -85,
   -127, 79, -17, 70, -65, -121, 29, 4
};

static const rnn_weight reset_vad_gru_recurrent_weights[576] = {
   17, 111, 34, -56, 84, -88, -111, 56,
   -4, 19, 121, 26, 127, 7, -81, -128,
   42, 112, 14, 90, -1, -126, -19, -125,
   93, 61, -30, 16, -11, 22, -15, -125,
   12, 31, 36, -121, -106, -10, 80, -51,
   -29, -88, 127, -93, -87, -127, -43, -79,
   64, -49, -34, -86, -110, -92, 43, -128,
   98, -117, 68, 75, -55, -83, 127, 60,
   73, -72, 35, 48, 94, 49, 17, 84,
   -20, -101, -83, 99, -79, 24, -80, -128,
   -2, -5, -104, -80, -127, -103, -35, 103,
   -9, -127, -15, -90, 3, -53, -62, 117,
   -30, -127, -58, -92, -67, -127, 127, -123,
   127, -55, 62, -13, -127, 72, 75, -126,
   -57, -128, 30, 73, -58, -127, -19, -33,
   57, -96, -54, 34, -60, -4, 81, -86,
   -78, -36, -3, -51, -38, 127, 87, 13,
   -26, -56, -13, -72, 25, -127, 22, -127,
   29, -39, 59, 41, -4, 91, 11, -16,
   74, 17, 12, 80, -14, 69, -85, -127,
   -49, 18, -44, -116, -3, -127, 50, -19,
   -38, -13, -102, 55, 45, 12, 115, 34,
   -47, 44, -54, 87, -22, -79, -11, 42,
   -10, -27, -55, 18, 8, -9, 83, 125,
   -17, -15, 25, -28, -13, -14, -127, -7,
   -4, 33, -70, -36, -127, 17, 57, -76,
   -30, -92, -52, -17, 23, 62, 54, -26,
   20, -2, 119, -37, -40, 15, 67, 32,
   -66, 70, -127, -3, 127, 27, 127, 20,
   32, 127, 1, -57, -10, -81, 4, -31,
   24, -40, -40, 13, 73, -30, 75, 26,
   35, 44, 37, 43, -115, 112, -65, -10,
   43, 34, -29, -85, -32, 25, 39, -81,
   -25, -27, -32, 51, -11, 21, -23, -1,
   -10, -62, 127, 29, 54, 64, 45, -39,
   -19, 13, -2, -36, -11, -40, -38, -68,
   -31, 61, -44, 25, 63, -26, -128, 44,
   -11, 48, -116, -94, -30, -73, 96, -42,
   -12, 20, 77, -77, 102, -42, 15, -45,
   -44, -128, -3, -13, 13, -42, -36, -108,
   49, 38, 127, 75, 127, 26, 126, -128,
   103, 126, 40, 48, -1, -60, -116, -3,
   -2, 127, -33, 96, 26, 61, -126, 44,
   -70, 75, -78, -128, 127, 35, 127, -127,
   -128, -18, 127, 127, 17, -128, 70, -80,
   51, 76, 14, 40, 34, 54, -127, -25,
   -83, 23, 102, -56, 73, 63, 124, -24,
   -21, 88, 89, 127, -81, 17, 18, -37,
   -56, -41, -127, -27, -25, 68, 54, -93,
   84, 6, 96, -45, -128, 27, -55, 64,
   11, -127, 59, 55, 49, -28, 28, -34,
   122, -91, -107, -16, -26, -23, 127, -128,
   -92, -75, 52, 127, -117, 16, -25, 126,
   127, 104, -51, -127, -24, 127, 3, -127,
   102, -118, -62, 5, 79, 47, -127, 20,
   -16, 98, -102, 12, 3, 66, 127, -128,
   69, 9, 37, 68, 23, 43, 102, 41,
   5, 121, -62, 111, -23, 46, -128, 20,
   -45, 35, -49, -128, 127, -2, 127, -128,
   11, 127, 93, 4, -28, -20, -67, -127,
   47, -16, 37, -45, -4, 10, -128, -12,
   127, 10, 127, 31, 21, -47, 126, 71,
   -36, -128, 87, 70, -76, 127, 66, 78,
   -3, -97, -38, 60, 57, -32, -128, 104,
   -45, 36, 17, -122, 127, 20, 127, -114,
   -46, 127, 66, 5, 77, 42, -31, -105,
   -72, 71, -19, 3, -60, -32, 18, -113,
   10, -52, 127, 43, -128, 121, -71, -96,
   -81, -128, -40, -38, 7, 3, 5, 66,
   72, 10, 56, 36, 50, 97, 127, 109,
   32, -27, -114, 53, -127, -20, -128, 127,
   -126, -72, -126, -80, -25, 89, 67, -34
};

static const rnn_weight output_vad_gru_recurrent_weights[576] = {
   -111, -128, -128, -120, 127, -120, -7, -89,
   -127, 127, 60, 51, -44, -128, 127, -128,
   125, 17, 127, 127, -128, -128, 28, 127,
   -27, 127, 126, 79, 127, -6, 59, 125,
   127, -117, -115, 43, -128, -15, -128, 127,
   69, 127, -128, -104, 52, 126, -111, -127,
   28, 116, 127, 126, 23, 104, -47, 93,
   -60, 75, -64, -127, 12, 126, -89, 121,
   -4, 127, -113, -128, 123, 127, -19, -41,
   102, 127, 116, 39, 10, 108, 83, 127,
   127, 40, 52, -105, -103, 127, -128, 22,
   -120, 127, -128, -127, 127, 127, -56, -124,
   -126, -128, -128, -128, 107, -116, -128, -42,
   -92, 121, 127, 127, 124, -128, 127, -128,
   124, -128, 127, 127, -127, -125, 127, 127,
   107, 127, 127, 126, 12, 124, 125, 127,
   127, -127, 15, -52, -128, 127, -128, 127,
   -92, 127, -128, -127, 103, 127, -59, -98,
   -51, -7, 6, -24, 37, 25, 96, -30,
   29, 127, -97, -127, -127, -33, -39, 71,
   121, -30, 38, 30, 95, 94, -127, -112,
   -106, -12, 65, -128, -58, -98, -93, 127,
   -15, 79, -43, -49, 50, -113, 127, 12,
   111, -16, 113, 127, 51, -51, 29, -34,
   -58, -51, -103, -100, -83, -57, -31, -72,
   10, -68, 127, -39, -92, -128, 122, -63,
   120, -128, 68, 127, -127, -91, 82, 6,
   -127, -42, -126, -88, 125, -127, -128, -20,
   -113, 43, 108, 72, 127, -128, 127, -127,
   126, -128, 127, 125, -119, -127, 96, 127,
   25, -80, -37, 98, 127, -11, -110, -127,
   -26, -44, 91, 125, 73, -127, -3, -9,
   42, -25, -38, -83, -15, 102, 77, 127,
   -30, -128, -14, -34, 2, -113, -5, -126,
   -63, 31, 8, 96, 56, -126, 127, -128,
   118, -119, -96, -64, -62, -85, 72, 127,
   8, 39, 127, 23, 111, -87, -107, -57,
   -96, 72, 63, 127, 127, -69, 22, -10,
   -73, 127, -92, -103, 112, -57, -5, 49,
   100, 98, -12, 99, 59, 127, 85, 94,
   -85, -30, -111, -15, -17, 126, -128, 52,
   -85, 127, -61, -127, 62, 127, -101, -122,
   13, -18, 26, 8, -99, 83, -128, 55,
   -27, 100, 45, -33, 127, 63, 127, -126,
   -127, 122, -48, 127, -21, -82, -15, 93,
   81, 39, 37, 80, -27, 8, 127, 94,
   116, 23, -18, -3, -128, 27, -40, 127,
   34, 55, -63, 86, 104, 115, -69, -6,
   -127, -108, -128, -120, -125, -85, -127, -126,
   -127, 126, 127, -125, 125, -128, 127, -111,
   127, -126, 127, 127, -124, -127, 127, 123,
   69, -33, 127, 92, -1, -87, -128, 127,
   88, 33, -24, -41, 116, 84, -15, 127,
   -127, 127, 127, -127, 124, 22, 23, -127,
   -100, -112, -50, -127, -128, 12, -127, 57,
   -99, 127, 27, -16, 127, -118, 127, -52,
   -53, -118, 105, 127, -78, -127, 109, 47,
   -127, 32, -72, 27, 36, -74, -128, 5,
   -25, 28, 127, -12, 127, -49, 127, -127,
   104, -128, 68, 127, -127, 48, 27, 8,
   73, 127, 127, 125, -95, 81, 127, 91,
   126, -127, -95, -63, -127, 127, -128, 115,
   -127, 127, -128, -128, 77, 127, -127, -125,
   69, -86, 39, 89, 54, 86, 67, 120,
   127, -111, 127, -19, -128, 109, 2, 73,
   127, 127, -91, -2, 54, 127, 76, 106,
   75, -128, -127, 26, 127, -92, -124, -14,
   -128, 112, 119, 38, 64, -127, 127, -127,
   7, -128, 127, 119, -128, -128, 5, 127,
   78, 79, 46, 35, -123, 17, 25, -122,
   25, 90, 127, 126, -124, 2, -59, 118,
   -125, 3, -127, 49, -14, -39, 44, 116
};

static const rnn_weight vad_gru_bias[72] = {
   -123, -75, 127, -126, -88, -128, 127, -1,
   -127, -127, 127, -62, 127, -90, -122, -80,
   -97, 127, -126, -127, -128, -127, -127, 74,
   40, 70, 80, 47, 72, 18, 127, 72,
   46, 52, 66, 59, 70, 84, 25, 4,
   108, 110, 57, -75, 7, 15, 10, 101,
   47, -12, 92, -70, -21, 23, -19, -9,
   1, -83, -17, 55, 104, -4, -55, 30,
   -53, -48, -57, -12, 19, -6, 28, -33
};

const GRULayer vad_gru = {
   vad_gru_bias,
   update_vad_gru_weights,
   reset_vad_gru_weights,
   output_vad_gru_weights,
   update_vad_gru_recurrent_weights,
   reset_vad_gru_recurrent_weights,
   output_vad_gru_recurrent_weights,
   24, 24, ACTIVATION_TANH
};

static const rnn_weight update_noise_gru_weights[4128] = {
   -1, -12, -16, 21, -25, -92, 29, -61,
   2, 14, -11, -63, 58, 22, 49, -22,
   -13, 19, 5, -70, -71, 24, 30, -27,
   -25, -23, 41, -17, -17, 5, 36, -7,
   34, -17, 25, 63, -7, -37, -8, 9,
   56, -33, -59, 0, -26, -27, -9, -51,
   0, -4, -8, -1, -4, -10, -51, -2,
   -24, 16, -8, -41, -68, 20, -59, 47,
   -26, -11, -34, -9, 0, 14, -14, -19,
   -78, 27, -99, 8, -19, -23, -73, 92,
   7, 8, 78, 51, 20, 3, -71, 42,
   12, 12, 0, 47, -7, 60, -28, 21,
   43, 12, 23, 66, 36, -16, -16, 12,
   8, 5, 32, -16, -81, 24, 0, -25,
   -48, -17, -9, 6, -13, -1, 34, 1,
   92, 9, -40, -40, 6, 6, 2, -64,
   -45, 2, -7, 49, 7, 12, 4, 24,
   -30, -6, 89, -21, -62, 56, -29, 16,
   47, -40, 87, -38, -1, 36, -1, 2,
   -22, -89, 40, -86, 0, -22, -17, -23,
   49, -45, 58, -92, 34, -27, -1, 46,
   -14, -32, -29, -61, -14, 20, -40, 6,
   34, 62, -12, -2, -22, -26, -8, -19,
   8, -7, 107, 33, -51, -57, 14, -40,
   38, -42, 54, -31, -30, -20, 77, -15,
   -15, 0, -26, -39, -14, -3, 23, 9,
   29, -38, 1, -17, -9, -28, 46, -10,
   -3, -33, -15, 38, -17, -20, 14, 20,
   14, -8, 71, 87, 1, -72, -59, -59,
   -22, -7, 50, 78, 2, -2, -16, -53,
   -40, 25, 48, 87, 26, 17, 30, 12,
   50, 2, -64, 11, 72, 33, 27, 16,
   -25, -39, 51, 125, -3, -60, 19, 73,
   -115, 28, 5, -18, -14, -43, -48, 90,
   19, -81, -38, -44, 24, -110, 45, 1,
   -12, -51, 35, 29, -15, -28, 21, 28,
   17, 24, -30, -23, 34, 33, -28, 26,
   -40, -36, -11, 39, 3, -31, -1, -13,
   39, -33, -3, -11, -8, 13, 4, 21,
   53, 32, 2, 86, 102, -30, -15, -6,
   -69, -80, -40, 93, 4, -10, 18, 26,
   20, 3, -39, -10, 18, 0, 21, 115,
   -126, -125, 50, 116, 127, 127, -26, -6,
   29, -32, -6, -28, -26, 44, 44, 5,
   -1, -15, 18, -33, -24, -24, -22, -26,
   26, -13, 8, 7, 12, 44, -11, -37,
   18, 12, 72, 24, -1, -37, -1, -2,
   -10, 64, 16, -16, 22, 60, -126, -4,
   -17, -1, -12, 8, -31, 44, -22, -95,
   8, 7, -25, -21, -11, -13, -10, -17,
   -5, 11, -32, 8, -33, -18, 22, -23,
   46, -11, -20, -25, 60, 10, 31, -10,
   -5, 24, -74, 72, -60, 0, 32, 49,
   7, 7, -14, -14, -9, 7, -6, -91,
   -14, -23, -43, 11, 19, 9, -36, -10,
   49, 6, -127, 15, 18, 17, 52, 15,
   12, 28, 16, -70, 43, -17, 12, 35,
   45, 1, -15, -19, 39, 8, -24, 25,
   -15, -15, -13, 43, -83, 62, -28, -34,
   10, -22, -9, -8, 25, -108, -5, -9,
   0, -1, -16, -8, 10, -31, 11, -24,
   -42, 1, 4, 24, -8, -27, 16, 26,
   -13, 13, 24, 28, -54, -11, 107, 124,
   -25, -17, 34, -13, -42, 37, 28, 45,
   60, 43, -15, 55, 47, 69, 1, -30,
   -54, -28, -37, 40, 43, 76, -90, -11,
   -56, -8, -2, -40, -48, 68, 22, -57,
   -107, -16, -56, 21, -1, 21, 69, -41,
   -38, 4, -12, -80, 21, -12, -22, 106,
   -24, -3, 0, -7, 1, -10, 4, 47,
   -10, -52, -38, -45, 10, -2, -18, -12,
   -29, -1, 89, 76, -7, 14, 26, -39,
   -74, 62, -21, 13, 85, 1, -125, 13,
   126, 18, 14, 16, -81, -27, 73, 68,
   38, 24, -102, -21, 112, 33, -22, 3,
   12, -58, 29, 65, 9, 38, 31, 24,
   -14, 11, 14, -17, -20, -3, -16, 1,
   -40, -65, -9, 35, -43, 24, -2, -29,
   22, -13, 8, 12, 38, 10, 13, 12,
   78, 2, -29, 26, -33, 17, 17, 56,
   19, 5, 7, 18, -18, 6, 33, -25,
   -4, -70, 15, 6, 15, 4, 2, -40,
   -92, 81, 24, 37, 90, 34, 83, -11,
   6, 24, -11, -43, 25, -45, 2, -33,
   105, -1, 4, 45, 37, -45, 11, -50,
   -56, -71, 34, 17, 57, -81, 19, -17,
   -44, 47, -5, 30, 79, 93, -73, -111,
   -9, -43, -33, -38, 32, -18, 38, -42,
   -11, 38, 93, -13, 14, -16, -26, -82,
   4, -125, 15, -28, -3, 14, 31, 38,
   -18, -15, -3, 22, -29, -36, 21, -16,
   16, -24, -13, 35, -13, -4, -14, -28,
   2, 23, 22, -6, 16, 2, -23, -94,
   -69, -30, 52, -81, -19, -28, -58, 73,
   20, -7, 27, 30, 34, 23, -29, 35,
   29, 49, 21, -51, 46, -38, -55, 39,
   16, -69, 65, -60, -11, -14, 9, 109,
   -96, 99, 26, -74, 13, -46, -6, -9,
   35, 13, 91, -56, 2, 12, -52, 96,
   -60, -29, -79, 53, -28, -57, -7, -17,
   36, 16, 11, -26, 2, -44, 12, -14,
   -33, -40, 62, -74, -28, -10, 7, -52,
   -23, 17, 21, -80, -15, 32, 3, -23,
   -30, -15, -25, -9, 54, 54, 47, 91,
   -11, 17, -6, -5, 17, 63, 73, 47,
   69, 24, -4, -83, 106, -10, 37, 57,
   -38, 47, 54, 51, 11, -1, -52, -61,
   -15, 22, 36, -27, 9, 22, -49, 47,
   50, 14, 13, -53, 20, -7, 23, 26,
   -28, -29, 21, 20, -6, 37, 37, -3,
   9, -37, 28, -26, 6, -56, 56, -8,
   -1, -56, -5, 13, 32, -11, 33, 77,
   1, 22, 13, -21, 14, -41, -31, -1,
   7, -57, 2, 4, 8, 9, 0, -12,
   -21, -22, -30, -24, 1, 9, 29, 3,
   -42, -34, -23, -43, 34, 87, -7, -25,
   25, 60, 39, 0, 43, 48, 32, 33,
   3, -24, -78, 23, -78, -10, 104, 0,
   -3, -18, 22, 5, -64, -1, -69, -18,
   10, 16, 25, 13, -34, -29, -67, -7,
   21, -52, -12, 2, 52, 36, 11, 30,
   13, -16, -19, 8, 54, -8, -7, 29,
   1, -18, -10, -21, 10, 52, -5, -13,
   -16, 4, -10, 23, 41, 45, -4, -30,
   -26, -33, -1, 27, 14, 13, 0, 11,
   -6, -51, 70, 16, 37, 22, 6, -58,
   -78, -55, -49, -32, -71, -51, -34, -3,
   60, -17, -78, -102, -50, 54, -1, -14,
   -20, 7, -10, 3, 24, -35, -28, -50,
   71, 9, 10, -15, 36, -8, -15, -28,
   -78, -8, 15, 36, 80, -27, -34, 49,
   9, -32, -28, 37, 121, -14, 13, -30,
   11, 0, 24, 24, 23, 6, -50, -31,
   5, 9, 44, 15, -16, 45, 48, -14,
   -51, 36, 7, -19, 2, -14, 42, 1,
   -12, 16, 6, -13, -20, 10, 0, 69,
   -10, -74, 4, 15, 76, -80, -19, 34,
   22, -43, 3, 38, 11, -46, -64, -1,
   -4, -49, -8, -15, -28, 47, 5, 25,
   14, 10, 24, -53, -40, 3, 31, -51,
   -67, 10, 60, 25, -37, 2, 8, 23,
   18, 36, 34, 13, -34, 20, 74, 4,
   -128, 54, 0, -53, 38, -35, 15, 21,
   83, -12, 3, -51, -20, -41, 0, -8,
   28, -24, -1, -2, 28, 29, -16, -17,
   32, 47, 12, -1, -12, 18, -23, -3,
   -9, 2, -1, 16, -23, 5, -26, 15,
   -20, 15, -36, -64, -31, -23, -1, 7,
   20, 48, -45, 15, -34, -55, 8, 7,
   -13, 26, 4, 28, 54, 52, 44, -24,
   -1, -61, 24, -1, -52, 21, 4, 3,
   8, 48, -15, 26, -49, 3, 48, -1,
   4, -13, 16, -2, 15, 21, -30, 45,
   24, 16, -20, -17, 37, 52, 19, 19,
   -6, -39, -21, -31, -3, 20, 41, -43,
   24, 26, -13, 16, 2, -1, -73, 17,
   28, 39, 12, 8, 5, 4, 17, 17,
   11, 9, 57, 63, 47, -45, -17, -90,
   -43, -93, 5, 19, 47, 58, -22, -1,
   -9, -8, 89, 49, 36, 73, 0, -6,
   -10, -27, -17, -3, 30, -11, 20, 7,
   19, 22, 2, -89, 9, -14, 40, 15,
   -24, 14, -21, -91, 39, -3, -26, 36,
   55, -15, -30, 67, 117, -74, 126, -53,
   -1, 8, 4, 24, -111, 34, 39, 45,
   16, 13, -16, -32, 7, 1, 16, -26,
   59, 23, -16, 74, 39, -44, -50, -27,
   -4, 10, -1, -5, -35, -74, -58, -20,
   -74, -37, -26, -39, -34, -124, 75, -52,
   -36, 10, -109, -38, 3, 29, -56, -128,
   -126, -43, 19, -5, -10, -43, -36, -67,
   23, -128, -63, 70, 60, 68, 38, -9,
   5, 9, 20, -7, 73, 97, -32, -63,
   -8, 34, -6, 28, 55, 10, -82, 3,
   65, 47, -100, 31, 46, 13, -29, -16,
   -19, -49, 20, 51, -4, 25, 105, 8,
   0, 29, -16, -2, 57, -36, 15, -26,
   9, -75, -10, 31, 30, 11, -45, -67,
   -4, -3, -22, -10, -9, -23, -69, -64,
   -20, 6, 17, 10, -10, 61, -57, 68,
   10, 8, 27, 3, 16, -15, 51, -5,
   -31, -66, -60, -8, -4, -44, -71, -86,
   -40, -39, -30, -27, -52, 11, -27, 84,
   -37, 19, 69, -123, 83, 52, -2, 114,
   19, -42, 96, -83, -47, -1, -14, 2,
   -67, 8, 15, 10, -43, 48, -5, -17,
   17, -6, -32, -22, 67, -5, 37, -32,
   -30, 48, 3, 1, 8, 57, 27, 30,
   1, 22, 26, 20, 21, -68, 6, 10,
   -5, -5, -15, -34, -64, -65, -25, -21,
   18, 25, 49, 4, 84, 90, 7, -28,
   25, 8, 25, -31, 32, -86, 72, -105,
   70, 3, -48, -16, 11, 57, 78, -58,
   -67, -83, -51, -113, -76, 59, -11, 10,
   49, -23, -69, 3, -30, -29, -28, 13,
   -29, 84, -46, -29, -23, 19, 62, -92,
   -47, 11, 12, 63, 5, 2, 1, -32,
   -3, -10, -16, -21, 8, 1, -16, 31,
   3, -5, -8, -52, -49, -51, 16, -8,
   24, -35, 20, 45, -3, 3, 3, 8,
   16, 38, 11, -89, -119, -48, -71, 7,
   56, 21, 0, 18, 82, 28, 34, -2,
   -64, -41, -40, 75, -33, -73, -37, -15,
   7, 18, 92, 41, -6, 14, 46, 90,
   127, -5, -5, -7, -16, 33, 25, -16,
   17, 29, -1, -7, -36, -16, 10, 0,
   50, -78, 26, 48, 3, 16, -48, -72,
   20, 25, 1, 5, -7, 8, -2, -10,
   -42, 16, -33, -10, -48, 31, 39, -25,
   -26, -26, 22, 46, 19, 3, 4, -41,
   -22, -48, 6, -1, -14, 44, -39, 25,
   -12, -9, 43, -50, 21, 17, 29, -42,
   -23, 21, -4, -8, 16, 63, -28, 33,
   -15, 53, -45, -16, -57, 62, -47, 76,
   -56, 43, 36, -47, 6, 10, 37, -52,
   -3, 41, -35, 34, 62, -26, -66, -42,
   7, 6, -27, 10, -1, -25, 30, 8,
   -65, -18, 63, -44, -7, 50, 15, 3,
   -12, 20, -34, 34, -25, 9, 11, 7,
   -63, -11, -68, -62, 27, 53, 28, 35,
   7, -15, -23, -5, 19, -13, -32, -86,
   15, -2, 13, -36, -8, -12, 10, -58,
   77, -12, -14, -63, -51, -20, 32, -5,
   -19, 4, 26, 46, 53, 56, 31, -16,
   -6, -16, 34, 22, -22, 54, -33, 28,
   108, 80, 85, 16, -40, -36, 27, 12,
   4, -36, 11, -18, -10, -55, -22, 55,
   12, 45, 7, 23, -52, -26, -1, -21,
   -5, 3, 17, -44, 43, 17, -4, -21,
   61, -49, -44, -36, 38, -41, -20, 15,
   -63, 113, 78, 23, -52, -73, 27, -23,
   45, -17, -4, -42, 16, -52, 1, -4,
   23, 11, 0, 43, -15, -15, -13, -8,
   -32, 25, 29, 43, 48, -30, -5, 18,
   52, 2, -46, 39, -25, -57, -64, 76,
   -30, -25, -5, -28, -124, 112, -126, 36,
   97, 40, 62, 37, 47, -6, 28, 16,
   -21, 4, 18, -38, 13, 71, 13, -30,
   -43, 55, 56, 4, 88, 9, 38, 0,
   -70, -19, -94, 54, 28, -5, -48, -4,
   -53, -15, 8, -4, -21, 41, -34, 22,
   91, 38, -28, -107, -1, -83, 29, 5,
   -20, -80, -22, -9, 0, -1, 4, -3,
   6, -1, 33, -14, 12, -3, -113, -30,
   45, -30, 23, -3, 56, -49, 87, -74,
   94, -52, -53, -45, 32, -98, 50, -16,
   21, 2, -12, -4, -63, -9, -7, 8,
   -26, -14, -53, 62, -31, 18, 4, -41,
   58, 25, -91, 68, -30, -3, -25, -32,
   -4, -33, 18, 19, -97, 53, -30, -29,
   30, 29, 2, 29, 44, -14, 43, 26,
   54, -20, -18, -10, -53, 12, -19, -33,
   -17, 52, -11, -13, -7, 9, 3, -4,
   10, 18, 8, 14, 20, 40, 10, -25,
   -126, -27, -26, -18, 39, 77, -49, -108,
   -84, -27, -47, 35, 17, 36, -4, 39,
   16, -19, -95, -76, -23, 23, -44, -2,
   -18, 37, 26, 17, 26, -14, -9, -14,
   -56, -27, -24, 16, 14, -1, 55, -8,
   105, -40, 40, 26, -31, -62, -16, -41,
   36, 8, 51, 38, 7, -28, 63, -118,
   -23, -27, -7, -46, 39, 20, 8, -86,
   66, -48, 41, 28, -47, -85, 93, 36,
   -1, -11, 111, 8, -2, 49, 25, 4,
   11, -3, -18, -21, -30, -34, -109, -85,
   -50, 22, 63, 81, 11, 2, -55, -128,
   -91, -35, -25, -51, 35, 51, 66, -32,
   25, 9, -39, -6, -24, -29, 8, 15,
   31, 35, -18, 28, -86, 3, 5, -24,
   -32, 37, -100, 42, -48, 66, -35, -78,
   -19, -16, -80, -82, 11, 24, -64, -13,
   22, 13, 2, 32, 43, -25, -22, -69,
   80, -36, -10, -22, -63, -50, 8, -23,
   -51, -10, 27, -40, 32, 12, 0, 5,
   43, 12, -14, -16, -32, 69, -10, 1,
   -1, 2, 18, 37, 74, 91, 120, 46,
   -45, -58, 35, 27, -7, -15, -21, 17,
   9, -110, -61, 25, -2, 67, -40, -17,
   -5, -22, -7, 34, 48, 53, 34, -36,
   -7, -24, -50, -43, 61, 42, 29, 17,
   -53, 25, 47, -12, -2, -10, 50, 77,
   -16, 23, 64, -31, -32, -49, 2, 29,
   13, 40, 25, 21, 23, 41, -17, -31,
   -25, -8, -20, -26, 93, -34, 10, 12,
   25, 98, 42, -15, -57, -30, -18, 47,
   17, 8, 32, 18, 2, 1, -27, 0,
   -4, -33, 38, 127, -86, -12, 27, 26,
   15, -28, -30, 46, 90, 50, 20, -2,
   -116, -35, 37, -42, 82, 67, -17, -21,
   25, -2, 41, 25, 77, -23, -41, -83,
   53, 6, -34, 39, 46, 14, -10, 32,
   64, 22, -70, -78, 23, 6, -92, -38,
   3, -63, -10, 11, 7, -61, 9, 19,
   19, -8, -6, -56, 17, 31, -29, -39,
   -37, -40, 80, 23, 56, 13, 7, 16,
   36, -46, 6, -10, -1, -18, 3, -12,
   31, 24, -10, -20, -46, -31, -44, -44,
   -55, -35, -73, -70, -49, -9, -27, -45,
   14, 45, 39, 39, -25, -21, 3, -65,
   -34, 1, 34, 1, 5, -19, -80, -61,
   -41, -2, 11, 10, 27, 55, -23, 6,
   -5, 3, 17, -21, -20, 1, -4, 21,
   -34, 47, 11, -11, 22, -1, 6, -64,
   39, 6, 18, 31, -40, -5, -16, 5,
   7, 45, -20, 17, 12, -24, -2, 6,
   33, -13, 19, -29, 8, 33, -59, -35,
   2, 2, -2, 22, 4, 3, -38, -124,
   24, 21, 6, -13, -3, -5, 29, 32,
   37, 15, 3, 12, 9, -7, 13, 21,
   40, 32, -32, -39, 24, 78, 53, 7,
   43, 62, -12, -14, 0, 42, 4, -15,
   47, 23, 34, -41, -31, 6, -40, 23,
   38, 6, 21, 1, -21, 27, 66, 6,
   -16, -24, -11, 5, 82, -25, 4, 20,
   -33, -22, -22, -54, 13, 11, 21, -18,
   17, -82, -59, -40, 89, 45, -25, -14,
   -127, 79, 86, 18, -9, -72, -26, -15,
   77, 18, 5, -127, -8, -76, 8, -9,
   21, 8, -2, -14, 11, -24, -30, -36,
   -20, 9, 2, -64, 30, 31, -17, 20,
   -13, 17, -33, -105, 36, 20, 36, -66,
   -43, -19, 15, 11, -56, -30, -50, -26,
   -37, 44, 26, -9, -65, -8, -24, 31,
   -15, -21, -5, 5, 8, 24, -28, -50,
   28, -42, -56, 14, -67, 68, 64, -31,
   9, 23, 20, -28, 2, 9, 52, 27,
   -13, 15, 52, 27, -4, 24, -4, -28,
   -23, 62, -56, -41, 5, -9, -31, 29,
   0, 8, 30, -87, 10, 9, 10, 2,
   -8, -8, -24, -41, 58, -7, 0, 5,
   28, 28, 24, 46, 49, -4, 11, -8,
   11, 11, 55, -49, 44, 13, 13, 22,
   8, -36, 44, 34, 72, -18, 23, 1,
   -28, 45, 40, -13, -47, 44, 80, 17,
   70, -60, 30, 95, 11, -13, 110, 19,
   21, -11, 3, 13, -84, -29, 37, -19,
   -27, -4, 0, -76, 62, -19, -22, -16,
   -36, -12, -7, 47, 7, -5, 50, 59,
   -23, -13, 59, -9, 21, -8, -37, -20,
   -2, -24, -12, -26, -14, 6, 12, 19,
   -21, -124, -76, -17, -42, 1, 23, -60,
   1, -41, -122, -70, 120, -30, 7, -53,
   27, -12, 111, 42, -56, -85, 102, 40,
   11, 17, 38, -49, -39, -18, -13, -24,
   11, 16, 1, -13, 126, 19, -96, -55,
   36, -38, -18, -6, 31, -4, 39, 2,
   -24, 31, 44, -3, 5, -12, -5, 28,
   -17, -48, 28, -107, -20, -30, -22, 4,
   -16, -60, -68, 126, 34, -23, 39, -93,
   14, 45, -16, -21, -84, -76, 27, 18,
   -7, -3, -4, -2, 1, 4, 37, -10,
   -37, -38, -31, -12, -34, 45, -2, 47,
   -10, -49, 30, -41, -110, 17, -72, -67,
   -80, -48, -17, -65, -7, -39, -24, -62,
   0, -15, 45, 30, -6, -48, -4, 38,
   31, -24, -55, -12, -52, -12, -76, 53,
   -39, 18, 35, -2, 74, -19, 2, -24,
   58, -92, -10, 49, -14, 25, -15, 34,
   6, -6, -15, 4, 30, 1, -92, -18,
   -60, 54, 29, 16, -60, -41, 14, 27,
   56, 29, 2, -30, -7, -32, 28, 7,
   27, 9, -6, 22, -64, 75, -32, -45,
   78, 37, 62, 1, 66, -29, 63, 17,
   -66, -60, -102, -79, 6, 69, -35, -72,
   -53, 9, -58, 40, 11, 49, 14, 4,
   5, -9, 45, 10, 29, 21, 17, -19,
   66, 44, 14, -3, -32, 96, 36, -21,
   29, 21, -53, 30, -69, -21, 13, -37,
   -43, -10, 22, 6, 34, 0, -48, -34,
   -16, -21, 17, 23, -8, 16, -34, 9,
   -6, 4, 7, -17, 19, -13, -6, 3,
   -22, 24, 27, -17, -4, 13, -2, 21,
   42, 38, 50, 35, -98, -55, -78, -84,
   -89, 30, 41, 18, 85, 51, 32, 26,
   -42, -4, -28, -31, -11, -11, -69, -24,
   -21, -10, -11, -51, -29, -18, 15, -16,
   127, -91, 2, -4, 2, -25, 1, 28,
   -46, -17, 48, -4, -12, 74, 87, 63,
   16, -35, 1, -17, 13, -42, 15, -14,
   -19, 24, 5, -34, -35, -3, -4, -32,
   -29, 23, -4, 11, 65, -13, 13, 48,
   17, -38, 19, -1, 50, 10, -30, 14,
   -1, -18, -7, -16, 1, 9, 6, 13,
   39, 67, 57, 50, 76, 53, 81, 27,
   25, -31, -12, -8, 60, 74, -58, -58,
   33, -2, 61, 54, -12, -7, -25, -56,
   -28, -43, -5, 42, 79, 20, 65, -19,
   6, -10, -9, 41, -90, 24, 18, 15,
   -26, 64, -72, -22, 11, -7, 50, -31,
   22, 55, 111, 5, -35, 81, 10, 12,
   -11, -9, 70, 7, 9, -47, 9, -79,
   -26, -4, 21, -66, 30, -39, 41, -8,
   29, 51, 32, -3, 0, -13, -17, 30,
   0, 1, -2, -22, -24, -13, 39, 27,
   -28, 48, 32, 23, -22, 31, -56, 16,
   52, -14, -126, -27, 50, 40, 44, 30,
   -124, 59, 59, 36, 33, -33, 31, -7,
   31, 0, -9, 16, 54, -56, -24, -41,
   -24, 7, 15, -8, 11, 4, -55, -18,
   -19, -70, 12, 6, 10, 68, 35, 7,
   -68, -22, 5, 9, -5, 2, -15, 4,
   -63, 37, 0, 3, 13, 64, 1, -1,
   -26, 6, 71, -26, 1, -20, -8, -23,
   18, -40, 3, -30, 5, -19, 3, -11,
   -9, -6, 7, -30, -2, -84, 49, 19,
   -32, -20, 40, 69, -19, -19, -61, -60,
   3, 64, 82, 9, 14, -23, 70, -80,
   22, 3, 42, 19, -8, 89, 6, 3,
   -44, -38, -22, -78, 9, 53, 40, -10,
   9, -13, -6, 22, 68, -10, -13, -14,
   -80, -25, 50, -57, -41, -27, -30, -15,
   5, -22, -43, -22, -23, -34, 37, -33,
   9, 22, -9, -20, -19, -12, -12, 83,
   47, 20, 10, 9, 9, -17, -3, 26,
   -30, -6, 0, 15, -8, 6, -2, 3,
   -3, -15, -57, -21, 7, 54, -5, -18,
   51, 34, -79, -31, -18, 37, 1, 43,
   -20, -39, -55, -23, -48, -52, -71, -127,
   -88, -12, -109, -127, -114, 9, -25, 6,
   -25, -4, -1, 22, 36, -7, 20, -76,
   5, 6, 48, 12, -29, 12, -29, -47,
   45, 21, -10, -40, 101, 0, -28, 0,
   -32, -34, -10, 29, 3, -22, 5, 4,
   -16, 11, -10, 0, 39, 14, 5, 41,
   3, -12, -9, -2, 32, 6, 19, 36,
   26, 20, 3, 15, -6, -32, -9, 21,
   96, -4, -117, -101, -104, 29, 0, -70,
   28, -41, 26, -3, 36, 48, 31, 34,
   44, 6, 13, 57, 18, 16, -7, 2,
   -57, 20, 3, -73, -92, 49, -10, 33,
   0, -46, 73, -43, -39, 11, 19, -39,
   -33, -78, -37, -1, -25, 20, -30, 20,
   70, -32, -26, -19, 6, -13, 20, -7,
   9, 39, 19, -32, -16, -11, 12, 53,
   13, 34, 15, 16, -10, -5, -85, -95,
   -57, -8, 4, 9, -6, -31, 18, -68,
   -4, -6, -27, -30, -36, -40, -124, -86,
   0, 6, 80, 41, 65, 28, -62, 75,
   5, 1, 36, -32, -35, -37, 79, -42,
   -21, 17, -56, 17, -13, -29, -98, -99,
   -92, -64, -27, -1, 4, 11, 15, 75,
   -2, -39, -5, -9, 7, 5, 53, 81,
   -36, 43, 54, 2, -47, 7, -19, -65,
   52, 42, 1, 29, -26, 3, -42, -21,
   -23, -23, -37, -52, 7, 13, 62, -17,
   -30, 74, 17, -20, 39, -37, 89, -19,
   -9, 35, 38, -42, -14, -17, -3, -2,
   -12, -7, -7, 0, -13, 31, 19, 26,
   54, 14, -25, 13, 44, -6, -20, -24,
   23, -48, -34, 15, 10, 25, -5, -70,
   -12, -10, 32, 32, -126, -122, 9, -30,
   -37, 3, 105, 3, 0, 4, -54, 53,
   -31, -8, -5, -35, 39, -37, -3, 15,
   -3, -57, 74, 12, -58, -13, 28, 15,
   4, 46, 34, -21, -5, -34, -50, -25,
   -13, -9, 33, -16, 39, -15, -25, 42,
   9, -23, -28, 16, -7, -42, -12, 33,
   19, -52, -20, -29, -12, 29, -24, -63,
   -43, 52, 114, 103, -80, -87, -46, -84,
   -47, 18, -33, -13, 49, 44, 17, 41,
   -36, 13, 14, 34, -71, 32, 14, 93,
   78, 85, 17, 42, 16, -44, 17, 37,
   -18, 12, 82, 127, -14, 2, 36, 11,
   -37, -16, -15, 78, -31, -12, -63, -8,
   78, -59, -23, -10, 9, -63, -7, -54,
   -3, -22, -2, -20, 57, -58, -1, 25,
   -8, -12, 11, -1, -17, 31, -5, 57,
   -37, 3, 12, 5, -9, 81, -5, -48,
   5, 23, 2, 6, -8, 0, 0, -12,
   10, -41, -49, 33, 124, 48, 72, 78,
   -33, 6, 18, 18, -25, 27, 27, -55,
   43, 40, -41, -1, -83, 107, -28, -44,
   -128, 38, 124, -31, -26, 11, 36, 20,
   16, 19, 44, -18, 12, -69, -22, -21,
   9, 29, 50, 42, 1, -50, -15, -11,
   7, 14, -95, -22, -18, -7, 18, -2,
   26, 10, 70, -41, 11, -17, 16, -31,
   -21, -2, -31, 7, 28, 7, 31, 26,
   42, 44, -11, 55, -10, 25, 16, -1,
   1, 19, -23, -22, 28, 21, 98, 32,
   -78, -43, 30, 6, -22, 11, 43, -48,
   -30, -13, 32, 3, -3, 4, -31, -46,
   -90, 7, -30, 40, 49, 14, -48, -1,
   30, 28, -9, -8, 30, 8, 42, 0,
   33, -29, -7, -39, 2, 9, 33, -34,
   64, 19, -55, 3, -21, 29, 22, -49,
   -48, -1, -8, -7, 42, 18, 28, 23,
   -18, -42, 18, -25, 24, 0, -6, 1,
   -27, 48, -4, 75, 26, 23, -15, -62,
   33, 15, 10, 33, 19, 2, 10, -26,
   -6, -4, 15, -18, 27, 43, 26, -67,
   -22, -23, -52, 23, -52, -37, 5, -55,
   17, -38, -61, -17, 2, -45, 19, -8,
   -26, -47, 32, 25, -44, 6, 20, 29,
   -15, -7, -10, -16, 6, -35, 6, -42,
   52, 21, -2, 16, -13, 52, -58, 12,
   -2, 21, -50, -44, 7, 38, -75, -39,
   5, 44, -52, 68, 8, 56, 1, 33,
   25, 22, 21, 30, 23, -1, -2, -6,
   -55, 26, 14, 15, -46, -24, 25, 26,
   1, -52, 23, -14, 15, -2, -24, -20,
   -20, -5, 99, 5, 29, -51, -20, -40,
   46, 9, 123, 101, 79, 27, -54, 22,
   -68, -56, -30, -109, 11, 32, 24, -60,
   -48, 9, 1, 38, 70, 18, -14, -77,
   37, -50, 55, 123, -18, -78, 126, -20,
   -13, -106, 32, 127, -90, -32, -24, -4,
   -13, -117, -19, 0, -64, -85, 112, -9,
   1, -61, 11, 62, -9, -12, 10, 24,
   24, -47, 24, -46, -30, 62, 19, 1,
   25, 0, -8, -24, 4, 47, -6, -17,
   -27, 40, 10, 8, 22, 2, 1, -30,
   -30, 29, -1, 108, 82, 64, 53, 6,
   45, 61, 6, 23, -46, 10, 73, 2,
   42, 9, -89, 1, 112, -10, -20, -65,
   -127, 127, 127, -127, 14, -31, -2, -54
};

static const rnn_weight reset_noise_gru_weights[4128] = {
   -77, 12, -6, 36, -35, 12, 1, -54,
   -31, 8, 7, 43, -64, -42, 30, -26,
   60, 38, 37, 13, -16, 49, -13, 2,
   -2, 16, -43, -18, -1, 9, 63, -12,
   39, -24, -47, 19, -1, 27, -19, 5,
   1, -49, 12, 12, -16, -18, 12, -18,
   20, 9, 7, 3, 39, 24, -31, -43,
   -73, 30, -24, 25, 54, 99, 19, -16,
   -24, -27, 91, 58, -81, -126, 15, 38,
   31, 70, -94, -42, 2, -38, 66, -13,
   -14, 1, -42, 41, 64, -12, -25, 15,
   -27, 25, 7, 43, -22, -16, 15, -33,
   -27, 14, 23, -8, 5, 12, 9, -29,
   -63, -26, -5, 0, 30, 7, -12, -51,
   25, -10, -8, 2, 7, 0, 3, -5,
   14, 21, -15, -14, 1, 1, 17, 14,
   -23, -2, 16, 59, 0, -3, 1, -18,
   3, 31, -23, 11, 116, -22, -31, 13,
   24, 20, 60, 28, 5, 5, -22, -1,
   9, -112, 0, 38, -75, -5, -27, -40,
   -29, -19, -30, -41, 40, -13, 6, -23,
   -10, 50, -52, -62, -41, -29, -1, 4,
   -22, -46, 18, -7, -2, 6, -40, -20,
   2, -19, -19, -36, -35, 20, -29, 5,
   3, 6, 10, 0, -25, 19, -7, 29,
   -18, 27, 41, -1, -25, -23, -35, -43,
   -34, 11, -43, 32, -23, 20, -40, -25,
   38, 0, -32, -14, 8, -5, 2, -64,
   -17, -58, 21, -15, 28, -12, -47, -16,
   -52, -25, -12, -6, 12, -10, -31, 32,
   -56, 10, -73, -19, -32, 5, -77, -28,
   -43, -17, 12, 69, 44, -16, -12, -47,
   -21, 28, -40, 104, 43, -1, 63, 26,
   3, -23, -7, 58, -83, 5, -108, -31,
   53, -92, -31, 18, -7, -21, 1, -58,
   -24, 4, 7, 14, 0, -21, 8, 2,
   29, 7, -18, -13, 25, 49, -45, 30,
   -11, -31, -13, 18, -11, 27, -62, -1,
   -6, -4, 14, 28, 34, -3, -42, -46,
   -126, 40, -54, 10, 11, -70, -61, -24,
   -50, -9, -103, -32, -43, 69, 2, -118,
   -6, -93, 45, 55, 50, -21, -39, -45,
   -127, -125, -36, 25, -15, -8, 126, 2,
   -18, 3, -18, 30, 28, -22, 16, 22,
   39, 78, -11, -35, 5, -25, -26, -33,
   -23, 13, 26, 11, -6, 39, -25, -14,
   -21, 29, 8, 14, 21, 6, -14, -12,
   5, -28, -12, -15, 15, -28, -24, 28,
   -15, -11, -32, -24, -4, -41, -10, 15,
   -20, 1, 11, 7, 25, -4, 89, -18,
   -70, -10, 12, 15, 47, -50, -10, 6,
   74, 32, -127, 40, 80, -104, 15, -29,
   -74, 45, 80, -1, 46, -24, 0, -7,
   -7, -20, -14, -20, 25, -52, -57, 0,
   -43, 18, -47, -4, 43, -15, 21, 43,
   -30, -9, 42, -38, -16, 2, -57, 43,
   2, -54, 7, 54, 45, -10, -20, 6,
   -1, 7, -23, -53, -43, -12, 14, -7,
   51, -55, 3, 13, -34, -53, 23, 16,
   19, 28, 7, -3, 17, -8, -9, 21,
   -26, -7, 8, -10, 75, -10, 85, 48,
   -59, 51, -47, -93, -65, 9, -57, -49,
   -100, 35, -34, -18, -41, -59, -84, 121,
   -80, 50, -3, -16, -24, 29, -54, 52,
   34, 9, -38, 22, 11, 126, 24, 24,
   124, -64, -61, -47, -15, -8, -22, 1,
   18, -54, -86, -39, -28, -8, 60, -50,
   -116, -2, -1, -18, 0, 2, -14, -43,
   -25, -32, -16, 37, 1, 28, -15, -14,
   -29, 15, -12, 10, 15, 44, -3, 20,
   5, 42, -24, -35, -4, 6, 25, 42,
   27, 32, 44, -8, -91, -105, -33, 100,
   115, 126, 60, 35, 104, 24, -4, -33,
   -41, 19, 55, 89, -37, -20, -33, 20,
   59, -37, -128, -127, 121, 122, -90, 29,
   73, -3, 125, 1, 13, 7, 47, 1,
   25, -24, -53, -36, 76, 9, -13, -30,
   -3, 119, -81, -18, 29, 31, 75, 5,
   22, -37, 12, -59, -31, -8, -22, -13,
   -3, 28, -17, -2, 14, -23, 14, 33,
   -23, -25, 14, -7, 8, -4, -8, 57,
   11, 34, -1, -22, 9, 26, 36, 15,
   127, 42, 15, -30, -87, -122, -89, -107,
   -64, 20, -25, 20, 75, 3, -9, 66,
   -12, 38, 53, 32, 93, 90, 81, 33,
   24, -15, -22, 44, 93, 30, -73, -29,
   -13, 58, 23, 1, 27, 4, -26, -18,
   7, 41, 16, -8, 57, 5, 59, -11,
   -37, -54, 16, -46, 34, -35, 19, -61,
   28, 11, 45, -12, 18, -12, 11, -19,
   -14, 15, 17, 12, -18, 26, -5, -1,
   28, 2, 4, 21, -32, 11, -2, -6,
   12, 2, 8, -4, -24, -14, 58, 47,
   -14, -35, 40, 32, 16, 1, -21, 25,
   -20, 0, 37, -52, -71, 37, -8, 38,
   21, -59, -57, -1, -32, 21, -122, 13,
   90, 24, -15, 13, 54, -72, -3, -7,
   -17, -1, -4, -12, 37, 25, -48, -46,
   8, 15, -26, 89, -9, 11, 28, 11,
   26, -21, -9, -15, 11, 14, -27, 32,
   -19, 13, 0, 27, 7, 7, 0, 2,
   -11, -21, 20, 16, -10, 22, -21, 12,
   -14, -4, 4, 1, -24, 2, 4, 23,
   15, -19, -42, -10, -71, -50, -4, -35,
   -21, -26, -14, -30, -21, 13, 1, 2,
   -26, -24, 25, 10, 26, 0, 1, -4,
   29, -20, 53, 22, 56, 42, 40, 35,
   25, 9, 17, -9, -51, -19, -38, -24,
   -84, -16, 4, 58, 34, -55, 31, -12,
   -70, -25, 20, -54, 20, 22, -53, -18,
   14, -7, -10, -5, -9, 14, 21, -9,
   -10, 30, -9, -11, -20, 30, 4, 48,
   26, 28, -38, 11, 4, -21, -6, 6,
   -37, 11, -16, -27, -11, 0, -18, 9,
   -4, -5, 41, 0, 26, 87, 127, 90,
   71, 27, 1, -26, -44, -31, -78, -50,
   4, 13, -1, -3, -65, -48, -12, 30,
   24, 8, -108, -4, 23, -53, -36, -49,
   -127, -15, -7, 79, 18, 14, 50, -35,
   -85, -46, 28, -59, 31, -11, -33, 10,
   -17, -47, 43, -7, -64, 18, 35, -3,
   -74, -24, -17, -12, -7, -23, 33, 27,
   12, -11, 27, -4, 15, 17, 19, -29,
   -59, -17, 23, -31, -13, 20, 0, 35,
   -13, 12, 8, -8, -1, -27, -7, -17,
   -125, -110, -68, 127, 127, 107, 40, 20,
   -31, 29, 9, -23, 46, 21, 35, 53,
   -3, -88, -38, -32, 36, 37, 35, 16,
   -127, -31, 111, -30, 44, 18, -22, -33,
   49, 23, 37, -45, -42, -26, -22, 62,
   -46, -40, 53, 18, -28, -2, 43, 7,
   27, 54, 26, -31, 13, 4, -7, 16,
   16, -40, -22, -10, -54, 5, -16, -25,
   -4, 3, -17, 19, -22, -26, -55, -57,
   1, 63, 48, -25, 17, -2, 23, 12,
   18, -1, -2, -5, 2, -23, 85, 23,
   47, -29, 49, -45, 63, 10, 21, 74,
   -63, 59, -5, 6, 71, -81, 59, -116,
   46, -91, 94, -5, 44, 1, -65, 46,
   -52, -13, 22, 18, -6, 6, 27, -12,
   -14, -12, 7, 39, -39, 25, 32, -15,
   -32, 28, 10, 22, -15, -9, -76, 34,
   -18, 6, -11, 30, -21, -25, -5, 3,
   28, 1, 21, -3, -24, 18, 6, 11,
   -42, -25, 37, -47, 7, -14, 8, 6,
   -5, 4, -4, -13, -8, 6, -8, -22,
   -46, -24, -9, 26, 35, 35, 70, -17,
   -2, -16, -65, -50, -34, -41, 0, -8,
   74, -80, -10, -39, 9, -2, 5, -16,
   -14, -53, 5, 40, -50, -55, -26, 9,
   -2, -29, 10, -1, -60, 23, 3, 21,
   -3, -27, -17, -10, 10, 53, -3, 1,
   53, -4, -47, 8, 28, 28, -3, 6,
   7, 4, 67, 4, -21, 6, 33, 8,
   -7, 14, 7, 21, -10, -22, -3, 3,
   24, 1, -4, 3, -14, 27, -44, -24,
   7, 28, -15, 19, -20, 7, 31, 7,
   30, -38, 27, -25, -22, 24, -10, -15,
   3, 31, 30, -21, -5, -3, -71, 75,
   -60, -12, -60, -20, 69, 49, 45, 12,
   -30, -25, -22, 2, 52, 8, 3, 8,
   15, -19, 28, 107, 16, 3, -24, -62,
   6, 0, 10, -3, -10, -1, -32, -11,
   -65, 64, 7, 23, -30, -48, -27, -16,
   18, -6, 19, -10, -11, 23, -25, -30,
   -24, 15, -42, 16, 17, -3, -24, -10,
   -3, -6, 42, 50, 5, 14, 8, 14,
   -4, 22, -18, -11, -14, -11, -34, -21,
   0, -52, -66, 49, -32, -95, -91, -121,
   -110, 2, -1, -13, -108, -17, -33, -3,
   -67, -35, -34, 4, 55, 60, 14, -76,
   -69, -37, 77, 117, 100, 121, 47, 4,
   -14, 32, 45, -13, 64, 18, 16, -23,
   -11, -5, 53, -39, 31, 7, -34, 13,
   -55, 13, 65, -3, -21, -70, -18, -32,
   0, -40, 1, -40, 19, -2, 47, -28,
   6, 24, -20, -13, 13, 1, 78, 9,
   14, 40, -10, -4, -3, -13, -5, -26,
   19, 26, 11, -29, -31, -37, 84, 113,
   -15, -123, -76, -67, -73, -75, 127, 127,
   127, 4, 16, 17, 31, -93, -96, -50,
   21, 69, -39, 43, -68, -9, -123, -91,
   -48, -53, 12, 54, 20, -2, -35, 13,
   -55, 40, -32, -52, 38, 21, -1, -54,
   17, -2, 37, -9, -43, 8, -9, 37,
   -8, -38, 4, 39, -10, -8, -6, -18,
   -30, -2, -17, 18, 0, -13, -6, -11,
   24, 35, 55, -4, 3, 22, 7, 1,
   -46, -16, -17, 16, 1, 5, 25, -6,
   28, -23, 17, 23, 63, -23, -25, -34,
   39, 27, -25, -10, 6, -27, -30, -12,
   8, -47, 36, -46, -15, -8, 41, -74,
   58, 73, 29, 37, 101, 25, -75, 20,
   48, -44, -24, 7, 34, 37, -16, 1,
   29, -17, -15, 36, -2, -7, 50, -12,
   -4, 17, 4, -4, -11, -30, -7, -20,
   -35, 6, 17, -66, -8, 51, -17, -25,
   2, 26, 12, 19, 24, 13, 58, -1,
   -28, -12, -35, -13, 39, -21, 13, 8,
   -15, 15, -35, 10, 4, 19, 18, 30,
   20, 27, 44, 64, 100, 31, 60, 47,
   -54, 20, 22, -87, 102, 43, 120, 87,
   91, 80, 49, 71, 124, 44, 19, 46,
   -4, 17, -125, -128, -122, -67, 50, -31,
   -128, 43, 4, 32, 9, 3, -17, -22,
   -2, -127, -5, 10, -54, -11, 25, 6,
   -14, 17, -6, -3, -52, -23, -34, 71,
   60, -25, -5, -2, 15, -15, 7, 6,
   -4, -33, -1, 13, 21, 2, -24, 9,
   32, -13, -22, -27, -14, 22, 10, 38,
   23, 30, -6, 14, -75, 62, -84, 73,
   -125, 98, -4, 9, 13, 4, -39, 11,
   30, 11, 6, -9, -49, 33, -128, 64,
   -71, 51, -5, -5, -38, 97, -42, -6,
   -28, 50, 97, -18, -29, -118, -17, -4,
   8, -46, 55, -44, 17, 35, -53, -45,
   -14, 30, -1, 18, 23, 59, -2, 45,
   75, -43, 6, 66, 66, -75, -61, -44,
   12, 1, 29, -4, 13, -5, -8, 7,
   -16, 18, 23, -10, -26, -1, -14, 10,
   29, 26, 22, -5, -16, -5, -1, 38,
   -14, 17, -65, 77, -88, 28, -19, 1,
   5, 18, 54, 5, 5, 24, 36, 19,
   -3, 7, 95, 84, 36, 40, 37, -31,
   25, 68, -15, -3, 9, 47, -32, 4,
   92, 55, 21, -3, 25, -10, 12, 7,
   -30, 17, 54, 3, -19, -10, 39, 19,
   -51, 17, 47, -5, 69, 2, -42, -28,
   17, -19, -36, 15, -18, -19, -21, 33,
   -50, 14, 25, 22, -72, 3, 36, -18,
   17, -1, 23, 13, -6, -9, -42, -4,
   -5, 7, -6, -8, 14, -11, -26, -42,
   -12, -9, -4, 27, -21, 93, 67, 46,
   55, 44, -38, 60, 18, -23, -21, -15,
   -28, -56, -47, 42, -18, 66, 21, 0,
   24, 3, 36, 29, 8, 24, 87, 1,
   -17, -50, 19, -20, 9, 32, -24, 20,
   58, -42, -20, -18, -31, 6, -85, -9,
   -16, -3, -22, 14, -64, 0, -11, -89,
   34, 81, -32, -59, -8, -18, 12, 20,
   6, -4, -20, 43, -7, -31, -8, 11,
   19, 9, -69, 62, -10, -5, 1, 31,
   14, -9, 18, -34, 11, -44, 4, 45,
   -38, 3, 107, -128, 93, 28, -72, 23,
   -19, -33, 57, 65, 47, 49, 92, -108,
   121, -10, -77, 0, 27, 31, -48, -28,
   24, 15, 42, -32, -5, -29, 47, 8,
   35, 24, 10, 94, 24, -18, -18, -28,
   9, -38, -10, -119, -28, -17, -39, 14,
   -36, -31, 34, 29, -15, -41, -17, 64,
   57, 38, -5, 14, -15, -19, -16, 11,
   25, -35, 7, -9, -8, 32, -22, 37,
   -5, -26, -24, -8, -4, -17, -7, 42,
   -13, 19, -13, -4, -9, -12, 3, 37,
   27, 0, -11, -28, -50, 16, -10, 35,
   26, -54, 26, -4, -4, 35, -35, 69,
   85, -3, 8, 114, -3, -14, 13, 29,
   -40, -86, 59, 7, 5, 3, -31, -17,
   9, 40, 12, 5, -57, -15, 19, 6,
   -21, -112, -40, 6, -38, -23, 63, -82,
   -41, 28, 43, -30, -45, 27, 27, 20,
   24, 51, 79, 2, -9, 3, -4, 22,
   -54, 23, -53, -15, 25, 6, 1, 37,
   -23, -14, 39, -3, 5, -16, 7, -11,
   11, -5, -21, -2, 32, -2, -4, 5,
   17, 57, 16, -9, 58, 38, 13, -14,
   -42, -38, -37, -62, 15, 122, 127, 37,
   4, -64, -21, 91, 121, 66, -27, -69,
   -73, 27, 9, -33, 4, -2, 0, -7,
   -13, 8, -45, -61, 27, -91, -7, -88,
   -25, 10, 1, 30, 61, -25, -3, -23,
   -15, -50, -36, 39, 42, 2, -3, 16,
   12, -9, -2, 2, -7, 3, -11, 3,
   8, -14, 17, 25, 30, -40, 15, -2,
   -9, 33, -11, -19, 0, -23, 8, 15,
   -19, -13, -10, 11, 31, -73, -70, 80,
   58, 93, 35, 58, 104, 31, 20, -27,
   -18, -7, -125, 62, -14, 101, -6, 27,
   2, -63, -6, -27, 36, -8, -123, -52,
   24, 22, 6, 16, -38, 10, -54, 13,
   33, 46, 1, -7, 32, 45, 38, 23,
   42, 11, 25, -10, 12, 9, -24, -22,
   14, -19, -4, 13, -22, 2, -20, 33,
   -23, 38, 19, -22, -22, -27, 8, 22,
   -22, 2, -23, 16, 4, -45, -38, -22,
   33, -2, -27, -17, -2, 4, 26, 71,
   61, -6, -75, 9, 33, 23, 14, -58,
   -9, -47, 15, 29, 18, 18, 124, 47,
   48, -71, 58, 42, 43, 64, 42, -53,
   -37, -31, 11, 89, 58, -3, 4, -49,
   -37, -5, -70, -4, 24, -26, -57, -21,
   -34, 23, 25, -50, -1, 0, -25, 20,
   23, -21, -28, -28, 30, -7, 23, 19,
   -54, 2, -7, -9, 3, 14, -2, 11,
   23, -30, -4, 15, -7, -11, -37, 14,
   -27, 6, -10, -27, -37, -28, 0, 7,
   4, 9, -12, -5, 8, 1, 26, 28,
   -30, 42, 33, 66, 61, 46, 32, 27,
   -37, -28, -62, -24, -19, -17, -69, -100,
   2, 16, -15, 9, -2, -5, 19, 16,
   10, 52, -35, 9, 6, 33, 77, 67,
   -3, 100, 1, 13, -34, -26, -27, 2,
   -50, -15, 29, 26, 67, -94, 51, -44,
   -126, 0, -50, -13, -122, 85, 13, 34,
   22, 94, 7, -2, -12, -68, 12, 12,
   5, 15, -57, -18, -46, 30, -37, 14,
   5, -29, 8, 6, 35, 31, -26, -24,
   8, 24, 5, 11, 32, 28, 117, 124,
   110, 125, 51, 51, 54, -73, 13, 37,
   19, -54, -1, 1, 55, -22, 55, 93,
   8, -17, 5, 20, 27, 35, -94, -127,
   -108, -64, -47, -114, 33, 5, 21, -114,
   -12, -34, -65, 26, 28, -1, -17, -43,
   43, 10, 84, 65, 38, -9, 121, -1,
   33, 40, 48, -63, 43, 6, -2, 32,
   -13, -3, 9, 16, -24, 14, -8, 11,
   18, 24, -18, -13, -34, 30, -18, -36,
   0, 4, -21, -3, 31, -12, -17, -8,
   -3, 0, 20, -5, 31, 39, -57, -42,
   80, 82, 16, -41, -17, -43, -28, -6,
   -16, -50, 31, -31, 7, 5, -8, -5,
   -38, -17, -5, 6, 123, 72, -125, -30,
   81, -127, -105, 15, -54, 25, 26, -9,
   -72, -6, 21, 27, -52, -4, -3, 5,
   -28, 30, -10, -16, 42, -15, 26, 22,
   -50, -45, -24, 10, -3, 63, -28, 25,
   1, 5, -57, 8, 35, 14, 45, -3,
   0, -24, 39, -21, -6, -18, 44, 3,
   0, -49, -4, 7, -8, 27, -15, -6,
   -41, 8, -101, 58, -92, -29, 24, 33,
   -22, 11, 42, 51, 37, 25, -50, 11,
   -30, 4, 13, -16, -70, 61, -23, 46,
   -60, 8, -26, 8, 15, -20, -45, -19,
   -30, 0, -51, -112, -49, -17, -113, -87,
   127, 5, -17, -89, 46, -10, 32, -2,
   51, 1, 58, -32, 39, -2, -48, 26,
   52, 17, -3, 20, 3, 29, 8, 1,
   -60, -43, 8, 53, 47, -35, -2, -7,
   -16, 16, 11, -5, 14, -30, -31, 37,
   -1, -6, -11, 1, -17, -18, -50, -20,
   -77, -24, -29, -6, -51, 17, -3, -1,
   -12, -50, -17, -40, -32, -51, -32, -7,
   -60, -19, -49, -15, -20, 11, -4, -15,
   76, -8, -23, -10, -15, 20, -111, 56,
   -83, 20, -25, 62, -17, -11, -28, 24,
   -12, -15, -17, -26, -1, -26, 60, -9,
   0, 89, -48, -60, 48, 53, -58, 55,
   12, 38, 33, 24, -2, 7, -43, -22,
   33, -8, 2, -31, 53, -12, 10, 24,
   6, 32, -21, 25, 12, -62, 14, -33,
   4, 1, 5, -26, -14, -44, -50, -33,
   -51, 16, 94, 9, 22, 9, 11, 35,
   -3, 1, -110, -106, 76, -106, 43, 11,
   -63, -93, 112, -71, -59, -43, 126, 29,
   -123, 70, 75, -38, -3, -5, 26, 61,
   1, -22, 48, 20, -22, -123, 52, -9,
   -44, -13, 14, 14, -42, 6, 5, -8,
   -59, -46, -20, 5, 47, 3, -10, -13,
   18, -4, -28, 0, -5, 30, 7, 14,
   22, 4, -45, -13, 33, 10, -26, 6,
   30, 30, 36, -3, -13, 20, -13, 70,
   -14, 62, -86, 69, -81, -17, -34, -3,
   -55, 2, -9, -9, -23, 18, -8, 9,
   26, 68, -44, 114, -55, 7, 28, 58,
   -49, 42, -10, -11, -82, 26, 121, 69,
   37, -16, 89, -33, -23, 27, -3, 25,
   18, 16, -30, -5, 2, 6, -7, -58,
   21, 2, 30, -41, 4, -51, 40, 25,
   -32, -2, -62, -1, -16, 15, 18, -25,
   11, 30, 10, 2, -10, -34, -33, 5,
   11, -52, -11, 39, -6, 19, -6, -28,
   -8, 7, -8, 34, -2, 0, 17, -4,
   14, 32, 20, 2, -39, 2, 39, 7,
   6, -13, -77, 2, -63, 23, -21, -83,
   47, 77, 27, -30, 21, -74, 0, 15,
   -2, -23, -38, 108, 55, -51, 85, 38,
   127, 44, 39, -24, -42, 16, 20, 54,
   -36, 3, 38, 1, -74, -46, 8, 105,
   19, -17, -56, -1, 23, -31, -9, -4,
   -40, -34, 25, 77, 37, -28, 15, 23,
   -16, -67, 12, -2, 57, 30, -6, -29,
   19, 6, -12, 2, 25, 15, -8, -19,
   9, 17, -1, 9, 22, 26, 73, 77,
   92, 62, 12, 74, 86, 11, -118, -61,
   51, 7, 53, -24, 24, 15, 34, 14,
   52, 76, 2, 24, -5, 19, 46, 38,
   -89, -32, -7, -82, -92, -10, 16, -6,
   30, 18, -45, 35, 6, 34, 20, -1,
   -6, 2, 9, -34, 29, -24, 10, -3,
   -15, 67, -4, 4, -3, -22, -52, -26,
   -6, 0, 11, -25, 12, 32, -9, -27,
   -37, -21, -23, 6, -1, -20, -68, 26,
   1, -2, -39, 14, -13, -12, -23, -11,
   -13, 42, -16, -50, 61, 21, -80, 43,
   -54, 57, -22, 5, -37, -46, -27, 12,
   31, -15, 33, -6, 66, -20, 11, 18,
   -23, 85, 10, -11, -45, -5, -56, 53,
   18, -83, 10, -67, -26, -64, 48, -60,
   -5, -3, -32, 40, -16, 60, -47, -9,
   29, -35, -9, -40, -3, 19, -44, 16,
   41, 31, 12, -4, -21, 17, 16, 32,
   13, -11, 9, -22, -17, -53, 2, -2,
   -19, -40, 39, 8, 9, -11, -24, -30,
   -7, 8, -16, -9, -24, 9, -21, -15,
   9, 21, 52, 36, 67, -17, -8, 84,
   5, 9, -9, 28, 52, 30, -6, -2,
   -127, -123, 31, -4, 84, 122, -11, 30,
   3, 0, 97, 23, 44, -66, -79, -79,
   -71, -85, 34, 12, -38, 41, -33, 34,
   74, -80, 98, -32, -84, 72, 24, -36,
   20, -28, -11, 26, 83, 44, 26, -67,
   -3, 45, 57, -11, -10, 32, 106, 19,
   -2, 11, 35, -51, -13, -3, -21, 35,
   -21, -29, -38, 11, 8, 1, -20, 9,
   0, -64, 3, -15, 16, 26, -3, -12,
   -13, -60, -109, -97, -84, -102, 33, -43,
   32, 102, 19, -48, -86, -41, 51, 79,
   7, 63, 99, 0, 12, 3, 20, 9,
   37, 4, -31, 58, 64, 73, 3, 17,
   15, 1, 3, -9, -7, 2, -53, 1,
   3, 12, -19, -46, -19, 6, -9, -6,
   -14, 5, -62, -6, 4, 14, -21, -8,
   -4, 16, -3, 19, 1, 40, 17, 15,
   -35, -15, 29, 33, 36, 10, 7, -38,
   21, 19, 12, -7, 4, 52, -10, 59,
   -13, 6, -1, -27, -16, 15, 18, 24,
   -23, 68, -64, -49, 2, 34, 2, -28,
   8, 18, -17, 2, -83, -69, -70, -3,
   -32, -13, -23, -81, -105, 15, 34, 23,
   86, 52, -14, -58, -25, -55, -48, 20,
   -86, -38, -7, 25, -28, 53, 88, -17,
   1, 16, 12, 3, -26, -63, 50, -41,
   -7, -21, 36, -30, 6, 29, -21, -1,
   -9, 1, -10, -16, -20, 26, 0, -20,
   -6, -12, 7, 16, -9, -10, -21, -14,
   -11, -15, -14, 6, 5, 1, -29, -5,
   4, -8, 13, -33, -53, 70, 26, -36,
   -75, 18, -5, -2, -8, 7, -6, -14,
   -25, -28, -22, -37, 59, -7, -73, -64,
   6, 4, 7, 2, -42, -15, 32, -1,
   -105, -72, -15, -31, -22, -39, -12, -15,
   -17, 2, -1, 22, 28, 39, -4, -4,
   -26, -33, 20, 4, -19, -2, 31, 0,
   -54, 72, -8, -48, 17, 2, 19, -20,
   12, -1, -12, -15, -6, 50, 3, -10,
   -30, 36, -54, 27, 27, -20, -15, 74,
   4, 2, 14, -4, -6, -39, -5, -6,
   23, 20, 15, -24, -9, -4, -28, -110,
   -10, 45, 1, -84, -5, -5, -65, -24,
   -50, 3, 26, -6, -45, -38, 27, 5,
   6, -23, -14, -43, 66, 127, 127, -39,
   -119, -5, -110, 33, 16, 13, 15, 13,
   42, -7, 18, -6, -74, -10, 22, 51,
   -24, -44, 6, -32, 72, -36, -40, -16,
   -13, -7, -20, -42, -2, 17, 6, -10,
   -22, -48, -13, 38, 9, 11, -30, 23,
   21, 49, -13, 28, -7, -10, -11, 1,
   13, 3, -5, -36, -1, 24, 51, 6,
   4, 48, -127, -74, -5, -39, -46, 32,
   39, 20, 7, 47, -17, 12, -12, 52,
   63, -6, 49, 30, 59, -35, 38, -10,
   -78, 9, -17, -75, -28, 101, 46, -21,
   18, 5, -14, -66, 0, 14, -1, 29,
   -54, 38, 4, -33, 26, -35, -40, -20,
   42, -5, 39, -49, 57, -58, 41, -13,
   -28, -8, -11, 31, 31, -27, 19, 23,
   -4, -29, 29, 6, 31, 65, 23, -2,
   -63, -18, -10, 11, 5, -2, -45, -6,
   8, -2, -9, -13, -13, 0, -17, 13,
   -18, 12, 51, 36, -11, 2, -26, 59,
   -30, -2, 48, 12, -30, -65, 62, 53,
   -14, -19, -1, -26, -11, 46, 56, 28,
   9, -16, -71, -59, 31, 34, -24, 36,
   28, 27, 4, 2, 44, 26, -20, 37,
   48, -2, 9, 54, 48, 22, 5, 36,
   -37, 1, -1, -46, -8, 5, -25, -11,
   10, 14, -8, -8, -25, -7, 49, -3,
   -6, -2, -51, 22, -31, 38, -24, 43,
   -9, -33, -36, -9, 9, -19, -5, -21,
   13, 18, 5, -30, 52, -56, 35, 83,
   -9, 48, 57, -27, -13, 34, -2, -3,
   -9, -29, 53, -72, -34, -20, 51, 5,
   -37, 59, 25, 10, 67, 44, 3, -2,
   3, 13, 8, 10, 54, -45, -38, 2,
   31, -17, -53, 8, 28, 55, -65, 23,
   -9, 0, -68, -20, -9, -32, -55, 14,
   -47, -7, 1, 23, 30, 28, -17, 9,
   12, 2, -13, 38, 56, 4, -5, 12,
   -12, 51, -62, 2, -4, 25, 21, -4,
   -1, -4, 0, 17, -13, 29, -8, 10,
   -30, -25, -39, -48, -46, -7, -33, 35,
   85, -52, -61, -3, 24, -15, 49, 85,
   -127, -75, -67, -77, -107, -100, -83, -112,
   -24, -41, -95, -6, -59, -36, -14, -64,
   -24, -34, -103, -39, -41, -69, -18, 9,
   -36, -94, 105, 36, 30, -1, 81, -20,
   -25, 6, 8, 23, 25, 42, 83, -3,
   9, 22, -24, 41, -6, 33, 31, 10,
   1, 8, 15, -45, 3, -1, 3, -4,
   1, -29, -29, -8, -2, -4, -34, 7,
   -11, -33, 17, 10, 8, 25, 14, -18,
   -14, -20, -35, -18, -9, -18, -44, -23,
   -21, 31, -78, -68, -42, -6, -126, 21,
   66, 59, 46, 54, -65, -13, 60, 52,
   25, -2, 127, 85, -24, 26, 41, 37,
   -65, 4, 24, 18, 25, 13, -79, -33,
   22, 52, 44, -70, -67, 8, -18, -39,
   125, 18, -127, 6, 17, -30, 15, -12,
   0, 23, 36, 52, 18, -4, 6, 5,
   37, -42, -7, -4, -67, 12, 29, 45,
   -49, -14, -14, -14, 43, -6, 7, -11,
   33, -31, 11, 5, -11, -35, 7, 78,
   60, 126, 127, 26, -19, -58, 9, -7,
   -21, 10, -38, 37, 25, 24, 99, -85,
   21, 64, 5, 17, 35, -35, 5, -10,
   15, -118, 29, 53, -5, 1, -12, -4
};

static const rnn_weight output_noise_gru_weights[4128] = {
   -17, -5, -22, 16, 56, -6, -18, -10,
   -2, 10, -15, -48, 99, 46, -52, 53,
   -17, 9, -20, 13, -33, -12, -10, 9,
   5, 48, 77, 34, -12, 19, 127, -36,
   -48, 61, -118, 0, 37, 34, 1, 41,
   16, 11, 34, -14, 40, 8, 39, -17,
   21, -8, 1, -3, -1, -18, 67, 55,
   83, -1, -42, -30, -74, -52, -16, 83,
   51, 48, 38, 29, 97, -37, 42, 13,
   42, -77, 65, -24, 64, 53, -74, 66,
   15, 65, 18, -127, 44, -4, -38, -62,
   3, -28, 0, -47, 7, -116, -17, -29,
   -82, 61, -29, -30, -32, -6, 14, -37,
   -13, -29, -17, -85, 40, -7, -5, 12,
   2, -14, 16, 0, 72, 6, 7, 6,
   0, -38, -95, -15, -20, -12, 14, 11,
   37, -14, 28, -28, 3, 1, 0, 4,
   23, 20, -45, -18, 127, -128, -21, 126,
   -39, 30, -14, 33, -35, -90, -26, 55,
   0, 79, -46, 127, -85, -21, -8, 24,
   -39, 98, -23, -42, -51, -46, -13, -20,
   34, 11, 27, -1, 6, 23, 10, 43,
   8, -33, 16, 77, 30, -58, -29, 18,
   -23, -6, -36, -5, -20, 42, 13, 6,
   -17, -24, -126, -15, -1, -30, 100, -9,
   15, -5, -20, -3, -2, -28, 57, 36,
   71, -5, -13, -40, 7, -21, 37, 4,
   -44, -40, -20, -48, -8, -11, 0, 0,
   9, 7, 61, 117, 50, -35, -18, -82,
   12, -61, 0, -5, -46, 19, 27, -1,
   -7, -58, 77, -15, 67, 46, 26, -6,
   48, 57, 35, -61, 61, 34, -18, -39,
   -12, -30, -25, 73, -20, 42, 43, -23,
   -7, -8, -28, 127, -66, -3, -36, -37,
   -1, -53, 33, 58, -49, -18, 51, -15,
   -22, -55, 0, 9, 0, -15, -14, 16,
   9, -32, -12, -11, -7, 6, -8, -37,
   -78, 40, 19, -42, -31, 11, -38, -13,
   -5, -14, 10, 29, 14, -2, -7, -27,
   -78, -8, 18, 6, 29, 75, 34, 25,
   -36, -71, -98, -124, 46, 27, -3, -18,
   -41, -5, 16, -17, -6, -41, -13, 55,
   -128, -27, 6, 83, 86, 123, 89, -8,
   -72, 23, -20, 51, -9, -24, 2, 25,
   56, 58, 0, 25, 2, -12, 73, -40,
   -52, 43, 12, -15, -31, 28, 25, 17,
   -21, -15, -36, -21, -9, -9, 53, 20,
   36, -44, -11, 40, -10, -4, -33, 17,
   12, 15, -39, -11, 21, -35, 1, -72,
   42, 42, -3, -19, -18, 10, 6, -38,
   17, 29, 49, -18, 3, 8, -25, -116,
   -80, -64, -88, 56, -12, -66, 41, -9,
   3, -109, -88, -104, 24, -125, -23, -39,
   -39, 48, -8, -14, 64, -42, -40, -7,
   -81, 52, -18, -27, 19, 57, -46, -47,
   16, -34, 85, -27, 74, -72, -36, 56,
   41, -24, -39, 71, -28, 62, 29, 19,
   62, 1, -15, -7, -43, -81, 40, 21,
   -61, -36, 20, -5, -33, 10, 40, 36,
   -37, 20, 20, -15, -18, 10, -14, -26,
   1, 15, 22, -14, -114, -15, 95, 96,
   21, -61, -31, -4, -69, 0, -33, -16,
   22, -35, 39, -12, 0, 45, 68, 27,
   35, -23, 10, 35, 45, 31, 73, 38,
   29, 12, 22, -71, -32, 81, 43, -19,
   39, -13, -58, 2, 31, -14, 14, 9,
   115, -25, -61, 28, -65, -48, -126, -7,
   -29, 1, -26, 19, -20, 21, 31, -5,
   16, 1, 13, -12, 57, 13, 40, 16,
   -55, -5, -19, 19, -36, 21, -32, 31,
   9, 24, 15, 28, 3, 0, -12, -28,
   -21, -18, -12, 18, 35, 12, 34, -65,
   14, -59, 12, 36, 29, 77, 124, 43,
   -99, -125, -78, -15, 84, 58, -28, -33,
   -11, -6, -78, -33, 55, -9, -16, 66,
   -8, -30, 19, -7, 36, -37, 8, -3,
   4, -8, 27, 73, 21, 17, -74, 38,
   20, 11, 47, -34, 26, 8, 24, -40,
   35, -11, 21, -12, 12, -41, -38, -27,
   -32, 14, -7, 2, -9, 37, 19, -4,
   -5, -3, 17, 20, 24, 2, 21, -18,
   33, -11, -7, 12, 9, -33, 9, 107,
   42, -127, -119, -19, -101, -13, 9, 60,
   45, -6, 5, 29, -8, -22, -20, -6,
   66, 49, 27, -6, -52, 3, 10, -57,
   -21, -11, 63, -28, 45, -2, 2, 2,
   -2, 14, 49, 29, 48, 6, -4, -42,
   -29, -24, 34, 12, 24, 4, -26, 28,
   19, -50, 53, -36, -51, 21, -12, -51,
   47, 20, -35, -13, 21, 3, 57, -2,
   -12, 10, 27, -17, -39, 6, -22, 10,
   1, -15, -16, -35, 16, 13, -9, 0,
   8, -15, -20, -19, -8, 0, 36, 47,
   -62, -99, -36, 48, 48, 7, 99, -71,
   65, -1, 44, -58, -127, -10, 34, 99,
   54, -53, -74, 11, -38, 29, -127, 4,
   81, -47, -3, 44, 2, 61, 16, -39,
   30, -34, 11, -28, -11, 106, -13, 40,
   -4, -36, -14, 93, -65, -42, 112, 13,
   42, 7, 49, -38, 26, 16, -7, 28,
   -6, -5, 8, 23, 32, -6, -52, 9,
   -38, 14, -17, 27, -28, -1, 24, 48,
   3, -14, -52, -22, -5, -13, 3, 15,
   20, 36, 17, -28, -71, -123, -70, -68,
   -97, -126, -100, -89, -3, -116, -32, 0,
   83, 88, 102, 85, 78, 20, -93, -24,
   -44, 29, 123, 86, 28, 108, 100, 127,
   126, 87, -31, -22, -48, -25, -4, 35,
   0, -8, 16, -9, -40, 10, -28, 3,
   -26, 32, 23, -80, 86, 16, 5, -34,
   -24, -12, 27, 9, -27, 0, 36, 3,
   16, 55, 61, 1, -37, 14, -33, 14,
   -32, 17, -44, 30, -12, 31, -16, -44,
   -59, -17, 23, -57, 10, 2, 4, -10,
   0, -15, -5, -87, -58, -62, 56, 97,
   126, 50, 122, 29, 3, -42, -48, -77,
   -31, -50, 21, -32, -95, -61, -39, -35,
   74, 36, -35, 44, -50, -111, -31, 54,
   -18, -18, 33, 62, 24, 36, 32, -36,
   20, 41, 2, -4, 9, -7, 50, -16,
   41, 60, -24, 16, 42, -54, -82, 22,
   10, -13, 13, 1, 20, 17, -19, -22,
   -125, -24, 19, 6, 78, 26, 29, 2,
   56, -34, -3, 3, 4, -9, -27, 28,
   -25, 37, -11, -17, -23, -21, -6, 3,
   22, 55, 23, -44, -41, -74, 71, 13,
   104, 42, 67, 113, -16, -87, -17, -128,
   -31, -6, 12, -4, -30, -25, -77, 23,
   -26, 83, 93, -17, 47, -48, 37, 32,
   -28, 4, 22, 5, 63, -4, -74, 38,
   -17, -36, 42, 13, -13, -19, -28, 15,
   7, -4, -87, -22, 35, 51, 8, 27,
   -16, -25, -6, 15, 20, -12, -3, -14,
   3, -19, -9, -16, -51, -21, -45, 7,
   25, 56, 17, -9, 3, 14, -1, 1,
   6, -35, 23, -10, 14, 13, -32, 32,
   13, -64, -65, -72, 58, 39, 111, 41,
   -43, -3, 92, -83, 121, -52, 43, 11,
   87, -55, 33, -8, -27, 21, -36, 40,
   -41, -4, -26, -7, 12, 4, -6, 86,
   20, 18, -18, 99, 2, 26, 5, -30,
   -8, -22, -127, 2, 79, 41, -52, -21,
   108, -108, -8, 10, 24, 8, -20, 20,
   58, -39, -22, 5, 123, 12, 52, -16,
   33, 8, 2, 78, -33, -28, -9, 45,
   -15, 51, -8, 52, 12, -2, 13, -3,
   14, -3, -6, 6, 5, -40, -68, -116,
   -43, -91, -17, 0, -20, -9, 43, 56,
   -61, -41, 13, 34, 39, 100, -40, 4,
   8, -15, 16, -5, -21, 3, -10, 65,
   -10, 62, 26, 14, -6, 29, 33, 26,
   -48, -71, -60, 61, -16, 36, 20, -15,
   -116, 63, -15, 3, -33, 52, 125, 42,
   -40, -11, -51, -32, -11, 5, -2, 1,
   -7, -25, -3, 23, -10, 23, 9, 9,
   -3, 21, -12, -14, 5, 22, -24, 32,
   -8, 22, -6, 5, -7, 3, 3, -4,
   -2, 15, -32, 125, 54, 6, -15, 40,
   41, 126, 85, 5, 27, -75, -126, 5,
   127, -62, -11, 15, -125, -30, 39, -32,
   52, -50, -56, -46, 54, 12, -4, 0,
   18, 2, -11, 54, -39, 16, -79, 10,
   84, -1, 35, 65, -41, -16, 42, -15,
   3, -25, -128, 43, 20, 2, -36, 44,
   24, -31, -16, -8, -1, -18, 31, -4,
   0, 26, -14, -7, 1, 23, -10, 12,
   31, -43, -21, 4, -3, -21, 23, -6,
   -4, 17, 9, 6, 10, -2, 10, 29,
   127, 127, 93, 58, 5, -123, -127, -128,
   -125, -78, -13, -17, 68, 40, -4, -1,
   51, 74, 31, 11, -1, 21, 13, 15,
   6, -19, -17, -25, 27, 59, 93, 21,
   40, 40, 15, -9, -19, -37, -53, 11,
   -30, -22, -31, -52, -124, -41, -7, -63,
   -52, -32, 38, -34, -21, 16, 43, 37,
   -2, 30, -47, 18, -50, 2, 2, -17,
   2, -7, -11, 8, -8, 56, -7, -30,
   2, 4, 4, 1, 39, 8, -26, -40,
   1, 4, -7, 4, -10, -15, -70, 2,
   31, 18, -58, 54, -35, 49, 127, 84,
   112, 15, -17, 35, 92, 58, 19, 68,
   -7, -52, 49, -48, -35, -96, -33, -75,
   -58, 44, 1, -57, 26, 25, -6, 0,
   1, -19, 16, -36, -35, -42, 41, 14,
   9, -31, -2, 0, -40, -11, -15, -4,
   -39, 18, -5, 14, 92, -19, -26, -39,
   -13, -4, 4, -51, -48, 19, 22, 18,
   28, 42, -20, -11, 54, -2, -3, -43,
   7, 11, 7, 22, -19, 14, 0, -4,
   -1, -21, -4, 0, -29, 88, 7, 99,
   39, 123, 48, 108, 31, -4, -39, -11,
   83, 74, -6, 20, -70, -17, 41, 14,
   12, -40, 33, 53, -43, -58, 2, 12,
   41, -38, 15, -8, -2, -22, -26, 16,
   -36, 5, -16, 57, 10, 40, 42, -8,
   28, 15, -28, 5, 48, -46, -76, 53,
   21, 35, 14, 3, -18, -8, 24, -3,
   16, 6, -28, -16, -30, 3, 32, -24,
   62, -17, -14, -32, 22, 12, 21, -29,
   -22, -3, -16, -5, 0, -9, -4, -14,
   -24, -32, -47, 27, 92, 112, 86, 37,
   -60, 12, -92, 28, -8, -16, 2, 15,
   -17, -63, -81, -119, 1, -71, -13, -11,
   -22, 46, 78, -44, -66, 52, -26, -127,
   -128, -37, -4, -15, 8, -4, -26, 41,
   -22, -79, 17, -41, -27, 41, -38, 11,
   12, -41, 1, -10, 85, -7, 19, -73,
   22, 20, 28, -20, 6, 19, 15, 9,
   -42, 5, 27, 29, 2, -29, -41, 30,
   20, 4, -23, 0, 11, 4, 51, 30,
   -10, 2, -21, 44, -45, -1, 28, -35,
   34, -54, -54, -39, -19, -62, 20, 30,
   42, 3, -41, 14, -12, 126, -114, 65,
   -16, -69, -18, 31, 4, 34, -18, -80,
   -22, 30, 126, 62, -58, 53, -32, -15,
   53, -37, 69, -74, 104, 9, -43, 19,
   -80, 38, 35, 0, -103, 22, 98, 20,
   68, -18, 73, 93, 83, -72, 67, -22,
   -22, -2, 13, 39, -9, 26, -33, -26,
   -16, -34, -10, -19, 4, 34, 1, 21,
   -42, 35, 13, -53, -17, -26, -2, 31,
   -21, -22, 21, -17, 41, -20, -10, -2,
   29, -4, 61, -60, -38, 11, -24, 18,
   -17, 19, 11, -9, -37, 111, 18, 24,
   29, -7, 15, -37, -105, 81, -86, -70,
   126, 96, -59, -6, 50, -41, -27, 35,
   10, 13, 6, 26, -8, 31, -26, -20,
   29, -49, -39, 41, 58, 32, -25, 3,
   11, -49, -66, -19, -38, -8, 2, -19,
   47, 0, -8, 24, -46, -13, -10, -11,
   12, 5, 52, -50, 8, -38, 0, 60,
   -29, 1, 3, -33, -30, -30, 9, 32,
   -22, 34, -10, 19, -14, -45, -86, -30,
   -43, -27, -2, -9, 28, 67, 4, 30,
   4, -83, -30, -32, 42, 40, 33, 102,
   62, 20, -11, 47, -104, 127, -123, -11,
   -7, -37, 15, -23, -65, 46, -47, 30,
   -51, -24, 35, 3, -52, 24, -38, -6,
   -42, -17, 14, 2, -30, 10, -3, -26,
   -24, -3, 13, -68, 24, 53, 18, 12,
   57, 14, -52, -2, 29, -24, -49, -42,
   14, -67, -30, 55, -22, 51, -15, 1,
   -20, -14, -1, 28, 19, -23, 27, -7,
   6, -2, -38, -40, -28, 22, 2, 42,
   -30, -11, -42, 42, 22, 5, -29, -50,
   -5, -34, 2, 72, 20, -14, 9, 39,
   40, 15, -17, -22, 39, -88, -38, 72,
   -27, 3, 54, -127, 23, -54, -6, -22,
   6, -2, -67, -11, 38, 58, 23, 42,
   51, 46, 127, -51, -10, 69, 4, -60,
   39, -27, -10, 52, 17, 14, -15, -9,
   -120, 17, 23, 16, 64, -1, 58, -17,
   -41, 12, -25, 3, 6, -51, 18, -12,
   9, -31, -19, -18, -26, -22, -22, -33,
   -90, -102, -126, -40, 2, 75, 127, 127,
   127, 86, 86, -6, -45, 22, -19, -11,
   -47, -70, -33, -51, -44, -3, -30, -37,
   -14, 51, 62, 34, -13, 75, -12, -4,
   -6, -89, 54, -25, -44, -34, 57, 6,
   -42, -5, -1, -37, -31, 34, -84, 31,
   97, 15, -8, 42, 26, 7, -4, 14,
   24, -19, 10, -10, -20, -23, -12, -10,
   24, 43, -5, -14, 60, 18, 2, -12,
   -12, 6, -23, -55, 25, 11, 2, 56,
   5, 29, 19, 37, 22, 14, -33, -77,
   -115, -115, -127, -127, -112, -51, 84, 127,
   127, 115, 95, 126, 100, 104, 46, 48,
   100, 116, 84, 19, 47, -32, -36, -52,
   9, -62, 21, 63, 55, -10, 12, -18,
   -43, 0, 2, 64, -42, 45, 16, 35,
   -44, -18, 45, -10, 74, 38, -40, -9,
   -1, -35, -11, 35, -3, 27, 7, -5,
   13, 26, -16, -8, -38, -23, 11, -21,
   -1, 4, -4, 31, -25, -3, 37, -15,
   28, -49, 6, 2, -7, 6, 0, -12,
   3, -7, -4, -1, -15, 100, 121, 110,
   89, 100, -39, -56, 21, -55, -31, 33,
   -20, -77, -71, -76, -93, 34, -76, -26,
   -13, -29, 0, 32, -4, -23, -20, 82,
   45, 95, 41, -56, -32, 67, -43, -4,
   74, 12, -36, -46, 1, -92, -14, 6,
   70, 15, -80, -19, 24, 29, -107, -26,
   75, -38, -38, -43, 3, -53, 6, 9,
   -7, 28, 50, 64, 16, -6, 20, 48,
   0, 19, 30, 3, 29, 27, 11, -28,
   -4, -12, 2, -30, -1, 22, -2, 7,
   -2, 3, -34, -57, -25, -51, 4, -33,
   -52, 57, 4, 26, 32, 51, 127, 118,
   -83, -6, -24, -96, 78, -29, -90, -9,
   -24, -31, -72, 39, 61, -102, 85, 63,
   64, -33, 120, -110, 4, -64, -38, -23,
   88, -1, -51, 12, 18, -24, -13, -26,
   -27, -43, 0, 6, -35, 17, 118, -25,
   -16, -14, 32, 12, 9, 2, -16, 10,
   -5, -29, -28, 3, -66, 19, 24, -4,
   -68, 45, 19, -26, 15, 18, 8, 12,
   -20, -10, 5, 14, 25, 46, 44, 40,
   100, 74, 63, 31, -63, -125, -85, -118,
   -127, -125, -110, -14, -29, 24, 108, 125,
   122, 120, 26, 0, 93, 29, 78, 65,
   3, 38, 21, 11, 32, 98, -73, 11,
   30, -83, 33, -40, -41, -79, 62, -36,
   -43, 16, 62, -13, -20, 5, -105, -11,
   -4, -32, -37, 51, 31, -37, 17, -12,
   -11, -2, -7, 18, 11, 43, -21, 3,
   -1, 14, 47, -25, -12, -14, -25, 19,
   35, 27, -21, -30, -34, -8, 15, 0,
   -32, -36, -3, 18, 8, 7, 4, 26,
   -30, -12, -36, 20, 24, 22, -51, 34,
   45, -32, 14, 24, 20, 51, 30, -4,
   -16, 49, 39, 35, -11, 28, 29, 40,
   -42, -111, 52, 56, -3, 13, -19, 5,
   3, -9, -46, -29, -5, 12, -20, -14,
   49, 73, -27, 18, -20, 3, -8, 36,
   12, 43, 15, -26, 33, -7, -22, 39,
   12, 26, 0, -4, -15, 21, -42, -31,
   -1, -50, -12, -28, -20, -39, 18, -19,
   -33, 7, -10, -11, -20, -10, 2, 36,
   19, -34, 29, -10, 23, -50, 62, -5,
   22, -33, 0, -45, -28, -67, -19, -34,
   53, 80, 15, 18, 20, 43, 67, -2,
   19, -21, 54, 44, -36, -56, 77, 34,
   -22, -44, -53, -25, 40, -54, -14, -22,
   -33, 28, -75, 18, -21, -45, 25, 17,
   62, -19, -75, 81, 7, 4, -48, 14,
   -16, -39, 41, -31, 7, 9, 32, 18,
   -7, 15, -68, -27, 26, 2, -8, -27,
   68, 19, 16, 9, 28, -11, 37, -43,
   -7, -21, 9, 34, -15, -17, -13, -1,
   20, 18, 127, -6, -89, -18, -6, -16,
   -14, 26, -88, -35, -42, 31, 44, -55,
   -28, -12, -106, 92, 95, 34, 9, -3,
   -63, -8, 41, -3, 17, 23, -27, 33,
   -33, 114, -27, 34, -17, 77, -63, -17,
   16, 25, 4, 8, -32, 39, 0, 28,
   46, 1, -25, 10, 58, 45, -4, 61,
   27, 30, -5, 25, 48, 10, 15, 36,
   2, -15, 4, -4, 19, -31, 26, -8,
   -3, -46, -4, 76, 19, 8, 9, -38,
   -15, -15, 4, 1, 11, 1, -6, -21,
   -76, -20, 86, 36, 27, -30, -90, -80,
   -87, -18, 70, 94, 63, 8, 79, 11,
   80, 43, -6, -33, -16, -1, 50, 85,
   37, 7, -26, -17, 44, -26, -23, 0,
   -20, 20, 0, -14, 5, -23, 40, 17,
   96, 47, -23, -27, -36, -39, 1, 77,
   0, -13, -5, -8, -4, -43, 24, 3,
   -23, 23, -4, -24, -19, -13, -6, -67,
   33, 13, -2, -13, 3, 23, -37, 30,
   -19, -65, 9, 36, 7, -2, 23, -46,
   -27, -24, -23, -5, 0, 20, 26, 19,
   -5, 90, 67, 32, 17, 20, -21, 51,
   17, -22, 17, -24, -59, -33, 15, -35,
   -61, -20, 22, 61, 22, 75, 24, -55,
   -14, 18, -78, 6, -58, -30, -17, 1,
   -17, 2, -116, 14, -10, -66, -47, 12,
   -28, 17, -62, 14, 21, -5, 24, 10,
   80, 30, 43, -37, 24, -11, 4, -40,
   -37, -42, -16, -33, -124, -58, 18, -28,
   75, 54, 16, -8, 35, 1, 27, -23,
   -54, -20, 35, -15, 4, 5, -17, 17,
   -6, 18, 17, 19, 122, -19, 52, 44,
   -47, 1, 90, 81, 86, 6, 40, 62,
   -128, -127, -40, 24, 48, 43, -36, 70,
   2, 8, -10, 26, 23, -51, -12, 0,
   41, -51, 16, -21, -33, -70, 0, -25,
   -33, 3, -14, 27, 67, 46, -11, 30,
   2, -89, -26, 35, 93, -46, -62, 88,
   34, -3, 24, -39, -18, -3, -14, 36,
   -19, -33, 30, -18, -7, 21, -9, 14,
   -63, 33, -15, 44, 53, 32, -4, -14,
   28, 12, 7, -46, 14, 6, 8, -18,
   -25, 5, -98, -41, 70, 98, 124, 127,
   123, 121, 45, 13, -35, 65, 27, 50,
   19, -52, -88, -92, -35, 32, 31, -29,
   -59, -52, -40, -121, -102, -75, -21, 104,
   -128, -10, 11, 5, -47, 17, -62, -60,
   67, -18, -16, -7, -20, -17, 27, 66,
   -27, 69, 122, -11, -34, -8, 95, -6,
   8, -34, -12, -27, 11, -12, 15, -4,
   -29, 30, -36, -22, 10, -21, 15, 5,
   -26, 25, 11, -5, 6, 41, 12, -28,
   -13, 29, -1, -3, -4, -7, -9, -11,
   -33, 6, 61, 0, -36, -28, -43, 49,
   -7, -23, 0, 19, -119, -105, 3, -5,
   47, 3, -108, -71, -24, 32, 14, -3,
   103, 127, 127, 127, 127, 97, -13, 18,
   12, 15, -34, 40, -47, -47, 48, -25,
   -5, 75, -56, -39, -53, -43, 48, -13,
   -40, 49, 29, -70, -47, 105, 15, 29,
   -4, -41, 9, -18, 9, 6, 26, 19,
   1, -4, -20, -2, -4, 21, 38, -15,
   5, -31, -15, 21, -7, -9, -55, -29,
   -1, -23, 8, -6, 12, 25, 63, 69,
   -21, -33, -65, -44, -65, -15, -34, -19,
   -20, 47, -127, -127, 72, 48, 76, 61,
   -127, 9, 30, -11, 49, 35, 28, 57,
   12, -26, -28, -54, 22, -71, 29, -1,
   25, -7, 58, 39, 37, 0, 33, 1,
   13, 68, 48, -37, 41, -20, -27, 0,
   -9, 4, -40, -8, 26, -38, 33, -31,
   23, -12, -34, -8, -49, -2, 1, 11,
   41, 7, -8, 36, 0, -28, 8, -33,
   2, 16, 7, -17, -4, -9, -12, 22,
   35, 14, -67, -51, 103, 51, -2, -73,
   -31, 66, -1, -56, -63, 37, 35, -14,
   13, -21, -28, -41, -13, 20, 44, -86,
   -2, -20, -93, -56, -18, -48, -41, -42,
   -21, -46, 41, -99, -101, -56, -22, 48,
   24, -52, 97, 15, -28, -1, 16, -18,
   8, 23, -6, -5, 23, 44, -14, -20,
   -44, 16, 1, 40, -15, -4, -15, 54,
   19, 7, 4, -39, -12, 12, -3, -9,
   39, -15, 9, 123, 10, 49, 4, -57,
   -10, 16, -22, -47, 7, 9, 16, 12,
   5, 14, -11, 16, -32, -49, -71, -78,
   -60, -29, 40, 45, -32, 57, -33, -61,
   -40, -4, -34, -10, -53, -61, -126, -126,
   -67, -22, 69, 120, 110, -15, -76, -50,
   127, 6, 19, -44, -11, 6, 12, 27,
   -63, -46, 52, -38, -81, -62, -6, -44,
   -50, -49, -73, 62, -25, -21, 5, 2,
   -12, 7, 29, -4, -6, -27, 4, 8,
   -1, 50, -17, -11, -9, -35, -18, 23,
   -20, 1, 19, 28, 4, -5, 32, 25,
   3, -37, 5, 10, 36, 25, 27, -8,
   -98, -9, 39, 102, 21, -66, 12, 12,
   49, 5, 13, 32, 112, 101, -126, -126,
   40, 127, 20, 5, 28, -39, 32, 23,
   -33, 47, 37, -53, -124, 52, -8, 13,
   -15, 96, -17, 86, 41, -57, -44, -33,
   59, 59, -41, -6, 48, -66, 5, -101,
   -105, 38, -4, -18, -69, 16, -47, -36,
   15, -24, 10, -31, 13, 0, 51, -33,
   22, -57, 57, 1, -33, -35, 26, -17,
   4, -16, 11, 70, 4, -20, -39, -29,
   9, 0, 2, 12, 12, 17, -14, -9,
   55, -29, 19, -5, -50, -74, -90, -44,
   -3, -39, -18, -40, 125, 89, 127, 38,
   -109, -17, 21, 45, 83, 70, -66, -75,
   -90, -43, -53, -12, 61, 63, -98, -126,
   -78, 84, -93, -63, 124, 37, -42, -65,
   56, -5, 126, 13, -68, 50, 18, 25,
   -20, 89, 73, 50, 17, 58, 0, 13,
   -23, -11, 26, -17, -23, 6, 11, -2,
   12, -37, -38, -20, 39, 14, -22, 5,
   -20, -28, 4, -2, 6, -30, -3, 2,
   -4, 2, -4, 2, -37, -2, 25, -29,
   13, -64, -29, -84, 63, 31, 14, 30,
   -1, -41, -32, -39, -1, 38, 22, -10,
   -38, 7, 13, 27, 127, 127, 127, -116,
   -128, -128, -101, -1, -3, -67, 42, -25,
   9, -66, 39, 58, 6, 26, 12, 67,
   -13, 26, -57, -23, 12, 13, 18, 36,
   27, -95, -17, -59, 0, 13, 39, -28,
   -5, -10, -21, -36, -13, -23, 53, -52,
   5, -8, -23, -18, -7, -22, 33, 47,
   21, -10, 28, 2, -12, 2, -25, 45,
   20, -4, -111, 41, 20, 53, 3, 17,
   30, 32, -58, -56, -41, 90, 34, 50,
   -55, -7, 45, -128, -21, 30, 51, 54,
   6, -45, -48, 33, 48, -54, -57, 46,
   -27, -8, -18, -31, 3, -8, -69, 24,
   4, 30, -18, -20, 23, 19, 35, 5,
   34, 85, -53, -1, -33, -16, 30, -20,
   -7, 44, -1, 28, -5, 5, -48, -15,
   15, 10, 15, 23, 5, 44, -20, 30,
   28, 7, 2, -44, 2, -24, -12, 12,
   -6, -17, 5, 13, -22, -14, -14, 11,
   68, 85, -2, -127, -67, -24, 24, -69,
   76, -5, -95, 20, -38, 22, -32, 45,
   -23, 18, -1, 13, -30, 52, 36, -18,
   127, -36, -128, 118, 13, -108, -127, 7,
   -45, -1, -25, 3, -66, -39, 34, -10,
   -26, 69, 3, -28, -26, 36, 46, -56,
   29, 17, 125, -61, -20, 9, 37, -30,
   -16, 27, -14, -6, -13, 6, -36, 34,
   14, 2, 2, 8, 16, 29, 32, -26,
   9, -9, 22, 10, 12, -14, 24, 25,
   -3, 1, 1, 14, 32, 8, -8, -21,
   -25, 4, -105, 3, 77, 83, 10, 10,
   43, -111, -127, 127, 51, -85, 53, 7,
   -43, 53, 28, -28, -20, 13, 35, 1,
   2, -34, -4, 9, 18, -111, 2, -64,
   -18, 32, 9, 1, 77, 5, -11, -5,
   11, 16, -19, -18, 42, -11, -1, -12,
   -30, 15, 42, -14, -11, -23, 14, 13,
   -8, -16, 4, 3, -3, 7, 12, -15,
   36, 32, -19, 7, 59, -50, 21, -46,
   0, 11, 17, 32, 19, -27, 1, -16,
   12, -9, -14, -11, -114, -61, -17, -55,
   -33, -26, -82, -124, -128, 28, 56, 121,
   -53, -72, 11, -54, 0, -40, -73, -7,
   -11, -28, 16, -13, 60, 12, 24, -39,
   -3, -38, -21, -6, 34, 35, 30, 11,
   -36, -14, -53, 38, -39, -64, 51, 55,
   -66, -7, 17, 79, -19, -48, -39, 24,
   21, -32, 27, -55, -11, -12, -10, -14,
   -11, 17, -25, 42, -60, -16, -7, 27,
   -9, -18, 8, 8, -2, 0, 2, -27,
   -2, -3, 40, -36, -4, -17, -40, -32,
   -8, 26, 15, 1, 87, 81, -27, 84,
   70, 37, -74, -7, -13, -19, -104, -80,
   -13, 32, 41, 41, -110, -41, 38, 44,
   -2, 16, -68, 17, 97, 16, -18, -24,
   17, -9, -62, -127, -34, 76, -67, -28,
   31, 32, -31, -51, 57, -23, 98, -8,
   -25, 20, 93, 58, -4, 47, -54, 11,
   35, -3, 10, 24, -35, 0, -7, -2,
   0, -10, -10, -33, 30, -14, 4, -67,
   -39, -37, -2, -9, -5, -26, 2, 28,
   18, -53, -6, 1, 14, 13, 15, -25,
   -78, -85, -28, -57, 127, 103, -45, -30,
   46, -33, -5, 6, 24, 26, 61, 25,
   -4, -55, 35, -1, -15, 6, -17, -70,
   127, -127, -128, 104, -30, 8, 90, -2
};

static const rnn_weight update_noise_gru_recurrent_weights[2304] = {
   -35, -3, 108, -10, -19, -24, -27, 30,
   85, -2, -7, -85, 29, 46, 25, -4,
   -81, 2, 39, 6, -4, -56, 32, 15,
   -4, 104, 13, 48, 37, 1, -45, -45,
   -62, 112, 46, -83, -6, 16, 73, 1,
   -1, 8, 3, -65, -8, 37, -3, -22,
   -44, 89, 12, 45, 28, -22, -10, -29,
   13, -23, 4, 1, -101, 58, 38, -37,
   -76, -8, -9, 20, -37, -36, -71, 0,
   -72, -75, -23, 36, -18, -25, -52, 0,
   34, 44, 22, -63, -67, 24, -70, 34,
   24, -16, -13, -5, -15, -14, -6, 26,
   52, -39, -56, -35, 38, -57, -24, -1,
   17, 56, 125, -16, 63, 92, 68, 30,
   80, 8, 82, 31, -33, 64, 64, -16,
   14, 5, -37, 46, -56, 48, -3, 84,
   31, 88, 5, -8, 125, -41, 3, -79,
   6, -9, 5, 34, 106, 36, 42, 7,
   -48, 41, 16, -43, -6, 0, -10, -1,
   34, -12, -25, 29, 56, -57, -1, -5,
   16, 31, 70, -7, -12, 50, 9, -73,
   17, 28, -32, 5, -18, 48, -7, 61,
   -53, 71, 116, 4, -51, -12, 22, -15,
   12, -69, 9, 40, 16, 4, -8, -76,
   -36, 53, 127, 72, 21, 126, 123, 45,
   20, -25, 86, 93, -20, -78, -20, -6,
   -8, 61, -58, 29, -121, 40, 56, 14,
   0, 68, 42, -5, -121, 5, 124, 126,
   107, -121, -50, -13, -59, 121, 69, 125,
   20, -38, 86, 74, 79, -5, 33, 50,
   -68, -40, 105, -37, 117, 127, 94, 34,
   17, -67, 30, 86, -22, -27, 36, -34,
   76, 42, 12, 69, -41, 57, 75, 127,
   -33, 117, 58, -17, -105, -13, 76, 31,
   52, 5, 18, 22, 43, 66, 22, 124,
   89, 23, 25, 60, -61, 53, 7, 123,
   -51, 4, -22, 1, 16, 12, -30, 37,
   -19, -28, -55, 66, 92, -30, -31, 7,
   -25, 17, -32, 53, -16, -8, -17, 37,
   70, -49, -22, -41, 20, 45, 1, -6,
   18, -35, 8, -72, -83, 5, 29, 9,
   34, -5, -2, -47, -47, 0, -34, -80,
   -24, 30, 69, 25, -14, 125, 8, 87,
   29, -66, 50, -3, -56, -12, -13, -47,
   73, 36, 5, 28, -41, 43, 13, 73,
   -24, 48, 1, 10, -2, -44, 104, 44,
   77, 66, 54, 63, 35, 90, 21, 33,
   40, -5, -10, 109, -9, 71, 55, -22,
   -25, -7, 61, -34, -18, 63, 16, -16,
   -12, -82, -17, -37, -56, 40, -52, -43,
   -80, 62, 65, -26, 15, 9, -9, 13,
   -15, 6, -76, -24, -33, -126, -14, 10,
   -33, -72, 26, 15, 54, 79, 39, -40,
   19, -64, -34, 12, -25, -11, -10, -29,
   -47, 67, 25, 85, 20, 42, -42, 10,
   12, -127, 53, 31, -28, -4, -54, 94,
   94, -5, 101, -2, -25, 3, 2, 61,
   -10, -40, -11, -38, 45, 106, 20, -50,
   -26, -64, -34, -23, -50, -2, 63, 95,
   33, 80, 50, -27, -16, 33, 26, 65,
   -5, 40, 124, -36, -2, 56, 27, 73,
   19, -5, -9, -29, 51, -39, 64, 4,
   15, -48, 10, 34, -22, -13, 22, 8,
   -12, 46, -10, 60, 80, -26, -27, -2,
   -22, 60, -1, -63, 27, 11, -71, 25,
   79, -37, 40, -5, -25, 31, 14, -13,
   2, 49, 87, -5, 123, 21, -22, -10,
   -7, 3, 15, 8, 52, -21, 45, 4,
   -91, -84, 28, -29, -13, -50, 58, 10,
   -79, -21, -1, -41, -25, -38, -16, 19,
   68, -48, -30, -79, 43, 44, -10, 49,
   -44, 35, 26, -17, 50, 36, 16, 34,
   40, 123, 55, -74, -3, -34, -2, -19,
   27, -54, -9, -12, -14, -19, 8, 11,
   5, -50, 30, 9, -35, -6, 40, -12,
   -5, -17, -3, -14, 10, -41, 41, -56,
   -56, 0, 34, -3, -29, -48, -18, 27,
   28, -36, 60, -11, 17, -6, -25, -51,
   76, 21, -18, -1, 27, -30, -13, -31,
   -1, -23, 58, -85, 58, 14, -17, 34,
   -11, -29, 13, -42, -18, 3, 87, 6,
   -4, 37, -49, -12, -20, 27, 44, 36,
   -63, 18, -94, -46, 52, -9, 64, -7,
   26, -13, 27, 84, 41, -22, 1, -20,
   -38, 8, 20, 12, -7, 6, -45, 42,
   -1, -26, 15, -22, -61, -25, -41, 14,
   14, 61, 57, 29, 12, -9, -28, -43,
   -29, -72, -19, -6, -2, 28, 83, 39,
   27, -13, 13, 43, -9, 8, -10, 32,
   -77, -6, 18, 48, 50, 34, 60, 26,
   -24, -7, 99, -4, -4, -15, 12, -68,
   -34, -15, -6, 6, -73, -28, 52, -22,
   34, -6, 12, -43, 7, 38, -26, -39,
   -6, -40, 2, -10, 4, -45, 4, 37,
   -6, 33, 29, -33, -21, -43, -20, 60,
   25, 3, -15, -62, -69, -3, -34, 78,
   66, 79, 93, -60, 59, 28, -11, 57,
   -23, -21, 55, -60, -30, 4, 57, -34,
   10, -6, -127, -32, -19, 7, 55, 52,
   -6, 62, -11, 36, -41, 30, 98, 21,
   23, 114, -10, 124, 126, 91, -26, 53,
   48, 121, 69, 24, -3, 124, 30, 114,
   -16, -23, -1, 34, 5, 36, -97, -15,
   3, -76, -35, 83, 23, 2, -63, -16,
   -18, -29, -61, -16, -43, -14, 28, -4,
   -56, -25, -46, 37, -47, -12, -25, -16,
   74, -10, 43, 28, -44, 22, 49, -41,
   -61, 13, 18, -4, 42, -7, 42, -50,
   31, 4, 23, 83, 33, -28, -81, -22,
   19, -46, -42, 82, 20, 58, -39, 30,
   21, 50, -27, 12, 20, -6, 39, 32,
   35, 58, 4, 31, -28, 55, 3, 9,
   27, 20, -54, -25, 49, 57, -43, 45,
   97, 23, -17, -11, 20, 16, 50, -71,
   28, 24, 2, 61, -3, 101, 16, -6,
   2, -73, -7, 84, 22, -16, 23, -18,
   -13, -25, -2, -53, -11, -77, 126, 40,
   -20, -28, -19, -20, -26, -127, 88, 64,
   117, 95, 45, 18, 9, -1, 24, 6,
   59, 23, -57, 42, -36, 1, -10, -15,
   53, 6, 83, 19, -57, 49, 32, 102,
   -18, -99, 100, -81, -8, -8, -19, -10,
   94, 11, -36, 16, -38, 87, 72, 75,
   11, 26, -21, -7, 127, 36, 55, 56,
   17, -75, 3, 37, -3, 13, -18, 74,
   -19, 50, 63, 51, -36, 63, 16, 12,
   50, -6, 3, 97, 3, 68, 72, -22,
   19, -6, 126, -69, -112, -52, 117, -3,
   57, -47, 39, 127, -59, 101, 106, 23,
   -11, 73, 23, -22, -22, 47, 92, 125,
   127, 86, -32, 8, 35, 61, -5, -8,
   57, -66, 109, 6, 40, -27, 20, -23,
   81, -24, 41, 73, 7, 66, 46, 32,
   39, -3, 13, -15, -87, -53, 127, 41,
   49, -72, 20, 36, -18, 127, 127, 64,
   1, 87, -33, 32, -30, 15, 65, 125,
   125, 27, 30, 27, 17, 125, 61, -49,
   127, -97, -25, -2, -10, 63, -66, -36,
   -13, -1, 33, 36, 17, 23, -6, 5,
   10, -25, -68, -58, -37, -32, 10, -19,
   -56, -5, -18, -20, 42, -77, -31, 19,
   38, -11, -2, 54, -38, -2, -64, -87,
   40, 13, 56, -25, 98, 2, -44, 22,
   2, -1, -1, 2, -11, -40, -79, 63,
   -32, 9, 97, 55, -74, 56, 9, 2,
   12, -80, -125, 45, -20, 26, -33, -26,
   -98, -64, -35, 11, -55, -47, -62, 5,
   3, 71, -4, -11, 56, 35, -127, 21,
   -59, 18, -25, -67, 28, 42, 37, -22,
   -32, -104, 44, -43, -32, -11, -99, -76,
   17, 4, -9, -5, -15, -57, 23, -26,
   37, -57, 110, -29, 18, -8, -100, -77,
   2, -126, -32, -29, -10, 30, 19, 30,
   -12, -89, -46, -52, -6, -27, 1, 45,
   -39, 20, -56, 56, 10, -5, -20, 25,
   -61, -35, -68, -24, 75, 43, 38, -18,
   6, -21, 78, 80, 69, 46, -2, 41,
   -49, -2, -16, 10, -37, -31, -61, -45,
   75, -38, -57, -49, 14, -70, -7, -28,
   3, -19, -16, 36, 13, 20, 78, -124,
   0, 14, 70, 35, -2, 5, -13, 30,
   49, -1, -46, -17, -56, 3, 47, -20,
   -31, 14, -13, -28, 4, -21, -13, 15,
   48, 24, 8, -18, 8, 18, -35, -40,
   16, 59, -40, 10, -57, 32, 19, -2,
   35, -52, 22, -36, 38, 27, -56, 22,
   -119, 44, -34, -35, 56, 43, 29, -33,
   -24, -2, -66, -15, 34, 63, -75, -4,
   -44, -2, 76, 43, -127, 127, 33, 74,
   -30, -15, 24, 80, -17, -21, 31, -76,
   60, 26, -54, 46, -125, 42, 22, 35,
   28, 69, -7, -54, 107, -3, 127, 113,
   88, -8, 15, 26, 20, 116, 52, 84,
   47, 26, 67, 34, -9, 54, 54, -53,
   66, -75, 44, 52, -5, 93, 26, 23,
   38, -47, 4, 17, -34, -49, 32, 21,
   37, -8, 20, 37, -35, 126, 54, 91,
   -27, -34, -51, 11, -54, 7, 98, 126,
   127, -64, 11, 5, 58, -1, 99, -36,
   77, -47, -11, 24, 82, -3, 39, -8,
   -33, -50, 61, 15, 61, 116, -9, 9,
   -16, 31, -10, 95, -23, 15, 69, -46,
   33, -18, 25, 37, 10, 7, 19, 61,
   -3, 37, 26, 9, -95, -29, 68, -27,
   93, -31, 72, 12, -10, 59, 21, 28,
   24, 80, 5, -23, 19, 34, 20, 63,
   34, -58, 34, -42, 57, -17, 42, 55,
   65, -24, -24, 26, -29, 33, 96, -11,
   124, -13, 35, -3, -12, 30, 62, 120,
   -37, 126, -26, 88, -71, 47, 57, 42,
   4, 66, 49, 34, 76, 111, -14, 67,
   74, -39, -21, 66, 101, 29, 77, 39,
   48, -60, 40, 45, 76, 58, 83, -10,
   26, 30, 101, -35, 36, 60, 88, 1,
   34, -63, 80, -6, -51, 127, 116, 108,
   38, 66, -127, 36, -36, 67, 59, 49,
   124, -15, -9, 19, -24, 30, 105, 28,
   123, -122, -8, -18, 16, 24, -31, -61,
   16, 8, -10, 15, -126, 78, 70, 17,
   28, -78, 23, -18, 49, 6, 18, -8,
   46, -80, 24, 62, -53, -1, -64, -56,
   -1, 23, -21, 37, 76, 33, 105, 51,
   87, -5, 39, -32, 28, 22, -5, 18,
   43, 27, 57, 26, -38, 60, 8, 58,
   3, 59, -50, 27, 10, 3, -35, -39,
   8, -76, -12, 32, 58, 7, -24, 77,
   -21, -35, -111, -24, -24, -7, 28, -32,
   19, 62, 1, 21, -37, -14, -8, 32,
   2, 11, -41, 5, 100, 3, -36, -34,
   13, -17, -7, -32, 7, 7, 61, -53,
   -23, 19, 14, 62, 43, -28, -20, 57,
   19, -16, -10, 68, 45, -20, -24, -10,
   47, -40, 57, 13, -19, 66, -16, 63,
   23, 33, -78, 127, -65, 21, -39, -24,
   -22, 4, -15, -62, 22, 21, -66, -29,
   -32, 29, -17, 28, -31, -26, 81, 54,
   -1, -24, -5, 9, -31, -55, -42, -7,
   67, -3, 49, -4, -49, -73, 11, -24,
   -21, -52, -57, 0, 7, -33, 23, 2,
   -39, -19, -127, -15, 4, -41, 36, 4,
   12, -84, 66, -36, 10, -70, 36, 17,
   31, 47, -26, -16, -59, 3, 42, 94,
   59, -17, 87, 34, 15, 54, 44, 85,
   -39, -24, 4, 33, -27, -7, 38, -15,
   117, -5, -38, -12, 2, 117, 22, 64,
   61, 24, 0, 4, -12, -20, 36, 99,
   78, 23, 91, 85, 104, -4, 52, 77,
   71, -51, -6, 7, 42, 4, -40, -18,
   42, 12, 20, -38, 5, 9, 35, -17,
   -16, -5, 59, -33, 53, 44, 90, 71,
   38, 10, -51, -23, 6, 74, 65, 26,
   -20, 110, -42, 121, -7, 27, 55, 55,
   27, 18, -16, -9, 42, 17, -83, 12,
   11, -9, -27, 17, -19, -45, 87, -33,
   -32, 44, -14, -39, -53, 84, 26, -24,
   -14, 27, 2, 23, 0, 0, -18, 15,
   64, 97, 17, -45, 17, 45, 29, -24,
   -3, 33, -3, 53, 54, 5, 20, 81,
   -5, -48, 45, 40, 61, 13, -43, 40,
   -17, 43, 6, 17, 4, -5, -46, -5,
   9, 44, 35, -34, -23, 64, -16, 54,
   -47, 23, 35, 9, -12, 32, 5, -25,
   -119, -20, 122, 16, -55, 10, 106, 95,
   -27, 111, -31, 54, 13, -11, -45, 3,
   -7, 96, 38, -55, 37, 22, 26, 87,
   -92, -43, 40, -18, 15, 1, -48, 7,
   36, 1, -38, -128, -11, -17, -50, -42,
   -18, 11, -5, -85, -18, -45, 14, -37,
   -26, -26, 17, -15, -54, -2, 19, -15,
   -102, 65, 7, -14, -39, 48, -4, 73,
   -16, -24, -20, -31, 70, 15, 87, -80,
   -47, -95, -34, -52, -52, 0, 37, -82,
   87, -4, 35, 39, 126, 12, 34, -85,
   -2, 76, 46, -10, -11, -10, -17, -56,
   -52, -48, 12, -12, -14, -42, 110, 54,
   -9, -101, -7, 35, -26, -75, 11, -47,
   17, -3, -60, -6, 29, 24, 48, 90,
   108, -30, -33, 28, 0, 10, 15, -50,
   54, 26, -9, -63, -14, 20, -27, 19,
   -35, 9, 23, -23, -9, -51, 3, 29,
   0, 72, 4, -54, 16, -8, 4, -14,
   -51, 22, -36, 6, 15, 38, -25, 6,
   4, -12, 12, 40, 40, -7, 37, -23,
   -13, -15, 58, 27, -2, -21, 44, 24,
   37, 9, 44, -66, 57, 34, 38, -16,
   105, -22, -17, -69, 102, -54, 37, -63,
   -35, 0, 22, 0, 12, -31, -57, -14,
   -27, -39, 3, 36, -43, 7, -4, -38,
   16, -38, -5, -20, -24, 54, -37, 27,
   -5, 17, -14, 70, -58, -32, -54, -58,
   -27, -47, 11, -47, -4, -4, 90, -8,
   -21, 15, 23, -30, 16, -41, 47, 14,
   53, -78, 14, 31, 56, 62, -125, -63,
   -32, 59, -2, 52, 48, 33, 14, -43,
   -38, -77, 5, -1, -14, 11, -18, -21,
   45, 46, 5, -18, 8, -37, 60, -57,
   -52, 6, -20, 40, 72, 29, -43, -1,
   57, -44, -54, 103, 38, -11, 16, -4,
   -44, 18, -40, -26, 6, 7, -54, 24,
   12, 15, -37, 1, 24, 35, 32, 39,
   41, 93, -62, -65, -65, 37, -9, 57,
   -32, 126, 39, -27, 9, -10, -56, -8,
   -50, -5, -13, 41, -22, 23, -71, 14,
   21, -48, -23, -43, 4, -36, 68, 24,
   -49, -64, 2, 13, -16, -35, -17, 24,
   46, 2, -36, 26, 0, 2, 38, -37,
   39, 56, 85, -35, 81, -23, 27, -50,
   -29, 13, 35, 8, -72, 13, 66, 20
};

static const rnn_weight reset_noise_gru_recurrent_weights[2304] = {
   -41, -18, -74, 25, -64, 3, 3, 27,
   34, -6, 23, -78, 23, 127, 13, -29,
   -64, 14, 5, 17, 40, -2, -72, 1,
   -25, 5, 42, -38, 55, 21, -6, 1,
   122, -8, 27, 26, -2, -4, 24, -14,
   -19, -68, -12, -116, 34, -25, 62, -24,
   -31, 12, 68, 0, -15, 6, -80, 15,
   3, -5, -21, -41, 16, 9, -5, 32,
   17, 16, -50, -11, 64, -1, -31, 16,
   59, 63, 30, 4, 20, -13, -22, -39,
   -89, -1, -7, -8, 59, 26, -33, -54,
   21, -30, 56, -8, -32, -46, 25, -50,
   31, -3, -11, -11, 7, 31, 1, -72,
   -5, -44, 20, 50, -39, -14, 44, 7,
   -19, -11, 7, -20, -13, -69, -1, 22,
   -78, -10, 91, -65, -47, -62, -20, -4,
   54, -77, -20, -28, 30, -8, -22, 56,
   17, 47, -21, 7, -1, 20, -82, -21,
   15, -57, -12, -93, -4, 83, -34, 23,
   -29, -96, -36, 11, -25, 58, 10, -37,
   -63, 50, 2, -5, -3, -17, -38, -54,
   6, -44, 14, -19, 20, -20, -25, -43,
   95, -48, 23, -123, 7, -46, 43, -38,
   -36, 21, 24, -62, -14, -73, -7, 40,
   -22, 23, -18, -23, 112, -64, -6, -24,
   -25, 5, 79, 36, 19, 6, 110, -2,
   -28, -27, -19, 1, 41, 40, 44, -35,
   31, 9, 41, -8, 0, 3, -5, 0,
   -78, -15, 43, 66, -2, -63, 55, -42,
   10, -7, 90, 19, 1, 30, 1, 46,
   -73, 0, -3, 10, 18, -10, -48, -60,
   -51, -29, 26, -38, 27, 31, -45, -107,
   -59, -89, -9, -128, -42, -76, 71, 3,
   2, -30, 58, 71, -34, -94, 4, -69,
   -43, -99, 6, -61, 3, -53, -9, 52,
   -20, -13, 3, -21, 10, -14, -25, 50,
   91, -43, -42, 38, 19, 4, -34, 52,
   -6, -28, 33, -41, 10, -4, -54, -9,
   7, 22, -19, 47, -1, -38, 11, 77,
   3, -14, 57, -1, -29, 26, -16, -78,
   19, -82, -17, 19, 35, -38, -5, -60,
   24, -37, -51, -7, -53, -26, 49, -67,
   -21, 17, -32, 12, -86, -36, 36, -46,
   -6, 52, 25, -1, -1, -37, -35, -1,
   42, -84, 43, 9, 60, -5, -55, -30,
   51, -39, 1, 94, 8, -40, 50, -34,
   -32, -59, -15, -8, 8, 2, 12, -4,
   -6, -70, 27, 38, -52, -43, -35, -111,
   17, 73, 13, -93, -32, 31, -60, -11,
   -32, 82, -67, 38, 73, -7, -109, 0,
   -1, 32, 6, 65, 16, -19, -33, 28,
   -87, 47, -5, 3, -17, -51, 62, -10,
   93, -46, 0, 2, 66, 9, 1, -7,
   10, -1, 12, -20, -36, -21, -1, -74,
   -9, -46, 4, 27, -1, 42, 3, -12,
   31, 0, 8, -20, -20, -49, -2, -63,
   -25, -40, -28, -7, 53, 10, 6, 43,
   32, -28, -24, 9, 94, 43, -1, 70,
   -21, -6, 25, 56, -24, 8, 14, -14,
   -7, 2, -14, 1, -4, 42, -19, 15,
   -13, -8, -35, -61, -16, -25, -98, -9,
   3, -26, -2, -58, -14, -26, -69, -127,
   -39, -23, -4, -41, -26, 60, -3, 39,
   -7, -41, -42, -41, 8, -25, -6, -50,
   -93, -28, 13, -18, 4, -64, 64, -15,
   -55, -36, -27, 20, -16, 24, -93, 5,
   -86, 25, 32, -31, 16, 53, -13, -23,
   -29, 0, -11, -20, 12, -48, -102, -92,
   -127, -8, -66, -12, -83, -10, -53, -27,
   -60, 34, -35, -6, -17, 32, 0, 31,
   30, -7, 127, -44, 23, 77, 50, 10,
   -111, -19, 15, -52, 22, -23, -57, -68,
   -88, 108, 55, 5, -34, -23, -22, 60,
   -4, 29, 66, -10, 14, -4, 51, 8,
   59, -17, -6, 67, 9, 12, -104, -24,
   61, 58, -10, 10, 39, -82, 26, 29,
   106, 16, -55, -10, -3, 54, -9, -67,
   -49, 0, 29, -72, -9, 73, -9, -54,
   35, -30, -11, -21, -52, -4, -37, 18,
   -86, 1, 6, -46, -11, -127, 15, 24,
   -52, -32, 33, -43, -24, 29, 2, -4,
   -49, 93, 27, -15, 3, 66, 24, 22,
   -126, -44, 63, 1, 10, 41, 96, -19,
   16, -1, 19, 76, 30, 87, 29, -2,
   -13, 100, -29, -3, 83, -21, -50, 5,
   9, -4, 4, -1, -4, 32, 40, -12,
   5, 1, -1, 42, -2, -24, 56, -16,
   -19, 6, 6, 24, -6, -11, 24, -9,
   -8, -38, -2, -31, -14, -34, 55, 18,
   -26, 13, -12, -62, 23, -29, 39, -35,
   11, 20, -32, 8, 24, 36, 0, -3,
   5, -44, -13, -40, -18, -11, 62, -5,
   -15, -83, 51, -24, -46, 29, 73, -47,
   35, 19, -20, 11, -127, 15, -24, -7,
   14, -1, 30, -59, 55, -42, 35, -27,
   -12, 42, -75, 21, -31, 20, 44, -75,
   -10, 53, 30, -23, -44, 79, -15, 7,
   20, -112, 32, 20, -10, 24, 7, -9,
   -127, 18, -16, 6, 88, 10, -47, 58,
   49, 20, 25, -46, 94, -68, 46, 83,
   46, 24, 2, -10, -94, -44, 9, 41,
   -24, -53, -13, -36, 44, -2, 27, -45,
   38, 22, 47, 17, 48, 17, 41, -14,
   -9, 9, -6, 22, -9, 31, -11, 63,
   16, 21, 36, -42, -6, 64, 122, -39,
   -8, 30, 5, 5, 56, -10, -24, 91,
   -23, 82, 43, -23, 45, 4, 5, 45,
   41, 16, 17, -7, 21, 39, -2, 54,
   -10, 15, 3, 16, 0, -19, -25, -18,
   -21, -39, -8, -51, 16, -49, 82, -50,
   30, -10, 21, 3, 17, -37, -14, 21,
   -22, 48, -38, 107, 21, -7, 7, -3,
   8, 20, 31, 45, 4, -27, -24, -46,
   14, 36, -27, 52, -10, -25, 6, -28,
   -73, 26, -20, -30, -15, -29, -1, 27,
   12, 25, -9, -24, -18, 6, -48, -15,
   -15, -17, 7, -1, -71, -54, -121, 5,
   30, 11, 48, 45, 19, 38, -34, -50,
   -70, -77, 7, 3, -5, 64, -13, 17,
   7, 2, 26, -20, -53, -12, 6, -33,
   27, -53, -26, -1, 32, 27, -21, 14,
   -50, -27, -13, -3, -40, 10, -23, -44,
   34, 42, -34, 8, 26, -34, -62, 47,
   22, -9, 17, 27, 17, -17, 0, 50,
   18, -19, 61, 63, -32, 15, 15, -85,
   -54, 21, 1, -1, -57, -10, 62, 0,
   45, -36, 45, 57, 17, -106, -60, 3,
   -8, 40, 36, 16, 46, 69, -6, 30,
   45, 41, 10, 3, 81, 118, 52, 56,
   -25, -23, 27, -6, 46, 72, 15, -20,
   -126, 47, -13, 62, -13, -55, 36, 13,
   27, -22, 52, 14, -43, 25, -11, -51,
   84, 39, 83, 12, -48, 46, 39, -45,
   4, 17, -6, 37, 54, -34, 48, 39,
   35, 18, 9, 15, -84, 34, -11, 25,
   -27, 27, 25, 34, -50, 83, -18, -23,
   -94, -19, 8, 14, 13, -54, 85, -2,
   31, -42, -39, -23, 5, 15, -17, 29,
   31, 14, 22, -63, 33, -83, 28, -52,
   -11, -18, -8, -10, 76, -90, -10, 6,
   75, -29, 4, -26, -51, -16, 63, 41,
   -67, 34, 4, 50, -75, -33, 14, 48,
   -2, 17, -99, 12, -20, -12, 53, 45,
   -2, -11, -26, -31, -9, 27, -61, 47,
   -22, -42, 26, -3, 34, 3, -19, 6,
   10, -83, 55, -5, -22, 15, -65, -34,
   -81, 43, 127, 13, -4, -20, 15, 19,
   -53, 11, 84, 37, -7, 16, 31, -91,
   76, 11, -43, -65, 39, 36, -50, 29,
   36, 69, -6, -17, -12, -55, -17, 16,
   18, -54, 4, -5, -30, 85, -60, -30,
   20, -46, -12, -72, 66, 19, -103, 60,
   -15, -44, 80, -61, 18, -45, 7, -7,
   19, 47, -11, 16, 18, -30, 0, -7,
   2, -28, -20, 56, 52, -8, 47, 12,
   -48, -33, -61, -21, 33, 44, -66, -11,
   -61, 64, -20, 32, -20, -9, 20, 2,
   -41, -76, 12, 13, 78, 1, -8, 64,
   -22, 58, 2, 30, 5, 21, 30, 34,
   -68, 6, -18, -27, 54, 27, 9, -26,
   -50, -39, -26, -8, -30, -24, -65, 18,
   -15, 5, -8, -27, -49, 50, -87, 0,
   32, 10, 1, 40, 44, -73, 102, -22,
   -27, -2, 4, -34, -7, -5, 19, 74,
   49, -67, -58, 7, -31, 20, 3, -98,
   54, 45, -80, 23, -89, -62, -9, 19,
   -1, -42, -7, -19, -9, 43, -13, 19,
   57, -13, -26, -43, 14, 10, 38, -1,
   -57, 31, 29, -32, 84, 37, -18, -29,
   -30, -4, 43, 36, 40, -16, 3, -10,
   15, 26, 34, -35, -21, -45, -18, -8,
   -30, 0, 28, -20, 14, -54, 10, -13,
   77, 55, -57, -44, 94, 41, -80, 28,
   50, 51, -44, -30, 15, 42, 8, 43,
   35, 22, 8, 62, 68, -60, 39, -1,
   30, 62, -31, 26, -17, 48, 27, 37,
   12, -12, -38, -17, -8, -45, -24, -25,
   27, -9, -3, 3, -53, -64, 34, -21,
   -67, 59, 12, 63, 35, 32, 74, 1,
   -25, -39, 72, -56, -15, 28, 8, 72,
   14, 27, 28, -46, 60, 21, -72, -19,
   -39, 28, -23, 3, 0, -42, 60, -34,
   52, -57, 7, -69, 58, 19, 77, 6,
   20, 9, -8, -32, 47, -17, -43, -21,
   -23, 123, -2, -80, 68, 65, -68, -4,
   2, 31, -27, 90, 74, 12, -10, 9,
   9, -14, 51, -68, 11, 21, -7, 6,
   -40, -51, -54, 38, 20, -46, 11, -111,
   -27, -22, -84, -6, -52, -35, 15, 6,
   -109, -90, 24, 50, 5, 0, 38, -41,
   -119, 44, -23, 4, 22, -22, -4, 32,
   -72, 4, -17, -1, 21, 30, 16, 81,
   20, -4, -54, 73, 2, -55, 49, 16,
   -19, -73, -42, 45, 3, 14, -23, 19,
   -19, -10, -47, -17, -12, 42, -71, -4,
   -83, 42, 14, 14, -65, -60, -39, -47,
   -19, -5, -60, -69, 3, 25, -12, -55,
   34, 6, -22, -60, -73, 1, -32, 30,
   -34, 32, 13, -26, -8, -50, -30, 14,
   32, -29, -52, -6, -48, -51, -1, -88,
   52, -35, -111, 20, 24, -24, -78, 67,
   -16, -22, 1, -76, -11, 40, -38, -54,
   2, -16, -93, -19, -60, 26, -47, -13,
   -13, -1, 2, -47, -28, -84, 13, -127,
   -8, 46, 7, 81, 8, -40, -15, 28,
   13, 41, -27, 14, -69, 7, -114, 6,
   55, -50, 58, 15, 39, 42, 23, 20,
   -47, -35, 58, -50, -18, -19, -9, 102,
